{"learner":{"attributes":{},"feature_names":[],"feature_types":[],"gradient_booster":{"model":{"cats":{"enc":[],"feature_segments":[],"sorted_idx":[]},"gbtree_model_param":{"num_parallel_tree":"1","num_trees":"2317"},"iteration_indptr":[0,1,2,3,4,5,6,7,8,9,10,11,12,13,14,15,16,17,18,19,20,21,22,23,24,25,26,27,28,29,30,31,32,33,34,35,36,37,38,39,40,41,42,43,44,45,46,47,48,49,50,51,52,53,54,55,56,57,58,59,60,61,62,63,64,65,66,67,68,69,70,71,72,73,74,75,76,77,78,79,80,81,82,83,84,85,86,87,88,89,90,91,92,93,94,95,96,97,98,99,100,101,102,103,104,105,106,107,108,109,110,111,112,113,114,115,116,117,118,119,120,121,122,123,124,125,126,127,128,129,130,131,132,133,134,135,136,137,138,139,140,141,142,143,144,145,146,147,148,149,150,151,152,153,154,155,156,157,158,159,160,161,162,163,164,165,166,167,168,169,170,171,172,173,174,175,176,177,178,179,180,181,182,183,184,185,186,187,188,189,190,191,192,193,194,195,196,197,198,199,200,201,202,203,204,205,206,207,208,209,210,211,212,213,214,215,216,217,218,219,220,221,222,223,224,225,226,227,228,229,230,231,232,233,234,235,236,237,238,239,240,241,242,243,244,245,246,247,248,249,250,251,252,253,254,255,256,257,258,259,260,261,262,263,264,265,266,267,268,269,270,271,272,273,274,275,276,277,278,279,280,281,282,283,284,285,286,287,288,289,290,291,292,293,294,295,296,297,298,299,300,301,302,303,304,305,306,307,308,309,310,311,312,313,314,315,316,317,318,319,320,321,322,323,324,325,326,327,328,329,330,331,332,333,334,335,336,337,338,339,340,341,342,343,344,345,346,347,348,349,350,351,352,353,354,355,356,357,358,359,360,361,362,363,364,365,366,367,368,369,370,371,372,373,374,375,376,377,378,379,380,381,382,383,384,385,386,387,388,389,390,391,392,393,394,395,396,397,398,399,400,401,402,403,404,405,406,407,408,409,410,411,412,413,414,415,416,417,418,419,420,421,422,423,424,425,426,427,428,429,430,431,432,433,434,435,436,437,438,439,440,441,442,443,444,445,446,447,448,449,450,451,452,453,454,455,456,457,458,459,460,461,462,463,464,465,466,467,468,469,470,471,472,473,474,475,476,477,478,479,480,481,482,483,484,485,486,487,488,489,490,491,492,493,494,495,496,497,498,499,500,501,502,503,504,505,506,507,508,509,510,511,512,513,514,515,516,517,518,519,520,521,522,523,524,525,526,527,528,529,530,531,532,533,534,535,536,537,538,539,540,541,542,543,544,545,546,547,548,549,550,551,552,553,554,555,556,557,558,559,560,561,562,563,564,565,566,567,568,569,570,571,572,573,574,575,576,577,578,579,580,581,582,583,584,585,586,587,588,589,590,591,592,593,594,595,596,597,598,599,600,601,602,603,604,605,606,607,608,609,610,611,612,613,614,615,616,617,618,619,620,621,622,623,624,625,626,627,628,629,630,631,632,633,634,635,636,637,638,639,640,641,642,643,644,645,646,647,648,649,650,651,652,653,654,655,656,657,658,659,660,661,662,663,664,665,666,667,668,669,670,671,672,673,674,675,676,677,678,679,680,681,682,683,684,685,686,687,688,689,690,691,692,693,694,695,696,697,698,699,700,701,702,703,704,705,706,707,708,709,710,711,712,713,714,715,716,717,718,719,720,721,722,723,724,725,726,727,728,729,730,731,732,733,734,735,736,737,738,739,740,741,742,743,744,745,746,747,748,749,750,751,752,753,754,755,756,757,758,759,760,761,762,763,764,765,766,767,768,769,770,771,772,773,774,775,776,777,778,779,780,781,782,783,784,785,786,787,788,789,790,791,792,793,794,795,796,797,798,799,800,801,802,803,804,805,806,807,808,809,810,811,812,813,814,815,816,817,818,819,820,821,822,823,824,825,826,827,828,829,830,831,832,833,834,835,836,837,838,839,840,841,842,843,844,845,846,847,848,849,850,851,852,853,854,855,856,857,858,859,860,861,862,863,864,865,866,867,868,869,870,871,872,873,874,875,876,877,878,879,880,881,882,883,884,885,886,887,888,889,890,891,892,893,894,895,896,897,898,899,900,901,902,903,904,905,906,907,908,909,910,911,912,913,914,915,916,917,918,919,920,921,922,923,924,925,926,927,928,929,930,931,932,933,934,935,936,937,938,939,940,941,942,943,944,945,946,947,948,949,950,951,952,953,954,955,956,957,958,959,960,961,962,963,964,965,966,967,968,969,970,971,972,973,974,975,976,977,978,979,980,981,982,983,984,985,986,987,988,989,990,991,992,993,994,995,996,997,998,999,1000,1001,1002,1003,1004,1005,1006,1007,1008,1009,1010,1011,1012,1013,1014,1015,1016,1017,1018,1019,1020,1021,1022,1023,1024,1025,1026,1027,1028,1029,1030,1031,1032,1033,1034,1035,1036,1037,1038,1039,1040,1041,1042,1043,1044,1045,1046,1047,1048,1049,1050,1051,1052,1053,1054,1055,1056,1057,1058,1059,1060,1061,1062,1063,1064,1065,1066,1067,1068,1069,1070,1071,1072,1073,1074,1075,1076,1077,1078,1079,1080,1081,1082,1083,1084,1085,1086,1087,1088,1089,1090,1091,1092,1093,1094,1095,1096,1097,1098,1099,1100,1101,1102,1103,1104,1105,1106,1107,1108,1109,1110,1111,1112,1113,1114,1115,1116,1117,1118,1119,1120,1121,1122,1123,1124,1125,1126,1127,1128,1129,1130,1131,1132,1133,1134,1135,1136,1137,1138,1139,1140,1141,1142,1143,1144,1145,1146,1147,1148,1149,1150,1151,1152,1153,1154,1155,1156,1157,1158,1159,1160,1161,1162,1163,1164,1165,1166,1167,1168,1169,1170,1171,1172,1173,1174,1175,1176,1177,1178,1179,1180,1181,1182,1183,1184,1185,1186,1187,1188,1189,1190,1191,1192,1193,1194,1195,1196,1197,1198,1199,1200,1201,1202,1203,1204,1205,1206,1207,1208,1209,1210,1211,1212,1213,1214,1215,1216,1217,1218,1219,1220,1221,1222,1223,1224,1225,1226,1227,1228,1229,1230,1231,1232,1233,1234,1235,1236,1237,1238,1239,1240,1241,1242,1243,1244,1245,1246,1247,1248,1249,1250,1251,1252,1253,1254,1255,1256,1257,1258,1259,1260,1261,1262,1263,1264,1265,1266,1267,1268,1269,1270,1271,1272,1273,1274,1275,1276,1277,1278,1279,1280,1281,1282,1283,1284,1285,1286,1287,1288,1289,1290,1291,1292,1293,1294,1295,1296,1297,1298,1299,1300,1301,1302,1303,1304,1305,1306,1307,1308,1309,1310,1311,1312,1313,1314,1315,1316,1317,1318,1319,1320,1321,1322,1323,1324,1325,1326,1327,1328,1329,1330,1331,1332,1333,1334,1335,1336,1337,1338,1339,1340,1341,1342,1343,1344,1345,1346,1347,1348,1349,1350,1351,1352,1353,1354,1355,1356,1357,1358,1359,1360,1361,1362,1363,1364,1365,1366,1367,1368,1369,1370,1371,1372,1373,1374,1375,1376,1377,1378,1379,1380,1381,1382,1383,1384,1385,1386,1387,1388,1389,1390,1391,1392,1393,1394,1395,1396,1397,1398,1399,1400,1401,1402,1403,1404,1405,1406,1407,1408,1409,1410,1411,1412,1413,1414,1415,1416,1417,1418,1419,1420,1421,1422,1423,1424,1425,1426,1427,1428,1429,1430,1431,1432,1433,1434,1435,1436,1437,1438,1439,1440,1441,1442,1443,1444,1445,1446,1447,1448,1449,1450,1451,1452,1453,1454,1455,1456,1457,1458,1459,1460,1461,1462,1463,1464,1465,1466,1467,1468,1469,1470,1471,1472,1473,1474,1475,1476,1477,1478,1479,1480,1481,1482,1483,1484,1485,1486,1487,1488,1489,1490,1491,1492,1493,1494,1495,1496,1497,1498,1499,1500,1501,1502,1503,1504,1505,1506,1507,1508,1509,1510,1511,1512,1513,1514,1515,1516,1517,1518,1519,1520,1521,1522,1523,1524,1525,1526,1527,1528,1529,1530,1531,1532,1533,1534,1535,1536,1537,1538,1539,1540,1541,1542,1543,1544,1545,1546,1547,1548,1549,1550,1551,1552,1553,1554,1555,1556,1557,1558,1559,1560,1561,1562,1563,1564,1565,1566,1567,1568,1569,1570,1571,1572,1573,1574,1575,1576,1577,1578,1579,1580,1581,1582,1583,1584,1585,1586,1587,1588,1589,1590,1591,1592,1593,1594,1595,1596,1597,1598,1599,1600,1601,1602,1603,1604,1605,1606,1607,1608,1609,1610,1611,1612,1613,1614,1615,1616,1617,1618,1619,1620,1621,1622,1623,1624,1625,1626,1627,1628,1629,1630,1631,1632,1633,1634,1635,1636,1637,1638,1639,1640,1641,1642,1643,1644,1645,1646,1647,1648,1649,1650,1651,1652,1653,1654,1655,1656,1657,1658,1659,1660,1661,1662,1663,1664,1665,1666,1667,1668,1669,1670,1671,1672,1673,1674,1675,1676,1677,1678,1679,1680,1681,1682,1683,1684,1685,1686,1687,1688,1689,1690,1691,1692,1693,1694,1695,1696,1697,1698,1699,1700,1701,1702,1703,1704,1705,1706,1707,1708,1709,1710,1711,1712,1713,1714,1715,1716,1717,1718,1719,1720,1721,1722,1723,1724,1725,1726,1727,1728,1729,1730,1731,1732,1733,1734,1735,1736,1737,1738,1739,1740,1741,1742,1743,1744,1745,1746,1747,1748,1749,1750,1751,1752,1753,1754,1755,1756,1757,1758,1759,1760,1761,1762,1763,1764,1765,1766,1767,1768,1769,1770,1771,1772,1773,1774,1775,1776,1777,1778,1779,1780,1781,1782,1783,1784,1785,1786,1787,1788,1789,1790,1791,1792,1793,1794,1795,1796,1797,1798,1799,1800,1801,1802,1803,1804,1805,1806,1807,1808,1809,1810,1811,1812,1813,1814,1815,1816,1817,1818,1819,1820,1821,1822,1823,1824,1825,1826,1827,1828,1829,1830,1831,1832,1833,1834,1835,1836,1837,1838,1839,1840,1841,1842,1843,1844,1845,1846,1847,1848,1849,1850,1851,1852,1853,1854,1855,1856,1857,1858,1859,1860,1861,1862,1863,1864,1865,1866,1867,1868,1869,1870,1871,1872,1873,1874,1875,1876,1877,1878,1879,1880,1881,1882,1883,1884,1885,1886,1887,1888,1889,1890,1891,1892,1893,1894,1895,1896,1897,1898,1899,1900,1901,1902,1903,1904,1905,1906,1907,1908,1909,1910,1911,1912,1913,1914,1915,1916,1917,1918,1919,1920,1921,1922,1923,1924,1925,1926,1927,1928,1929,1930,1931,1932,1933,1934,1935,1936,1937,1938,1939,1940,1941,1942,1943,1944,1945,1946,1947,1948,1949,1950,1951,1952,1953,1954,1955,1956,1957,1958,1959,1960,1961,1962,1963,1964,1965,1966,1967,1968,1969,1970,1971,1972,1973,1974,1975,1976,1977,1978,1979,1980,1981,1982,1983,1984,1985,1986,1987,1988,1989,1990,1991,1992,1993,1994,1995,1996,1997,1998,1999,2000,2001,2002,2003,2004,2005,2006,2007,2008,2009,2010,2011,2012,2013,2014,2015,2016,2017,2018,2019,2020,2021,2022,2023,2024,2025,2026,2027,2028,2029,2030,2031,2032,2033,2034,2035,2036,2037,2038,2039,2040,2041,2042,2043,2044,2045,2046,2047,2048,2049,2050,2051,2052,2053,2054,2055,2056,2057,2058,2059,2060,2061,2062,2063,2064,2065,2066,2067,2068,2069,2070,2071,2072,2073,2074,2075,2076,2077,2078,2079,2080,2081,2082,2083,2084,2085,2086,2087,2088,2089,2090,2091,2092,2093,2094,2095,2096,2097,2098,2099,2100,2101,2102,2103,2104,2105,2106,2107,2108,2109,2110,2111,2112,2113,2114,2115,2116,2117,2118,2119,2120,2121,2122,2123,2124,2125,2126,2127,2128,2129,2130,2131,2132,2133,2134,2135,2136,2137,2138,2139,2140,2141,2142,2143,2144,2145,2146,2147,2148,2149,2150,2151,2152,2153,2154,2155,2156,2157,2158,2159,2160,2161,2162,2163,2164,2165,2166,2167,2168,2169,2170,2171,2172,2173,2174,2175,2176,2177,2178,2179,2180,2181,2182,2183,2184,2185,2186,2187,2188,2189,2190,2191,2192,2193,2194,2195,2196,2197,2198,2199,2200,2201,2202,2203,2204,2205,2206,2207,2208,2209,2210,2211,2212,2213,2214,2215,2216,2217,2218,2219,2220,2221,2222,2223,2224,2225,2226,2227,2228,2229,2230,2231,2232,2233,2234,2235,2236,2237,2238,2239,2240,2241,2242,2243,2244,2245,2246,2247,2248,2249,2250,2251,2252,2253,2254,2255,2256,2257,2258,2259,2260,2261,2262,2263,2264,2265,2266,2267,2268,2269,2270,2271,2272,2273,2274,2275,2276,2277,2278,2279,2280,2281,2282,2283,2284,2285,2286,2287,2288,2289,2290,2291,2292,2293,2294,2295,2296,2297,2298,2299,2300,2301,2302,2303,2304,2305,2306,2307,2308,2309,2310,2311,2312,2313,2314,2315,2316,2317],"tree_info":[0,0,0,0,0,0,0,0,0,0,0,0,0,0,0,0,0,0,0,0,0,0,0,0,0,0,0,0,0,0,0,0,0,0,0,0,0,0,0,0,0,0,0,0,0,0,0,0,0,0,0,0,0,0,0,0,0,0,0,0,0,0,0,0,0,0,0,0,0,0,0,0,0,0,0,0,0,0,0,0,0,0,0,0,0,0,0,0,0,0,0,0,0,0,0,0,0,0,0,0,0,0,0,0,0,0,0,0,0,0,0,0,0,0,0,0,0,0,0,0,0,0,0,0,0,0,0,0,0,0,0,0,0,0,0,0,0,0,0,0,0,0,0,0,0,0,0,0,0,0,0,0,0,0,0,0,0,0,0,0,0,0,0,0,0,0,0,0,0,0,0,0,0,0,0,0,0,0,0,0,0,0,0,0,0,0,0,0,0,0,0,0,0,0,0,0,0,0,0,0,0,0,0,0,0,0,0,0,0,0,0,0,0,0,0,0,0,0,0,0,0,0,0,0,0,0,0,0,0,0,0,0,0,0,0,0,0,0,0,0,0,0,0,0,0,0,0,0,0,0,0,0,0,0,0,0,0,0,0,0,0,0,0,0,0,0,0,0,0,0,0,0,0,0,0,0,0,0,0,0,0,0,0,0,0,0,0,0,0,0,0,0,0,0,0,0,0,0,0,0,0,0,0,0,0,0,0,0,0,0,0,0,0,0,0,0,0,0,0,0,0,0,0,0,0,0,0,0,0,0,0,0,0,0,0,0,0,0,0,0,0,0,0,0,0,0,0,0,0,0,0,0,0,0,0,0,0,0,0,0,0,0,0,0,0,0,0,0,0,0,0,0,0,0,0,0,0,0,0,0,0,0,0,0,0,0,0,0,0,0,0,0,0,0,0,0,0,0,0,0,0,0,0,0,0,0,0,0,0,0,0,0,0,0,0,0,0,0,0,0,0,0,0,0,0,0,0,0,0,0,0,0,0,0,0,0,0,0,0,0,0,0,0,0,0,0,0,0,0,0,0,0,0,0,0,0,0,0,0,0,0,0,0,0,0,0,0,0,0,0,0,0,0,0,0,0,0,0,0,0,0,0,0,0,0,0,0,0,0,0,0,0,0,0,0,0,0,0,0,0,0,0,0,0,0,0,0,0,0,0,0,0,0,0,0,0,0,0,0,0,0,0,0,0,0,0,0,0,0,0,0,0,0,0,0,0,0,0,0,0,0,0,0,0,0,0,0,0,0,0,0,0,0,0,0,0,0,0,0,0,0,0,0,0,0,0,0,0,0,0,0,0,0,0,0,0,0,0,0,0,0,0,0,0,0,0,0,0,0,0,0,0,0,0,0,0,0,0,0,0,0,0,0,0,0,0,0,0,0,0,0,0,0,0,0,0,0,0,0,0,0,0,0,0,0,0,0,0,0,0,0,0,0,0,0,0,0,0,0,0,0,0,0,0,0,0,0,0,0,0,0,0,0,0,0,0,0,0,0,0,0,0,0,0,0,0,0,0,0,0,0,0,0,0,0,0,0,0,0,0,0,0,0,0,0,0,0,0,0,0,0,0,0,0,0,0,0,0,0,0,0,0,0,0,0,0,0,0,0,0,0,0,0,0,0,0,0,0,0,0,0,0,0,0,0,0,0,0,0,0,0,0,0,0,0,0,0,0,0,0,0,0,0,0,0,0,0,0,0,0,0,0,0,0,0,0,0,0,0,0,0,0,0,0,0,0,0,0,0,0,0,0,0,0,0,0,0,0,0,0,0,0,0,0,0,0,0,0,0,0,0,0,0,0,0,0,0,0,0,0,0,0,0,0,0,0,0,0,0,0,0,0,0,0,0,0,0,0,0,0,0,0,0,0,0,0,0,0,0,0,0,0,0,0,0,0,0,0,0,0,0,0,0,0,0,0,0,0,0,0,0,0,0,0,0,0,0,0,0,0,0,0,0,0,0,0,0,0,0,0,0,0,0,0,0,0,0,0,0,0,0,0,0,0,0,0,0,0,0,0,0,0,0,0,0,0,0,0,0,0,0,0,0,0,0,0,0,0,0,0,0,0,0,0,0,0,0,0,0,0,0,0,0,0,0,0,0,0,0,0,0,0,0,0,0,0,0,0,0,0,0,0,0,0,0,0,0,0,0,0,0,0,0,0,0,0,0,0,0,0,0,0,0,0,0,0,0,0,0,0,0,0,0,0,0,0,0,0,0,0,0,0,0,0,0,0,0,0,0,0,0,0,0,0,0,0,0,0,0,0,0,0,0,0,0,0,0,0,0,0,0,0,0,0,0,0,0,0,0,0,0,0,0,0,0,0,0,0,0,0,0,0,0,0,0,0,0,0,0,0,0,0,0,0,0,0,0,0,0,0,0,0,0,0,0,0,0,0,0,0,0,0,0,0,0,0,0,0,0,0,0,0,0,0,0,0,0,0,0,0,0,0,0,0,0,0,0,0,0,0,0,0,0,0,0,0,0,0,0,0,0,0,0,0,0,0,0,0,0,0,0,0,0,0,0,0,0,0,0,0,0,0,0,0,0,0,0,0,0,0,0,0,0,0,0,0,0,0,0,0,0,0,0,0,0,0,0,0,0,0,0,0,0,0,0,0,0,0,0,0,0,0,0,0,0,0,0,0,0,0,0,0,0,0,0,0,0,0,0,0,0,0,0,0,0,0,0,0,0,0,0,0,0,0,0,0,0,0,0,0,0,0,0,0,0,0,0,0,0,0,0,0,0,0,0,0,0,0,0,0,0,0,0,0,0,0,0,0,0,0,0,0,0,0,0,0,0,0,0,0,0,0,0,0,0,0,0,0,0,0,0,0,0,0,0,0,0,0,0,0,0,0,0,0,0,0,0,0,0,0,0,0,0,0,0,0,0,0,0,0,0,0,0,0,0,0,0,0,0,0,0,0,0,0,0,0,0,0,0,0,0,0,0,0,0,0,0,0,0,0,0,0,0,0,0,0,0,0,0,0,0,0,0,0,0,0,0,0,0,0,0,0,0,0,0,0,0,0,0,0,0,0,0,0,0,0,0,0,0,0,0,0,0,0,0,0,0,0,0,0,0,0,0,0,0,0,0,0,0,0,0,0,0,0,0,0,0,0,0,0,0,0,0,0,0,0,0,0,0,0,0,0,0,0,0,0,0,0,0,0,0,0,0,0,0,0,0,0,0,0,0,0,0,0,0,0,0,0,0,0,0,0,0,0,0,0,0,0,0,0,0,0,0,0,0,0,0,0,0,0,0,0,0,0,0,0,0,0,0,0,0,0,0,0,0,0,0,0,0,0,0,0,0,0,0,0,0,0,0,0,0,0,0,0,0,0,0,0,0,0,0,0,0,0,0,0,0,0,0,0,0,0,0,0,0,0,0,0,0,0,0,0,0,0,0,0,0,0,0,0,0,0,0,0,0,0,0,0,0,0,0,0,0,0,0,0,0,0,0,0,0,0,0,0,0,0,0,0,0,0,0,0,0,0,0,0,0,0,0,0,0,0,0,0,0,0,0,0,0,0,0,0,0,0,0,0,0,0,0,0,0,0,0,0,0,0,0,0,0,0,0,0,0,0,0,0,0,0,0,0,0,0,0,0,0,0,0,0,0,0,0,0,0,0,0,0,0,0,0,0,0,0,0,0,0,0,0,0,0,0,0,0,0,0,0,0,0,0,0,0,0,0,0,0,0,0,0,0,0,0,0,0,0,0,0,0,0,0,0,0,0,0,0,0,0,0,0,0,0,0,0,0,0,0,0,0,0,0,0,0,0,0,0,0,0,0,0,0,0,0,0,0,0,0,0,0,0,0,0,0,0,0,0,0,0,0,0,0,0,0,0,0,0,0,0,0,0,0,0,0,0,0,0,0,0,0,0,0,0,0,0,0,0,0,0,0,0,0,0,0,0,0,0,0,0,0,0,0,0,0,0,0,0,0,0,0,0,0,0,0,0,0,0,0,0,0,0,0,0,0,0,0,0,0,0,0,0,0,0,0,0,0,0,0,0,0,0,0,0,0,0,0,0,0,0,0,0,0,0,0,0,0,0,0,0,0,0,0,0,0,0,0,0,0,0,0,0,0,0,0,0,0,0,0,0,0,0,0,0,0,0,0,0,0,0,0,0,0,0,0,0,0,0,0,0,0,0,0,0,0,0,0,0,0,0,0,0,0,0,0,0,0,0,0,0,0,0,0,0,0,0,0,0,0,0,0,0,0,0,0,0,0,0,0,0,0,0,0,0,0,0,0,0,0,0,0,0,0,0,0,0,0,0,0,0,0,0,0,0,0,0,0,0,0,0,0,0,0,0,0,0,0,0,0,0,0,0,0,0,0,0,0,0,0,0,0,0,0,0,0,0,0,0,0,0,0,0,0,0,0,0,0,0,0,0,0,0,0,0,0,0,0,0,0,0,0,0,0,0,0,0,0,0,0,0,0,0,0,0,0,0,0,0,0,0,0,0,0,0,0,0,0,0,0,0,0,0,0,0,0,0,0,0,0,0,0,0,0,0,0,0,0,0,0,0,0,0,0,0,0,0,0,0,0,0,0,0,0,0,0,0,0,0,0,0,0,0,0,0,0,0,0,0,0,0,0,0,0,0,0,0,0,0,0,0,0,0,0,0,0,0,0,0,0,0,0,0,0,0,0,0,0,0,0,0,0,0,0,0,0,0,0,0,0,0,0,0,0,0,0,0,0,0,0,0,0,0,0,0,0,0,0,0,0,0,0,0,0,0,0,0,0,0,0,0,0,0,0,0,0,0,0,0,0,0,0,0,0,0,0,0,0,0,0,0,0,0,0,0,0,0,0,0,0,0,0,0,0,0,0,0,0,0,0,0,0,0,0,0,0,0,0,0,0,0,0,0,0,0,0,0,0,0,0,0,0,0,0,0,0,0,0,0,0,0,0,0,0,0,0,0,0,0,0,0,0,0,0,0,0,0,0,0,0,0,0,0,0,0,0,0,0,0,0,0,0,0,0,0,0,0,0,0,0,0,0,0,0,0,0,0,0,0,0,0,0,0,0,0,0,0,0,0,0,0,0,0,0,0,0,0,0,0,0,0,0,0,0,0,0,0,0,0,0,0,0,0,0,0,0,0,0,0,0,0,0,0,0,0,0,0,0,0,0,0,0,0,0,0,0,0,0,0,0,0,0,0,0,0,0,0,0,0,0,0,0,0,0,0,0,0,0,0,0,0,0,0,0,0,0,0,0,0,0,0,0,0],"trees":[{"base_weights":[-3.1317193E-2,-4.4998682E-1,2.275615E-2,-6.6042084E-1,-0E0,-4.9589933E-3,6.510978E-4,-4.4666323E-1,6.639173E-1,-4.5389873E-3,-2.140481E-4,6.39688E-3,6.3958834E-4],"categories":[],"categories_nodes":[],"categories_segments":[],"categories_sizes":[],"default_left":[0,0,0,0,0,0,0,0,0,0,0,0,0],"id":0,"left_children":[1,3,-1,5,7,-1,-1,9,11,-1,-1,-1,-1],"loss_changes":[2.586998E2,1.5087429E1,0E0,7.7035027E0,1.7912912E1,0E0,0E0,3.207602E0,3.326311E0,0E0,0E0,0E0,0E0],"parents":[2147483647,0,0,1,1,3,3,4,4,7,7,8,8],"right_children":[2,4,-1,6,8,-1,-1,10,12,-1,-1,-1,-1],"split_conditions":[9.597182E0,-3E0,2.275615E-2,1.6782716E2,3.1368364E3,-4.9589933E-3,6.510978E-4,2.3570225E0,4.92E2,-4.5389873E-3,-2.140481E-4,6.39688E-3,6.3958834E-4],"split_indices":[27,0,0,12,49,0,0,2,17,0,0,0,0],"split_type":[0,0,0,0,0,0,0,0,0,0,0,0,0],"sum_hessian":[1.6957796E2,1.550243E2,1.4553651E1,1.0403017E2,5.0994137E1,9.384533E1,1.01848345E1,3.1464027E1,1.9530111E1,1.754134E1,1.3922687E1,1.0232773E1,9.2973385E0],"tree_param":{"num_deleted":"0","num_feature":"50","num_nodes":"13","size_leaf_vector":"1"}},{"base_weights":[4.6093194E-3,-4.407708E-1,2.3418335E-2,-5.453445E-1,5.110418E-3,-6.3440955E-1,1.0143574E-3,-7.413131E-1,-4.0282504E-4,-5.2861334E-3,-3.5856405E-4],"categories":[],"categories_nodes":[],"categories_segments":[],"categories_sizes":[],"default_left":[0,0,0,0,0,0,0,0,0,0,0],"id":1,"left_children":[1,3,-1,5,-1,7,-1,9,-1,-1,-1],"loss_changes":[2.8196692E2,2.2024475E1,0E0,9.905006E0,0E0,7.718933E0,0E0,3.7276306E0,0E0,0E0,0E0],"parents":[2147483647,0,0,1,1,3,3,5,5,7,7],"right_children":[2,4,-1,6,-1,8,-1,10,-1,-1,-1],"split_conditions":[9.452652E0,3.7745333E0,2.3418335E-2,3.6666667E0,5.110418E-3,4.3816753E1,1.0143574E-3,1.8148148E0,-4.0282504E-4,-5.2861334E-3,-3.5856405E-4],"split_indices":[27,35,0,1,0,13,0,10,0,0,0],"split_type":[0,0,0,0,0,0,0,0,0,0,0],"sum_hessian":[1.6963661E2,1.5418282E2,1.54538E1,1.4457176E2,9.611047E0,1.2902852E2,1.5543257E1,1.0710011E2,2.1928396E1,9.802704E1,9.073076E0],"tree_param":{"num_deleted":"0","num_feature":"50","num_nodes":"11","size_leaf_vector":"1"}},{"base_weights":[1.599509E-2,-4.211536E-1,2.2774493E-2,-6.293886E-1,1.1253843E-2,-7.5902706E-1,-5.412083E-2,-5.358871E-3,-1.2825227E-3,-3.291774E-3,3.7158618E-3],"categories":[],"categories_nodes":[],"categories_segments":[],"categories_sizes":[],"default_left":[0,0,0,0,0,0,0,0,0,0,0],"id":2,"left_children":[1,3,-1,5,-1,7,9,-1,-1,-1,-1],"loss_changes":[2.6812637E2,7.462094E1,0E0,1.0573441E1,0E0,2.192337E0,1.0184595E1,0E0,0E0,0E0,0E0],"parents":[2147483647,0,0,1,1,3,3,5,5,6,6],"right_children":[2,4,-1,6,-1,8,10,-1,-1,-1,-1],"split_conditions":[9.452652E0,9.595933E0,2.2774493E-2,6.6493335E0,1.1253843E-2,4E0,-8E0,-5.358871E-3,-1.2825227E-3,-3.291774E-3,3.7158618E-3],"split_indices":[27,36,0,36,0,1,0,0,0,0,0],"split_type":[0,0,0,0,0,0,0,0,0,0,0],"sum_hessian":[1.696512E2,1.5398154E2,1.5669663E1,1.4335728E2,1.0624246E1,1.15278625E2,2.8078663E1,1.0382897E2,1.1449656E1,1.7178808E1,1.0899854E1],"tree_param":{"num_deleted":"0","num_feature":"50","num_nodes":"11","size_leaf_vector":"1"}},{"base_weights":[1.1982745E-2,-3.925113E-1,2.2302024E-2,4.869574E-3,-5.216185E-1,-6.462373E-1,3.3277813E-3,-5.237187E-3,-1.8607228E-1,-3.30568E-3,2.1637843E-3],"categories":[],"categories_nodes":[],"categories_segments":[],"categories_sizes":[],"default_left":[0,0,0,0,0,0,0,0,0,0,0],"id":3,"left_children":[1,3,-1,-1,5,7,-1,-1,9,-1,-1],"loss_changes":[2.4293527E2,2.4917227E1,0E0,0E0,2.0201786E1,7.67527E0,0E0,0E0,6.9111013E0,0E0,0E0],"parents":[2147483647,0,0,1,1,4,4,5,5,8,8],"right_children":[2,4,-1,-1,6,8,-1,-1,10,-1,-1],"split_conditions":[9.880484E0,-4.4192667E0,2.2302024E-2,4.869574E-3,4.5373335E0,1.11E2,3.3277813E-3,-5.237187E-3,3.6247606E0,-3.30568E-3,2.1637843E-3],"split_indices":[27,34,0,0,34,8,0,0,2,0,0],"split_type":[0,0,0,0,0,0,0,0,0,0,0],"sum_hessian":[1.6935484E2,1.5472838E2,1.4626466E1,1.3369548E1,1.4135884E2,1.27854416E2,1.3504418E1,9.446564E1,3.338878E1,2.1243153E1,1.2145624E1],"tree_param":{"num_deleted":"0","num_feature":"50","num_nodes":"11","size_leaf_vector":"1"}},{"base_weights":[-6.970211E-2,-4.9424672E-1,2.5741084E0,-5.886856E-1,3.3515638E-3,7.6682586E-3,2.159133E-2,-4.8144683E-3,-6.604772E-2,1.9080829E-3,-2.7156873E-3],"categories":[],"categories_nodes":[],"categories_segments":[],"categories_sizes":[],"default_left":[0,0,0,0,0,0,0,0,0,0,0],"id":4,"left_children":[1,3,5,7,-1,-1,-1,-1,9,-1,-1],"loss_changes":[2.0057935E2,1.5961456E1,4.533905E0,9.717758E0,0E0,0E0,0E0,0E0,4.884186E0,0E0,0E0],"parents":[2147483647,0,0,1,1,2,2,3,3,8,8],"right_children":[2,4,6,8,-1,-1,-1,-1,10,-1,-1],"split_conditions":[8.534498E0,3.5009334E0,-2E0,1.25E2,3.3515638E-3,7.6682586E-3,2.159133E-2,-4.8144683E-3,6.540501E4,1.9080829E-3,-2.7156873E-3],"split_indices":[27,35,0,8,0,0,0,0,29,0,0],"split_type":[0,0,0,0,0,0,0,0,0,0,0],"sum_hessian":[1.6924632E2,1.4925154E2,1.9994785E1,1.3844632E2,1.0805214E1,1.0758727E1,9.236058E0,1.0781074E2,3.0635588E1,1.4977856E1,1.5657732E1],"tree_param":{"num_deleted":"0","num_feature":"50","num_nodes":"11","size_leaf_vector":"1"}},{"base_weights":[-7.050771E-2,-4.1171345E-1,2.2746043E-2,-7.023265E-1,4.50304E-1,-7.659104E-1,3.2142745E-4,-2.187853E-3,8.198083E-3,-5.4368065E-3,-9.2527596E-4],"categories":[],"categories_nodes":[],"categories_segments":[],"categories_sizes":[],"default_left":[0,0,0,0,0,0,0,0,0,0,0],"id":5,"left_children":[1,3,-1,5,7,9,-1,-1,-1,-1,-1],"loss_changes":[2.133851E2,4.2402466E1,0E0,6.3384438E0,2.8949139E1,2.9544907E0,0E0,0E0,0E0,0E0,0E0],"parents":[2147483647,0,0,1,1,3,3,4,4,5,5],"right_children":[2,4,-1,6,8,10,-1,-1,-1,-1,-1],"split_conditions":[1.0881133E1,6.6493335E0,2.2746043E-2,7E0,-1E1,1.63E2,3.2142745E-4,-2.187853E-3,8.198083E-3,-5.4368065E-3,-9.2527596E-4],"split_indices":[36,36,0,0,0,8,0,0,0,0,0],"split_type":[0,0,0,0,0,0,0,0,0,0,0],"sum_hessian":[1.6939711E2,1.5822502E2,1.117209E1,1.192812E2,3.8943817E1,1.10296326E2,8.984874E0,2.068796E1,1.8255857E1,9.985653E1,1.0439795E1],"tree_param":{"num_deleted":"0","num_feature":"50","num_nodes":"11","size_leaf_vector":"1"}},{"base_weights":[2.5156185E-2,-4.0861848E-1,2.128888E-2,-5.1316637E-1,2.657331E-3,-6.626544E-1,4.579298E-2,-4.9333083E-3,-2.0427534E-1,-1.5706215E-3,3.3330428E-3,-3.2243365E-3,6.3723203E-4],"categories":[],"categories_nodes":[],"categories_segments":[],"categories_sizes":[],"default_left":[0,0,0,0,0,0,0,0,0,0,0,0,0],"id":6,"left_children":[1,3,-1,5,-1,7,9,-1,11,-1,-1,-1,-1],"loss_changes":[2.4698859E2,1.4289848E1,0E0,1.2177246E1,0E0,3.1052513E0,5.0062556E0,0E0,2.37452E0,0E0,0E0,0E0,0E0],"parents":[2147483647,0,0,1,1,3,3,5,5,6,6,8,8],"right_children":[2,4,-1,6,-1,8,10,-1,12,-1,-1,-1,-1],"split_conditions":[9.452652E0,4.3333335E0,2.128888E-2,1E0,2.657331E-3,9.4159013E-1,-8.833333E0,-4.9333083E-3,-3.317136E-1,-1.5706215E-3,3.3330428E-3,-3.2243365E-3,6.3723203E-4],"split_indices":[27,1,0,10,0,21,1,0,48,0,0,0,0],"split_type":[0,0,0,0,0,0,0,0,0,0,0,0,0],"sum_hessian":[1.6906953E2,1.5231557E2,1.6753963E1,1.3678403E2,1.5531544E1,1.0770874E2,2.9075283E1,8.850527E1,1.9203466E1,1.8906328E1,1.0168955E1,8.990042E0,1.0213425E1],"tree_param":{"num_deleted":"0","num_feature":"50","num_nodes":"13","size_leaf_vector":"1"}},{"base_weights":[1.9354066E-2,-4.2031446E-1,2.1223782E-2,-4.726566E-3,-1.0739038E-1,4.9887088E-1,-4.4189182E-1,-8.03099E-4,5.273529E-3,-6.5103686E-1,2.303886E-3,-5.2776616E-3,-9.2945545E-4],"categories":[],"categories_nodes":[],"categories_segments":[],"categories_sizes":[],"default_left":[0,0,0,0,0,0,0,0,0,0,0,0,0],"id":7,"left_children":[1,3,-1,-1,5,7,9,-1,-1,11,-1,-1,-1],"loss_changes":[2.5010349E2,1.36655445E1,0E0,0E0,1.7600807E1,6.34622E0,1.03366E1,0E0,0E0,2.531332E0,0E0,0E0,0E0],"parents":[2147483647,0,0,1,1,4,4,5,5,6,6,9,9],"right_children":[2,4,-1,-1,6,8,10,-1,-1,12,-1,-1,-1],"split_conditions":[9.452652E0,6E0,2.1223782E-2,-4.726566E-3,4.3029352E2,4.0775375E0,5.5518613E0,-8.03099E-4,5.273529E-3,4.7184987E0,2.303886E-3,-5.2776616E-3,-9.2945545E-4],"split_indices":[27,4,0,0,28,9,27,0,0,9,0,0,0],"split_type":[0,0,0,0,0,0,0,0,0,0,0,0,0],"sum_hessian":[1.6907768E2,1.5203548E2,1.7042202E1,7.501555E1,7.7019936E1,2.6198683E1,5.082125E1,8.986968E0,1.7211714E1,4.1164726E1,9.656526E0,2.9552671E1,1.1612054E1],"tree_param":{"num_deleted":"0","num_feature":"50","num_nodes":"13","size_leaf_vector":"1"}},{"base_weights":[-2.0921845E-2,-4.3050227E-1,1.8949768E-2,-6.1517173E-1,9.313199E-3,-7.377757E-1,-6.2332653E-2,-8.1371194E-1,-0E0,-4.449311E-3,3.5895386E-3,-5.751442E-3,-1.2642815E-3],"categories":[],"categories_nodes":[],"categories_segments":[],"categories_sizes":[],"default_left":[0,0,0,0,0,0,0,0,0,0,0,0,0],"id":8,"left_children":[1,3,-1,5,-1,7,9,11,-1,-1,-1,-1,-1],"loss_changes":[2.0927731E2,5.6645836E1,0E0,9.354771E0,0E0,6.675728E0,1.3496013E1,2.3694E0,0E0,0E0,0E0,0E0,0E0],"parents":[2147483647,0,0,1,1,3,3,5,5,6,6,7,7],"right_children":[2,4,-1,6,-1,8,10,12,-1,-1,-1,-1,-1],"split_conditions":[9.452652E0,9.595933E0,1.8949768E-2,6.6836E0,9.313199E-3,1.63E2,-1.3166667E1,4E0,-0E0,-4.449311E-3,3.5895386E-3,-5.751442E-3,-1.2642815E-3],"split_indices":[27,36,0,36,0,8,1,1,0,0,0,0,0],"split_type":[0,0,0,0,0,0,0,0,0,0,0,0,0],"sum_hessian":[1.6875026E2,1.5133044E2,1.7419811E1,1.4050362E2,1.082683E1,1.1320292E2,2.7300694E1,1.0230147E2,1.0901452E1,1.3613948E1,1.3686746E1,9.213968E1,1.0161787E1],"tree_param":{"num_deleted":"0","num_feature":"50","num_nodes":"13","size_leaf_vector":"1"}},{"base_weights":[-0E0,-3.1735566E-1,2.4217466E-2,-6.3958085E-1,4.219695E-1,-7.1723646E-1,5.2632275E-4,-2.3853697E-3,1.2118632E0,-5.1788846E-3,-5.5818184E-4,2.6334645E-3,1.0590964E-2],"categories":[],"categories_nodes":[],"categories_segments":[],"categories_sizes":[],"default_left":[0,0,0,0,0,0,0,0,0,0,0,0,0],"id":9,"left_children":[1,3,-1,5,7,9,-1,-1,11,-1,-1,-1,-1],"loss_changes":[2.065237E2,4.0387405E1,0E0,6.9790115E0,3.4603542E1,3.6081543E0,0E0,0E0,4.8607025E0,0E0,0E0,0E0,0E0],"parents":[2147483647,0,0,1,1,3,3,4,4,5,5,8,8],"right_children":[2,4,-1,6,8,10,-1,-1,12,-1,-1,-1,-1],"split_conditions":[1.15112E1,6.347533E0,2.4217466E-2,1.962963E0,-1E1,5.8214164E0,5.2632275E-4,-2.3853697E-3,7.7408E0,-5.1788846E-3,-5.5818184E-4,2.6334645E-3,1.0590964E-2],"split_indices":[36,36,0,10,0,2,0,0,36,0,0,0,0],"split_type":[0,0,0,0,0,0,0,0,0,0,0,0,0],"sum_hessian":[1.6869208E2,1.5913852E2,9.553561E0,1.11597275E2,4.7541237E1,1.01152985E2,1.0444295E1,2.498081E1,2.2560427E1,9.053697E1,1.0616009E1,1.0576064E1,1.1984363E1],"tree_param":{"num_deleted":"0","num_feature":"50","num_nodes":"13","size_leaf_vector":"1"}},{"base_weights":[-3.065084E-2,-2.0766577E-1,1.3476287E-2,-3.883869E-1,7.7351048E-3,-5.5719995E-1,4.3615894E-3,-6.3902116E-1,2.1788424E-3,6.394394E-4,-4.6934113E-3],"categories":[],"categories_nodes":[],"categories_segments":[],"categories_sizes":[],"default_left":[0,0,0,0,0,0,0,0,0,0,0],"id":10,"left_children":[1,3,-1,5,-1,7,-1,9,-1,-1,-1],"loss_changes":[6.453061E1,4.2536053E1,0E0,2.7918806E1,0E0,1.0570503E1,0E0,6.6050377E0,0E0,0E0,0E0],"parents":[2147483647,0,0,1,1,3,3,5,5,7,7],"right_children":[2,4,-1,6,-1,8,-1,10,-1,-1,-1],"split_conditions":[4.517733E0,5.3333335E0,1.3476287E-2,1.7407408E0,7.7351048E-3,4.8942666E0,4.3615894E-3,-4.7816668E0,2.1788424E-3,6.394394E-4,-4.6934113E-3],"split_indices":[35,1,0,10,0,34,0,34,0,0,0],"split_type":[0,0,0,0,0,0,0,0,0,0,0],"sum_hessian":[1.6842854E2,1.5917015E2,9.258399E0,1.438674E2,1.5302748E1,1.26044685E2,1.7822708E1,1.1693703E2,9.107662E0,9.297118E0,1.0763991E2],"tree_param":{"num_deleted":"0","num_feature":"50","num_nodes":"11","size_leaf_vector":"1"}},{"base_weights":[2.9888213E-2,-4.0117598E-1,1.9872667E-2,-5.7681227E-1,8.513219E-3,-7.1608347E-1,-0E0,-5.2466383E-3,-1.3682865E-5,-2.9473517E-3,4.9957098E-3],"categories":[],"categories_nodes":[],"categories_segments":[],"categories_sizes":[],"default_left":[0,0,0,0,0,0,0,0,0,0,0],"id":11,"left_children":[1,3,-1,5,-1,7,9,-1,-1,-1,-1],"loss_changes":[2.2754822E2,4.9116264E1,0E0,1.1597256E1,0E0,5.866287E0,1.2498414E1,0E0,0E0,0E0,0E0],"parents":[2147483647,0,0,1,1,3,3,5,5,6,6],"right_children":[2,4,-1,6,-1,8,10,-1,-1,-1,-1],"split_conditions":[9.452652E0,9.595933E0,1.9872667E-2,6.6493335E0,8.513219E-3,9.814815E-1,-5E0,-5.2466383E-3,-1.3682865E-5,-2.9473517E-3,4.9957098E-3],"split_indices":[27,36,0,36,0,14,0,0,0,0,0],"split_type":[0,0,0,0,0,0,0,0,0,0,0],"sum_hessian":[1.6827188E2,1.5037132E2,1.790056E1,1.3916183E2,1.1209474E1,1.11251175E2,2.791067E1,9.989299E1,1.1358185E1,1.8728739E1,9.1819315E0],"tree_param":{"num_deleted":"0","num_feature":"50","num_nodes":"11","size_leaf_vector":"1"}},{"base_weights":[-6.667539E-3,-4.3192226E-1,1.8826064E-2,-6.3842595E-1,-0E0,-4.1818534E-4,-6.871052E-1,-3.3776402E-3,4.8020732E-1,-5.2015767E-3,-1.2078045E-3,6.079149E-3,-1.175543E-3],"categories":[],"categories_nodes":[],"categories_segments":[],"categories_sizes":[],"default_left":[0,0,0,0,0,0,0,0,0,0,0,0,0],"id":12,"left_children":[1,3,-1,5,7,-1,9,-1,11,-1,-1,-1,-1],"loss_changes":[2.1408246E2,1.3910625E1,0E0,2.4801445E0,1.4461391E1,0E0,3.6589813E0,0E0,9.786874E0,0E0,0E0,0E0,0E0],"parents":[2147483647,0,0,1,1,3,3,4,4,6,6,8,8],"right_children":[2,4,-1,6,8,-1,10,-1,12,-1,-1,-1,-1],"split_conditions":[9.452652E0,-3E0,1.8826064E-2,3.3927036E2,2.2852182E0,-4.1818534E-4,5.450277E0,-3.3776402E-3,5.43E2,-5.2015767E-3,-1.2078045E-3,6.079149E-3,-1.175543E-3],"split_indices":[27,0,0,28,2,0,27,0,24,0,0,0,0],"split_type":[0,0,0,0,0,0,0,0,0,0,0,0,0],"sum_hessian":[1.682748E2,1.4996597E2,1.8308819E1,1.0020637E2,4.97596E1,9.205576E0,9.100079E1,2.3846376E1,2.5913227E1,7.367071E1,1.7330086E1,1.4779569E1,1.1133658E1],"tree_param":{"num_deleted":"0","num_feature":"50","num_nodes":"13","size_leaf_vector":"1"}},{"base_weights":[2.4058996E-2,-3.9759707E-1,1.7156009E-2,-5.194636E-1,5.163905E-3,-6.0096025E-1,1.8512992E-3,-4.802631E-3,-1.406912E-1,-2.952897E-3,2.3677477E-3],"categories":[],"categories_nodes":[],"categories_segments":[],"categories_sizes":[],"default_left":[0,0,0,0,0,0,0,0,0,0,0],"id":13,"left_children":[1,3,-1,5,-1,7,-1,-1,9,-1,-1],"loss_changes":[1.9235234E2,2.3670296E1,0E0,1.0094017E1,0E0,6.5558662E0,0E0,0E0,5.888851E0,0E0,0E0],"parents":[2147483647,0,0,1,1,3,3,5,5,8,8],"right_children":[2,4,-1,6,-1,8,-1,-1,10,-1,-1],"split_conditions":[8.964302E0,3.5009334E0,1.7156009E-2,1.1666666E0,5.163905E-3,9.2260367E-1,1.8512992E-3,-4.802631E-3,1E0,-2.952897E-3,2.3677477E-3],"split_indices":[27,35,0,14,0,21,0,0,5,0,0],"split_type":[0,0,0,0,0,0,0,0,0,0,0],"sum_hessian":[1.6827977E2,1.4779712E2,2.0482653E1,1.3656494E2,1.1232173E1,1.2536121E2,1.1203729E1,9.6305176E1,2.9056038E1,1.8764805E1,1.0291234E1],"tree_param":{"num_deleted":"0","num_feature":"50","num_nodes":"11","size_leaf_vector":"1"}},{"base_weights":[-3.5202E-2,-4.612732E-1,1.7988056E-2,-6.550033E-1,-4.3831017E-2,-7.334484E-1,3.9539118E-5,-5.12954E-1,5.7310467E-3,-5.2299313E-3,-7.9732994E-4,-4.5200936E-3,-1.7959929E-4],"categories":[],"categories_nodes":[],"categories_segments":[],"categories_sizes":[],"default_left":[0,0,0,0,0,0,0,0,0,0,0,0,0],"id":14,"left_children":[1,3,-1,5,7,9,-1,11,-1,-1,-1,-1,-1],"loss_changes":[2.0737683E2,1.2068581E1,0E0,5.669445E0,2.5117523E1,2.362774E0,0E0,2.8587542E0,0E0,0E0,0E0,0E0,0E0],"parents":[2147483647,0,0,1,1,3,3,4,4,5,5,7,7],"right_children":[2,4,-1,6,8,10,-1,12,-1,-1,-1,-1,-1],"split_conditions":[9.452652E0,-3E0,1.7988056E-2,1.73E2,6E0,6.452022E0,3.9539118E-5,2E0,5.7310467E-3,-5.2299313E-3,-7.9732994E-4,-4.5200936E-3,-1.7959929E-4],"split_indices":[27,0,0,8,4,27,0,3,0,0,0,0,0],"split_type":[0,0,0,0,0,0,0,0,0,0,0,0,0],"sum_hessian":[1.6820865E2,1.491166E2,1.9092058E1,9.945642E1,4.9660168E1,8.890051E1,1.0555909E1,3.4332146E1,1.5328022E1,7.992708E1,8.973436E0,2.3587639E1,1.0744507E1],"tree_param":{"num_deleted":"0","num_feature":"50","num_nodes":"13","size_leaf_vector":"1"}},{"base_weights":[1.9484568E-2,-1.6719046E-1,1.4291763E-2,8.983625E-3,-3.325147E-1,-5.189656E-1,6.159467E-3,-6.1218214E-1,1.3183731E-3,-4.1236167E-4,-6.690914E-1,-3.9948933E-4,-4.773037E-3],"categories":[],"categories_nodes":[],"categories_segments":[],"categories_sizes":[],"default_left":[0,0,0,0,0,0,0,0,0,0,0,0,0],"id":15,"left_children":[1,3,-1,-1,5,7,-1,9,-1,-1,11,-1,-1],"loss_changes":[7.118749E1,4.2784874E1,0E0,0E0,3.765067E1,9.739655E0,0E0,3.342682E0,0E0,0E0,2.8266602E0,0E0,0E0],"parents":[2147483647,0,0,1,1,4,4,5,5,7,7,10,10],"right_children":[2,4,-1,-1,6,8,-1,10,-1,-1,12,-1,-1],"split_conditions":[4.517733E0,-4.9932E0,1.4291763E-2,8.983625E-3,4.4544E0,1.63E2,6.159467E-3,-3.3116667E0,1.3183731E-3,-4.1236167E-4,-3.0718668E0,-3.9948933E-4,-4.773037E-3],"split_indices":[35,34,0,0,34,8,0,34,0,0,35,0,0],"split_type":[0,0,0,0,0,0,0,0,0,0,0,0,0],"sum_hessian":[1.6807507E2,1.5841037E2,9.664692E0,1.20037775E1,1.464066E2,1.3019502E2,1.6211575E1,1.16258995E2,1.3936026E1,1.2386494E1,1.03872505E2,9.163112E0,9.470939E1],"tree_param":{"num_deleted":"0","num_feature":"50","num_nodes":"13","size_leaf_vector":"1"}},{"base_weights":[-1.1446697E-2,-4.4958866E-1,8.5085183E-1,-5.918475E-1,2.4831658E-3,-3.293586E-1,2.5006707E0,-6.7393E-1,3.2218904E-4,-4.6460223E-3,-2.489323E-2,6.9359993E-3,2.1615364E-2,2.4751396E-4,-5.0989785E-3,-2.7475224E-3,1.7577955E-3],"categories":[],"categories_nodes":[],"categories_segments":[],"categories_sizes":[],"default_left":[0,0,0,0,0,0,0,0,0,0,0,0,0,0,0,0,0],"id":16,"left_children":[1,3,5,7,-1,9,11,13,-1,-1,15,-1,-1,-1,-1,-1,-1],"loss_changes":[6.69677E1,1.494043E1,1.20683365E2,5.768467E0,0E0,4.048089E0,1.05229645E1,6.531624E0,0E0,0E0,3.5769997E0,0E0,0E0,0E0,0E0,0E0,0E0],"parents":[2147483647,0,0,1,1,2,2,3,3,5,5,6,6,7,7,10,10],"right_children":[2,4,6,8,-1,10,12,14,-1,-1,16,-1,-1,-1,-1,-1,-1],"split_conditions":[-2E0,1.7407408E0,6E0,2.7946668E0,2.4831658E-3,1.7078252E0,3.8151743E0,-3.2891333E0,3.2218904E-4,-4.6460223E-3,3.9E1,6.9359993E-3,2.1615364E-2,2.4751396E-4,-5.0989785E-3,-2.7475224E-3,1.7577955E-3],"split_indices":[0,10,4,35,0,2,2,35,0,0,8,0,0,0,0,0,0],"split_type":[0,0,0,0,0,0,0,0,0,0,0,0,0,0,0,0,0],"sum_hessian":[1.6809917E2,1.1322489E2,5.4874283E1,9.803432E1,1.5190574E1,3.4075832E1,2.079845E1,8.714644E1,1.08878765E1,1.2100248E1,2.1975586E1,1.1104665E1,9.693785E0,1.0094259E1,7.705218E1,9.015276E0,1.296031E1],"tree_param":{"num_deleted":"0","num_feature":"50","num_nodes":"17","size_leaf_vector":"1"}},{"base_weights":[3.1048205E-2,-3.8816303E-1,2.7085676E0,-6.582677E-1,3.4119198E-1,2.1041378E-3,2.7012255E-2,-7.305911E-1,2.0019367E-4,-3.9821723E-3,1.0993568E0,-5.2507455E-3,-1.3927877E-3,2.053161E-3,1.1072667E-2],"categories":[],"categories_nodes":[],"categories_segments":[],"categories_sizes":[],"default_left":[0,0,0,0,0,0,0,0,0,0,0,0,0,0,0],"id":17,"left_children":[1,3,5,7,9,-1,-1,11,-1,-1,13,-1,-1,-1,-1],"loss_changes":[1.9972147E2,3.1396757E1,7.079291E1,6.01408E0,3.4849335E1,0E0,0E0,2.132946E0,0E0,0E0,8.7335205E0,0E0,0E0,0E0,0E0],"parents":[2147483647,0,0,1,1,2,2,3,3,4,4,7,7,10,10],"right_children":[2,4,6,8,10,-1,-1,12,-1,-1,14,-1,-1,-1,-1],"split_conditions":[9.595933E0,6.347533E0,-1.1833333E1,6E0,-1.3166667E1,2.1041378E-3,2.7012255E-2,4.4413944E1,2.0019367E-4,-3.9821723E-3,1E0,-5.2507455E-3,-1.3927877E-3,2.053161E-3,1.1072667E-2],"split_indices":[36,36,1,0,1,0,0,13,0,0,3,0,0,0,0],"split_type":[0,0,0,0,0,0,0,0,0,0,0,0,0,0,0],"sum_hessian":[1.6807669E2,1.4870909E2,1.936759E1,1.0919627E2,3.951282E1,9.224907E0,1.0142684E1,9.899926E1,1.0197014E1,1.7871382E1,2.1641441E1,8.594627E1,1.3052983E1,1.23592825E1,9.28216E0],"tree_param":{"num_deleted":"0","num_feature":"50","num_nodes":"15","size_leaf_vector":"1"}},{"base_weights":[4.547074E-2,-3.6761385E-1,2.1046223E-2,-6.006728E-1,9.913483E-3,-7.4349177E-1,-3.9995424E-2,-5.472891E-3,1.0090106E-5,-3.6536644E-3,5.373481E-3],"categories":[],"categories_nodes":[],"categories_segments":[],"categories_sizes":[],"default_left":[0,0,0,0,0,0,0,0,0,0,0],"id":18,"left_children":[1,3,-1,5,-1,7,9,-1,-1,-1,-1],"loss_changes":[2.2889403E2,7.174332E1,0E0,1.10027275E1,0E0,7.080036E0,1.6930601E1,0E0,0E0,0E0,0E0],"parents":[2147483647,0,0,1,1,3,3,5,5,6,6],"right_children":[2,4,-1,6,-1,8,10,-1,-1,-1,-1],"split_conditions":[1.0226666E1,8.964302E0,2.1046223E-2,6.6493335E0,9.913483E-3,1.63E2,-5E0,-5.472891E-3,1.0090106E-5,-3.6536644E-3,5.373481E-3],"split_indices":[36,27,0,36,0,8,0,0,0,0,0],"split_type":[0,0,0,0,0,0,0,0,0,0,0],"sum_hessian":[1.6760638E2,1.516236E2,1.5982789E1,1.3775432E2,1.3869279E1,1.0807732E2,2.9677004E1,9.7453636E1,1.0623676E1,1.9827822E1,9.849183E0],"tree_param":{"num_deleted":"0","num_feature":"50","num_nodes":"11","size_leaf_vector":"1"}},{"base_weights":[4.3924297E-3,-4.2389518E-1,1.7752718E-2,-5.867985E-1,8.397781E-3,-5.277627E-3,-2.289086E-1,3.1621237E-3,-2.9450906E-3],"categories":[],"categories_nodes":[],"categories_segments":[],"categories_sizes":[],"default_left":[0,0,0,0,0,0,0,0,0],"id":19,"left_children":[1,3,-1,5,-1,-1,7,-1,-1],"loss_changes":[2.0324904E2,4.5245884E1,0E0,9.409725E0,0E0,0E0,1.0018989E1,0E0,0E0],"parents":[2147483647,0,0,1,1,3,3,6,6],"right_children":[2,4,-1,6,-1,-1,8,-1,-1],"split_conditions":[9.452652E0,9.9544E0,1.7752718E-2,5.4539332E0,8.397781E-3,-5.277627E-3,2.9890188E4,3.1621237E-3,-2.9450906E-3],"split_indices":[27,36,0,36,0,0,29,0,0],"split_type":[0,0,0,0,0,0,0,0,0],"sum_hessian":[1.6768475E2,1.4781932E2,1.9865442E1,1.3781168E2,1.0007642E1,8.288681E1,5.492486E1,1.1105286E1,4.3819572E1],"tree_param":{"num_deleted":"0","num_feature":"50","num_nodes":"9","size_leaf_vector":"1"}},{"base_weights":[5.1322743E-2,-4.0254593E-1,1.8750187E-2,-5.462717E-1,5.1608947E-3,3.830927E-3,-6.5228856E-1,-7.0800906E-1,-6.1632594E-4,-5.07862E-3,-1.3919353E-3],"categories":[],"categories_nodes":[],"categories_segments":[],"categories_sizes":[],"default_left":[0,0,0,0,0,0,0,0,0,0,0],"id":20,"left_children":[1,3,-1,5,-1,-1,7,9,-1,-1,-1],"loss_changes":[2.2307219E2,2.7725533E1,0E0,1.8314583E1,0E0,0E0,3.4441414E0,2.2089005E0,0E0,0E0,0E0],"parents":[2147483647,0,0,1,1,3,3,6,6,7,7],"right_children":[2,4,-1,6,-1,-1,8,10,-1,-1,-1],"split_conditions":[9.452652E0,4.5373335E0,1.8750187E-2,-5.113867E0,5.1608947E-3,3.830927E-3,4E0,8.518519E-1,-6.1632594E-4,-5.07862E-3,-1.3919353E-3],"split_indices":[27,34,0,34,0,0,1,14,0,0,0],"split_type":[0,0,0,0,0,0,0,0,0,0,0],"sum_hessian":[1.6759764E2,1.4739124E2,2.02064E1,1.3390627E2,1.3484977E1,9.460689E0,1.2444557E2,1.11480286E2,1.2965287E1,9.7166664E1,1.4313621E1],"tree_param":{"num_deleted":"0","num_feature":"50","num_nodes":"11","size_leaf_vector":"1"}},{"base_weights":[2.2591831E-2,-3.057589E-1,2.2382839E-2,-6.760144E-1,4.01576E-1,-7.556714E-1,3.8321412E-4,-3.120591E-3,1.0756701E0,-5.4906034E-3,-8.936434E-4,5.8723666E-4,9.742671E-3],"categories":[],"categories_nodes":[],"categories_segments":[],"categories_sizes":[],"default_left":[0,0,0,0,0,0,0,0,0,0,0,0,0],"id":21,"left_children":[1,3,-1,5,7,9,-1,-1,11,-1,-1,-1,-1],"loss_changes":[1.9534491E2,4.357705E1,0E0,6.746475E0,3.6682976E1,3.4910011E0,0E0,0E0,1.2152969E1,0E0,0E0,0E0,0E0],"parents":[2147483647,0,0,1,1,3,3,4,4,5,5,8,8],"right_children":[2,4,-1,6,8,10,-1,-1,12,-1,-1,-1,-1],"split_conditions":[1.15112E1,6.1428666E0,2.2382839E-2,5.0998664E0,-1.3166667E1,3.3333333E0,3.8321412E-4,-3.120591E-3,2.6951368E1,-5.4906034E-3,-8.936434E-4,5.8723666E-4,9.742671E-3],"split_indices":[36,36,0,9,1,1,0,0,13,0,0,0,0],"split_type":[0,0,0,0,0,0,0,0,0,0,0,0,0],"sum_hessian":[1.675494E2,1.5640791E2,1.1141479E1,1.03119255E2,5.328866E1,9.331047E1,9.808786E0,2.364413E1,2.964453E1,8.180028E1,1.1510197E1,1.0314986E1,1.9329542E1],"tree_param":{"num_deleted":"0","num_feature":"50","num_nodes":"13","size_leaf_vector":"1"}},{"base_weights":[-3.6092475E-2,-4.259222E-1,1.5115074E-2,-6.132579E-1,8.2191285E-3,-7.507728E-1,-1.10304445E-1,-5.422084E-3,-3.6846127E-4,-2.3806754E-3,1.9674988E-3],"categories":[],"categories_nodes":[],"categories_segments":[],"categories_sizes":[],"default_left":[0,0,0,0,0,0,0,0,0,0,0],"id":22,"left_children":[1,3,-1,5,-1,7,9,-1,-1,-1,-1],"loss_changes":[1.5908087E2,5.055369E1,0E0,8.956009E0,0E0,4.4442368E0,4.1579456E0,0E0,0E0,0E0,0E0],"parents":[2147483647,0,0,1,1,3,3,5,5,6,6],"right_children":[2,4,-1,6,-1,8,10,-1,-1,-1,-1],"split_conditions":[9.452652E0,9.595933E0,1.5115074E-2,6.444267E0,8.2191285E-3,1.63E2,2E0,-5.422084E-3,-3.6846127E-4,-2.3806754E-3,1.9674988E-3],"split_indices":[27,36,0,36,0,8,3,0,0,0,0],"split_type":[0,0,0,0,0,0,0,0,0,0,0],"sum_hessian":[1.6733044E2,1.4662042E2,2.0710022E1,1.3464967E2,1.1970748E1,1.03379776E2,3.1269901E1,9.322732E1,1.0152461E1,2.0281092E1,1.0988809E1],"tree_param":{"num_deleted":"0","num_feature":"50","num_nodes":"11","size_leaf_vector":"1"}},{"base_weights":[8.1683174E-2,-3.7154818E-1,1.8103365E-2,-6.079697E-1,1.0250416E-1,-7.081519E-1,2.6710046E-4,-4.2401454E-1,7.218786E-3,-5.1457263E-3,-3.4737072E-4,-4.2332164E-3,4.826437E-4],"categories":[],"categories_nodes":[],"categories_segments":[],"categories_sizes":[],"default_left":[0,0,0,0,0,0,0,0,0,0,0,0,0],"id":23,"left_children":[1,3,-1,5,7,9,-1,11,-1,-1,-1,-1,-1],"loss_changes":[2.1192178E2,1.7387966E1,0E0,6.978752E0,3.0306377E1,3.4316063E0,0E0,4.468195E0,0E0,0E0,0E0,0E0,0E0],"parents":[2147483647,0,0,1,1,3,3,4,4,5,5,7,7],"right_children":[2,4,-1,6,8,10,-1,12,-1,-1,-1,-1,-1],"split_conditions":[9.452652E0,-3E0,1.8103365E-2,1.63E2,6E0,6.353473E0,2.6710046E-4,2E0,7.218786E-3,-5.1457263E-3,-3.4737072E-4,-4.2332164E-3,4.826437E-4],"split_indices":[27,0,0,8,4,27,0,3,0,0,0,0,0],"split_type":[0,0,0,0,0,0,0,0,0,0,0,0,0],"sum_hessian":[1.6738261E2,1.4625691E2,2.1125696E1,9.7174324E1,4.908259E1,8.424102E1,1.2933308E1,3.3512695E1,1.5569892E1,7.5192276E1,9.048739E0,2.297496E1,1.0537737E1],"tree_param":{"num_deleted":"0","num_feature":"50","num_nodes":"13","size_leaf_vector":"1"}},{"base_weights":[-2.428127E-2,-4.4186413E-1,7.758601E-1,-5.910726E-1,3.1922958E-3,1.4505136E-2,2.088575E-2,3.284991E-4,-6.658569E-1,-3.999264E-3,4.535388E-1,-4.8877564E-3,-1.51708755E-5,-1.1473126E-3,5.5029537E-3],"categories":[],"categories_nodes":[],"categories_segments":[],"categories_sizes":[],"default_left":[0,0,0,0,0,0,0,0,0,0,0,0,0,0,0],"id":24,"left_children":[1,3,5,7,-1,9,-1,-1,11,-1,13,-1,-1,-1,-1],"loss_changes":[5.8984936E1,1.7395872E1,1.07747604E2,5.278408E0,0E0,1.4943291E1,0E0,0E0,4.066414E0,0E0,8.558061E0,0E0,0E0,0E0,0E0],"parents":[2147483647,0,0,1,1,2,2,3,3,5,5,8,8,10,10],"right_children":[2,4,6,8,-1,10,-1,-1,12,-1,14,-1,-1,-1,-1],"split_conditions":[-2E0,5.142341E1,1E0,-4.4192667E0,3.1922958E-3,2.3603598E1,2.088575E-2,3.284991E-4,4.5373335E0,-3.999264E-3,3.4888245E2,-4.8877564E-3,-1.51708755E-5,-1.1473126E-3,5.5029537E-3],"split_indices":[0,13,7,34,0,13,0,0,34,0,28,0,0,0,0],"split_type":[0,0,0,0,0,0,0,0,0,0,0,0,0,0,0],"sum_hessian":[1.6729666E2,1.1159687E2,5.56998E1,9.784195E1,1.3754918E1,4.5865414E1,9.834385E0,9.921472E0,8.792048E1,1.8017246E1,2.7848166E1,7.856234E1,9.358142E0,1.1051645E1,1.679652E1],"tree_param":{"num_deleted":"0","num_feature":"50","num_nodes":"15","size_leaf_vector":"1"}},{"base_weights":[6.9958426E-2,-3.8317677E-1,2.6684635E0,-5.867485E-1,1.0556204E-2,6.0316627E-3,2.2109687E-2,-7.298009E-1,-9.788246E-2,-5.3355666E-3,-1.0445312E-4,-2.2912137E-3,2.000124E-3],"categories":[],"categories_nodes":[],"categories_segments":[],"categories_sizes":[],"default_left":[0,0,0,0,0,0,0,0,0,0,0,0,0],"id":25,"left_children":[1,3,5,7,-1,-1,-1,9,11,-1,-1,-1,-1],"loss_changes":[2.0828381E2,6.455945E1,1.4846481E1,9.180103E0,0E0,0E0,0E0,5.311863E0,4.228216E0,0E0,0E0,0E0,0E0],"parents":[2147483647,0,0,1,1,2,2,3,3,7,7,8,8],"right_children":[2,4,6,8,-1,-1,-1,10,12,-1,-1,-1,-1],"split_conditions":[9.452652E0,9.9544E0,7.918267E0,6.444267E0,1.0556204E-2,6.0316627E-3,2.2109687E-2,9.814815E-1,2E0,-5.3355666E-3,-1.0445312E-4,-2.2912137E-3,2.000124E-3],"split_indices":[27,36,36,36,0,0,0,14,3,0,0,0,0],"split_type":[0,0,0,0,0,0,0,0,0,0,0,0,0],"sum_hessian":[1.6739876E2,1.4586253E2,2.1536226E1,1.3538838E2,1.0474149E1,9.090543E0,1.2445683E1,1.02399734E2,3.2988644E1,9.183275E1,1.0566992E1,2.1291489E1,1.1697154E1],"tree_param":{"num_deleted":"0","num_feature":"50","num_nodes":"13","size_leaf_vector":"1"}},{"base_weights":[8.708489E-3,-4.4626883E-1,2.2113276E0,-6.451442E-1,-2.4990046E-2,3.2285973E-3,1.8680586E-2,-4.8579336E-3,7.0512283E-4,-3.987175E-1,4.8236595E-3,-1.1915577E-4,-3.7822817E-3],"categories":[],"categories_nodes":[],"categories_segments":[],"categories_sizes":[],"default_left":[0,0,0,0,0,0,0,0,0,0,0,0,0],"id":26,"left_children":[1,3,5,7,9,-1,-1,-1,-1,11,-1,-1,-1],"loss_changes":[1.7730522E2,1.1935886E1,2.3909485E1,6.9868774E0,1.5951817E1,0E0,0E0,0E0,0E0,2.245242E0,0E0,0E0,0E0],"parents":[2147483647,0,0,1,1,2,2,3,3,4,4,9,9],"right_children":[2,4,6,8,10,-1,-1,-1,-1,12,-1,-1,-1],"split_conditions":[8.534498E0,-3E0,-1E1,5.3041935E1,4.029807E3,3.2285973E-3,1.8680586E-2,-4.8579336E-3,7.0512283E-4,3.6728394E-1,4.8236595E-3,-1.1915577E-4,-3.7822817E-3],"split_indices":[27,0,1,13,49,0,0,0,0,15,0,0,0],"split_type":[0,0,0,0,0,0,0,0,0,0,0,0,0],"sum_hessian":[1.6694556E2,1.4136124E2,2.558432E1,9.377456E1,4.758667E1,8.9791E0,1.660522E1,8.4602E1,9.172567E0,3.3566063E1,1.402061E1,1.2635749E1,2.0930313E1],"tree_param":{"num_deleted":"0","num_feature":"50","num_nodes":"13","size_leaf_vector":"1"}},{"base_weights":[2.0204158E-2,-3.7763035E-1,7.7969396E-1,-5.258475E-1,4.0044338E-3,-2.9220706E-1,2.1509666E0,-9.099887E-2,-4.3491833E-3,-3.92293E-3,5.0047145E-4,4.663542E-3,1.766441E-2,-2.3698988E-3,1.9654282E-3],"categories":[],"categories_nodes":[],"categories_segments":[],"categories_sizes":[],"default_left":[0,0,0,0,0,0,0,0,0,0,0,0,0,0,0],"id":27,"left_children":[1,3,5,7,-1,9,11,13,-1,-1,-1,-1,-1,-1,-1],"loss_changes":[5.340736E1,1.8273294E1,9.305547E1,5.2659416E0,0E0,4.577433E0,1.0256111E1,3.5817542E0,0E0,0E0,0E0,0E0,0E0,0E0,0E0],"parents":[2147483647,0,0,1,1,2,2,3,3,5,5,6,6,7,7],"right_children":[2,4,6,8,-1,10,12,14,-1,-1,-1,-1,-1,-1,-1],"split_conditions":[-2E0,1.6782716E2,6E0,3.1666667E0,4.0044338E-3,2.2173557E0,4.0430512E0,1.2E1,-4.3491833E-3,-3.92293E-3,5.0047145E-4,4.663542E-3,1.766441E-2,-2.3698988E-3,1.9654282E-3],"split_indices":[0,12,4,16,0,2,9,4,0,0,0,0,0,0,0],"split_type":[0,0,0,0,0,0,0,0,0,0,0,0,0,0,0],"sum_hessian":[1.6697105E2,1.1084064E2,5.613041E1,9.849503E1,1.2345605E1,3.3453163E1,2.2677248E1,2.5013926E1,7.348111E1,1.7381805E1,1.6071358E1,9.002199E0,1.3675049E1,1.5563549E1,9.4503765E0],"tree_param":{"num_deleted":"0","num_feature":"50","num_nodes":"15","size_leaf_vector":"1"}},{"base_weights":[4.9094282E-2,-4.107803E-1,2.391902E0,-5.7450765E-1,8.986415E-3,5.021411E-3,2.000606E-2,-7.1736723E-1,-8.555969E-2,-5.3254818E-3,2.3055468E-4,-2.2481827E-3,2.135458E-3],"categories":[],"categories_nodes":[],"categories_segments":[],"categories_sizes":[],"default_left":[0,0,0,0,0,0,0,0,0,0,0,0,0],"id":28,"left_children":[1,3,5,7,-1,-1,-1,9,11,-1,-1,-1,-1],"loss_changes":[1.9034557E2,4.6011646E1,1.7415771E1,9.10759E0,0E0,0E0,0E0,7.1479416E0,4.355076E0,0E0,0E0,0E0,0E0],"parents":[2147483647,0,0,1,1,2,2,3,3,7,7,8,8],"right_children":[2,4,6,8,-1,-1,-1,10,12,-1,-1,-1,-1],"split_conditions":[8.964302E0,1.0226666E1,7.679867E0,6.4774E0,8.986415E-3,5.021411E-3,2.000606E-2,1.63E2,2E0,-5.3254818E-3,2.3055468E-4,-2.2481827E-3,2.135458E-3],"split_indices":[27,36,36,36,0,0,0,8,3,0,0,0,0],"split_type":[0,0,0,0,0,0,0,0,0,0,0,0,0],"sum_hessian":[1.6700858E2,1.4274294E2,2.4265627E1,1.3371498E2,9.027965E0,9.717796E0,1.4547831E1,1.0123388E2,3.2481094E1,9.110214E1,1.013174E1,2.1037054E1,1.144404E1],"tree_param":{"num_deleted":"0","num_feature":"50","num_nodes":"13","size_leaf_vector":"1"}},{"base_weights":[2.4554027E-2,-3.9695814E-1,1.430977E-2,-6.3136685E-1,1.2488607E-1,-7.091857E-1,1.8437892E-4,5.981766E-1,-3.8685322E-1,-1.1772419E-3,-5.214859E-3,1.9207138E-5,7.0997975E-3,-4.158837E-3,-0E0],"categories":[],"categories_nodes":[],"categories_segments":[],"categories_sizes":[],"default_left":[0,0,0,0,0,0,0,0,0,0,0,0,0,0,0],"id":29,"left_children":[1,3,-1,5,7,9,-1,11,13,-1,-1,-1,-1,-1,-1],"loss_changes":[1.59077E2,1.8576305E1,0E0,5.6049194E0,1.3079225E1,2.7767715E0,0E0,7.4069595E0,2.4426415E0,0E0,0E0,0E0,0E0,0E0,0E0],"parents":[2147483647,0,0,1,1,3,3,4,4,5,5,7,7,8,8],"right_children":[2,4,-1,6,8,10,-1,12,14,-1,-1,-1,-1,-1,-1],"split_conditions":[8.964302E0,-2E0,1.430977E-2,2.7946668E0,4.92E2,2.1940588E4,1.8437892E-4,2.6727834E3,7.212028E-1,-1.1772419E-3,-5.214859E-3,1.9207138E-5,7.0997975E-3,-4.158837E-3,-0E0],"split_indices":[27,0,0,35,17,29,0,49,25,0,0,0,0,0,0],"split_type":[0,0,0,0,0,0,0,0,0,0,0,0,0,0,0],"sum_hessian":[1.6721712E2,1.4268011E2,2.4537004E1,9.821914E1,4.4460983E1,8.798731E1,1.0231823E1,2.3028013E1,2.1432968E1,1.3567355E1,7.441996E1,1.2594455E1,1.0433559E1,1.1474719E1,9.95825E0],"tree_param":{"num_deleted":"0","num_feature":"50","num_nodes":"15","size_leaf_vector":"1"}},{"base_weights":[7.5045456E-3,-3.1186467E-1,2.0149687E-2,-6.585289E-1,3.2461396E-1,-7.383631E-1,3.524112E-4,-2.8885067E-3,1.0466045E0,-5.374694E-3,-8.9691207E-4,1.2138688E-3,8.889539E-3],"categories":[],"categories_nodes":[],"categories_segments":[],"categories_sizes":[],"default_left":[0,0,0,0,0,0,0,0,0,0,0,0,0],"id":30,"left_children":[1,3,-1,5,7,9,-1,-1,11,-1,-1,-1,-1],"loss_changes":[1.7158449E2,3.6352203E1,0E0,6.3983536E0,3.478634E1,3.2591705E0,0E0,0E0,6.3891563E0,0E0,0E0,0E0,0E0],"parents":[2147483647,0,0,1,1,3,3,4,4,5,5,8,8],"right_children":[2,4,-1,6,8,10,-1,-1,12,-1,-1,-1,-1],"split_conditions":[1.15112E1,6.1428666E0,2.0149687E-2,5.0998664E0,-1E1,3.3333333E0,3.524112E-4,-2.8885067E-3,3.8918202E0,-5.374694E-3,-8.9691207E-4,1.2138688E-3,8.889539E-3],"split_indices":[36,36,0,9,0,1,0,0,9,0,0,0,0],"split_type":[0,0,0,0,0,0,0,0,0,0,0,0,0],"sum_hessian":[1.6714876E2,1.549333E2,1.2215457E1,1.00541824E2,5.4391483E1,9.066916E1,9.872664E0,2.7190115E1,2.7201366E1,7.9149796E1,1.1519362E1,9.115456E0,1.808591E1],"tree_param":{"num_deleted":"0","num_feature":"50","num_nodes":"13","size_leaf_vector":"1"}},{"base_weights":[-0E0,-3.7475199E-1,6.9937766E-1,-4.8045382E-1,3.4849162E-3,-7.057379E-2,1.6499085E-2,-6.2248886E-1,1.5710245E-3,-3.2307284E-3,2.2213188E-1,-0E0,-4.7718496E-3,3.7581022E-3,-5.657514E-4],"categories":[],"categories_nodes":[],"categories_segments":[],"categories_sizes":[],"default_left":[0,0,0,0,0,0,0,0,0,0,0,0,0,0,0],"id":31,"left_children":[1,3,5,7,-1,9,-1,11,-1,-1,13,-1,-1,-1,-1],"loss_changes":[4.617798E1,1.2116705E1,8.604188E1,1.1597969E1,0E0,6.3672647E0,0E0,5.5110703E0,0E0,0E0,3.6218977E0,0E0,0E0,0E0,0E0],"parents":[2147483647,0,0,1,1,2,2,3,3,5,5,7,7,10,10],"right_children":[2,4,6,8,-1,10,-1,12,-1,-1,14,-1,-1,-1,-1],"split_conditions":[-2E0,5.108267E0,1E0,8.148148E-1,3.4849162E-3,2.1371451E4,1.6499085E-2,-3.9648001E0,1.5710245E-3,-3.2307284E-3,-7.862E-1,-0E0,-4.7718496E-3,3.7581022E-3,-5.657514E-4],"split_indices":[0,34,5,14,0,29,0,34,0,0,34,0,0,0,0],"split_type":[0,0,0,0,0,0,0,0,0,0,0,0,0,0,0],"sum_hessian":[1.6696129E2,1.1030977E2,5.6651512E1,1.01020905E2,9.288867E0,4.262417E1,1.4027342E1,8.5235214E1,1.5785693E1,1.6788746E1,2.5835423E1,1.1815493E1,7.341972E1,1.0835539E1,1.4999884E1],"tree_param":{"num_deleted":"0","num_feature":"50","num_nodes":"15","size_leaf_vector":"1"}},{"base_weights":[3.1415515E-2,-4.0872103E-1,1.5850369E-2,-5.181898E-1,3.1031265E-3,2.3745897E-3,-6.67469E-1,-4.738191E-3,-3.2683348E-4],"categories":[],"categories_nodes":[],"categories_segments":[],"categories_sizes":[],"default_left":[0,0,0,0,0,0,0,0,0],"id":32,"left_children":[1,3,-1,5,-1,-1,7,-1,-1],"loss_changes":[1.834041E2,1.5418659E1,0E0,1.8848442E1,0E0,0E0,2.919979E0,0E0,0E0],"parents":[2147483647,0,0,1,1,3,3,6,6],"right_children":[2,4,-1,6,-1,-1,8,-1,-1],"split_conditions":[9.452652E0,4.5373335E0,1.5850369E-2,-3.8978E0,3.1031265E-3,2.3745897E-3,1.6444136E2,-4.738191E-3,-3.2683348E-4],"split_indices":[27,34,0,34,0,0,12,0,0],"split_type":[0,0,0,0,0,0,0,0,0],"sum_hessian":[1.6704199E2,1.4391913E2,2.312286E1,1.2999547E2,1.3923659E1,1.7637646E1,1.1235783E2,1.0335366E2,9.00416E0],"tree_param":{"num_deleted":"0","num_feature":"50","num_nodes":"9","size_leaf_vector":"1"}},{"base_weights":[-9.147656E-3,-4.6891922E-1,1.9590211E0,-6.562007E-1,1.3588253E-1,7.2252966E-4,1.8778143E-2,-5.16597E-3,-2.6519868E-1,-2.5049609E-3,4.1971863E-3,-3.1754156E-3,7.0544437E-4],"categories":[],"categories_nodes":[],"categories_segments":[],"categories_sizes":[],"default_left":[0,0,0,0,0,0,0,0,0,0,0,0,0],"id":33,"left_children":[1,3,5,7,9,-1,-1,-1,11,-1,-1,-1,-1],"loss_changes":[1.5894934E2,1.6784967E1,5.10047E1,3.93079E0,1.0708613E1,0E0,0E0,0E0,3.0628536E0,0E0,0E0,0E0,0E0],"parents":[2147483647,0,0,1,1,2,2,3,3,4,4,8,8],"right_children":[2,4,6,8,10,-1,-1,-1,12,-1,-1,-1,-1],"split_conditions":[8.828733E0,6.444267E0,-1.9E1,1.05E2,-1E1,7.2252966E-4,1.8778143E-2,-5.16597E-3,3.3374975E0,-2.5049609E-3,4.1971863E-3,-3.1754156E-3,7.0544437E-4],"split_indices":[36,36,0,8,0,0,0,0,2,0,0,0,0],"split_type":[0,0,0,0,0,0,0,0,0,0,0,0,0],"sum_hessian":[1.6668489E2,1.3817932E2,2.8505564E1,1.0562979E2,3.254953E1,1.0937932E1,1.756763E1,7.629326E1,2.9336535E1,1.6223694E1,1.6325838E1,1.8358873E1,1.097766E1],"tree_param":{"num_deleted":"0","num_feature":"50","num_nodes":"13","size_leaf_vector":"1"}},{"base_weights":[-4.7268323E-3,-4.5951188E-1,2.1677933E0,-6.127708E-1,7.7031283E-3,4.0564956E-3,1.7837865E-2,-7.495274E-1,-1.5165192E-1,-8.178606E-1,-4.9861503E-4,-3.337026E-3,2.905356E-3,-5.8484483E-3,-9.5992576E-4],"categories":[],"categories_nodes":[],"categories_segments":[],"categories_sizes":[],"default_left":[0,0,0,0,0,0,0,0,0,0,0,0,0,0,0],"id":34,"left_children":[1,3,5,7,-1,-1,-1,9,11,13,-1,-1,-1,-1,-1],"loss_changes":[1.7372957E2,3.941208E1,1.5690872E1,7.7733116E0,0E0,0E0,0E0,4.1817665E0,8.869175E0,3.0038986E0,0E0,0E0,0E0,0E0,0E0],"parents":[2147483647,0,0,1,1,2,2,3,3,7,7,8,8,9,9],"right_children":[2,4,6,8,-1,-1,-1,10,12,14,-1,-1,-1,-1,-1],"split_conditions":[8.964302E0,1.0226666E1,-9.166667E0,6.444267E0,7.7031283E-3,4.0564956E-3,1.7837865E-2,4E0,-5E0,5.081404E0,-4.9861503E-4,-3.337026E-3,2.905356E-3,-5.8484483E-3,-9.5992576E-4],"split_indices":[27,36,1,36,0,0,0,1,0,9,0,0,0,0,0],"split_type":[0,0,0,0,0,0,0,0,0,0,0,0,0,0,0],"sum_hessian":[1.669276E2,1.4124408E2,2.568353E1,1.319116E2,9.332467E0,9.158543E0,1.6524988E1,9.8890175E1,3.3021435E1,8.842235E1,1.0467825E1,2.1491629E1,1.1529803E1,7.905682E1,9.365528E0],"tree_param":{"num_deleted":"0","num_feature":"50","num_nodes":"15","size_leaf_vector":"1"}},{"base_weights":[3.3245444E-2,-3.6579084E-3,4.9805632E-1,-2.9973102E-1,1.6262133E0,-5.321316E-1,2.191407E-3,-9.168393E-5,2.1948087E0,-4.366127E-3,-0E0,6.6917385E-3,1.8957715E-2],"categories":[],"categories_nodes":[],"categories_segments":[],"categories_sizes":[],"default_left":[0,0,0,0,0,0,0,0,0,0,0,0,0],"id":35,"left_children":[1,-1,3,5,7,9,-1,-1,11,-1,-1,-1,-1],"loss_changes":[4.783984E1,0E0,9.122433E1,9.885099E0,3.970363E1,3.1305952E0,0E0,0E0,9.464859E0,0E0,0E0,0E0,0E0],"parents":[2147483647,0,0,2,2,3,3,4,4,5,5,8,8],"right_children":[2,-1,4,6,8,10,-1,-1,12,-1,-1,-1,-1],"split_conditions":[6E0,-3.6579084E-3,-9.166667E0,1.4030864E2,3.6E1,-1.4333333E1,2.191407E-3,-9.168393E-5,1.2E1,-4.366127E-3,-0E0,6.6917385E-3,1.8957715E-2],"split_indices":[4,0,1,12,8,1,0,0,4,0,0,0,0],"split_type":[0,0,0,0,0,0,0,0,0,0,0,0,0],"sum_hessian":[1.6673634E2,7.316736E1,9.3568985E1,5.6666954E1,3.690203E1,4.2322155E1,1.4344798E1,1.0534001E1,2.6368029E1,3.3315983E1,9.00617E0,1.388222E1,1.2485809E1],"tree_param":{"num_deleted":"0","num_feature":"50","num_nodes":"13","size_leaf_vector":"1"}},{"base_weights":[9.637331E-3,-1.4184183E-1,1.147951E-2,1.2222561E0,-3.896526E-1,5.9287844E-4,1.2786575E-2,3.4252543E-3,-4.804163E-1,-6.366861E-1,4.8104048E-2,-4.8797787E-3,5.723154E-4,-3.5108954E-3,4.179184E-3],"categories":[],"categories_nodes":[],"categories_segments":[],"categories_sizes":[],"default_left":[0,0,0,0,0,0,0,0,0,0,0,0,0,0,0],"id":36,"left_children":[1,3,-1,5,7,-1,-1,-1,9,11,13,-1,-1,-1,-1],"loss_changes":[4.6369896E1,5.666755E1,0E0,1.9078949E1,1.272682E1,0E0,0E0,0E0,1.1139301E1,7.748192E0,1.2919734E1,0E0,0E0,0E0,0E0],"parents":[2147483647,0,0,1,1,3,3,4,4,8,8,9,9,10,10],"right_children":[2,4,-1,6,8,-1,-1,-1,10,12,14,-1,-1,-1,-1],"split_conditions":[6.238867E0,-4.258933E0,1.147951E-2,-8.5E0,-4.8024E0,5.9287844E-4,1.2786575E-2,3.4252543E-3,1.6666667E-1,5.0998664E0,3.5163943E2,-4.8797787E-3,5.723154E-4,-3.5108954E-3,4.179184E-3],"split_indices":[34,34,0,1,33,0,0,0,1,9,28,0,0,0,0],"split_type":[0,0,0,0,0,0,0,0,0,0,0,0,0,0,0],"sum_hessian":[1.6678351E2,1.5708473E2,9.698785E0,2.1081303E1,1.3600343E2,1.0303082E1,1.0778219E1,1.0031498E1,1.2597193E2,9.697402E1,2.899791E1,8.570735E1,1.1266671E1,1.447609E1,1.4521819E1],"tree_param":{"num_deleted":"0","num_feature":"50","num_nodes":"15","size_leaf_vector":"1"}},{"base_weights":[-6.9811153E-3,-4.1247633E-1,2.1332011E0,-7.4332637E-1,3.4220662E-2,2.1283717E-3,2.0939074E-2,-5.332958E-3,-9.89728E-4,-3.70016E-3,5.070727E-1,5.597335E-2,6.8425583E-3,-1.8800978E-3,2.1993415E-3],"categories":[],"categories_nodes":[],"categories_segments":[],"categories_sizes":[],"default_left":[0,0,0,0,0,0,0,0,0,0,0,0,0,0,0],"id":37,"left_children":[1,3,5,7,9,-1,-1,-1,-1,-1,11,13,-1,-1,-1],"loss_changes":[1.520076E2,2.2217323E1,4.561676E1,2.1597633E0,2.006266E1,0E0,0E0,0E0,0E0,0E0,8.814136E0,2.9671228E0,0E0,0E0,0E0],"parents":[2147483647,0,0,1,1,2,2,3,3,4,4,10,10,11,11],"right_children":[2,4,6,8,10,-1,-1,-1,-1,-1,12,14,-1,-1,-1],"split_conditions":[9.595933E0,5.4294E0,-1.0833333E1,8.518519E-1,-1.3166667E1,2.1283717E-3,2.0939074E-2,-5.332958E-3,-9.89728E-4,-3.70016E-3,3.730505E0,6.444267E0,6.8425583E-3,-1.8800978E-3,2.1993415E-3],"split_indices":[36,36,1,14,1,0,0,0,0,0,2,36,0,0,0],"split_type":[0,0,0,0,0,0,0,0,0,0,0,0,0,0,0],"sum_hessian":[1.6630995E2,1.4316063E2,2.3149323E1,8.087819E1,6.2282448E1,1.069732E1,1.2452003E1,7.1438484E1,9.439702E0,2.6974354E1,3.5308094E1,2.2126043E1,1.318205E1,9.300051E0,1.2825993E1],"tree_param":{"num_deleted":"0","num_feature":"50","num_nodes":"15","size_leaf_vector":"1"}},{"base_weights":[-5.5468794E-2,-4.6912566E-1,1.8611258E0,-6.488388E-1,-9.206402E-2,3.5866823E-3,1.511943E-2,-4.8917704E-3,5.7407026E-4,-2.8919806E-3,3.9699873E-1,-8.546985E-4,5.214111E-3],"categories":[],"categories_nodes":[],"categories_segments":[],"categories_sizes":[],"default_left":[0,0,0,0,0,0,0,0,0,0,0,0,0],"id":38,"left_children":[1,3,5,7,9,-1,-1,-1,-1,-1,11,-1,-1],"loss_changes":[1.3950082E2,9.281633E0,1.0392395E1,6.777622E0,9.713882E0,0E0,0E0,0E0,0E0,0E0,5.5769463E0,0E0,0E0],"parents":[2147483647,0,0,1,1,2,2,3,3,4,4,10,10],"right_children":[2,4,6,8,10,-1,-1,-1,-1,-1,12,-1,-1],"split_conditions":[8.964302E0,-3E0,3.988984E0,5.3041935E1,3.1368364E3,3.5866823E-3,1.511943E-2,-4.8917704E-3,5.7407026E-4,-2.8919806E-3,2.8396948E1,-8.546985E-4,5.214111E-3],"split_indices":[27,0,9,13,49,0,0,0,0,0,13,0,0],"split_type":[0,0,0,0,0,0,0,0,0,0,0,0,0],"sum_hessian":[1.6661919E2,1.4012386E2,2.6495337E1,9.197799E1,4.814586E1,9.146628E0,1.734871E1,8.255316E1,9.424826E0,2.8991907E1,1.9153952E1,9.109104E0,1.00448475E1],"tree_param":{"num_deleted":"0","num_feature":"50","num_nodes":"13","size_leaf_vector":"1"}},{"base_weights":[7.1759084E-3,-3.9934656E-1,2.0457795E0,-5.231724E-3,-1.73129E-1,5.6746225E-3,1.6183488E-2,-4.5034805E-1,4.3901736E-1,1.2383156E-3,-5.6352603E-1,-1.7739605E-3,5.12344E-3,-4.372979E-3,-0E0],"categories":[],"categories_nodes":[],"categories_segments":[],"categories_sizes":[],"default_left":[0,0,0,0,0,0,0,0,0,0,0,0,0,0,0],"id":39,"left_children":[1,3,5,-1,7,-1,-1,9,11,-1,13,-1,-1,-1,-1],"loss_changes":[1.4608307E2,1.1895012E1,2.7207413E0,0E0,1.7757044E1,0E0,0E0,5.737545E0,8.877045E0,0E0,3.2490368E0,0E0,0E0,0E0,0E0],"parents":[2147483647,0,0,1,1,2,2,4,4,7,7,8,8,10,10],"right_children":[2,4,6,-1,8,-1,-1,10,12,-1,14,-1,-1,-1,-1],"split_conditions":[9.452652E0,4.3592594E1,7.0979935E1,-5.231724E-3,-2E0,5.6746225E-3,1.6183488E-2,2.1940588E4,2.6663041E4,1.2383156E-3,6.120976E0,-1.7739605E-3,5.12344E-3,-4.372979E-3,-0E0],"split_indices":[27,12,12,0,0,0,0,29,29,0,27,0,0,0,0],"split_type":[0,0,0,0,0,0,0,0,0,0,0,0,0,0,0],"sum_hessian":[1.6620938E2,1.4160625E2,2.4603132E1,4.722555E1,9.438069E1,1.0027718E1,1.4575415E1,6.620358E1,2.817711E1,9.074915E0,5.712867E1,8.994427E0,1.9182682E1,4.8038067E1,9.090602E0],"tree_param":{"num_deleted":"0","num_feature":"50","num_nodes":"15","size_leaf_vector":"1"}},{"base_weights":[3.1085301E-2,-4.23546E-1,1.9650049E0,-5.789954E-1,7.776518E-3,2.7467925E-3,1.6192794E-2,-7.2717285E-1,-1.2141632E-1,-5.302417E-3,-1.0433804E-4,-3.814752E-1,2.8252068E-3,-3.868744E-3,-0E0],"categories":[],"categories_nodes":[],"categories_segments":[],"categories_sizes":[],"default_left":[0,0,0,0,0,0,0,0,0,0,0,0,0,0,0],"id":40,"left_children":[1,3,5,7,-1,-1,-1,9,11,-1,-1,13,-1,-1,-1],"loss_changes":[1.5467441E2,3.8229584E1,1.8893814E1,8.300026E0,0E0,0E0,0E0,4.690613E0,6.2607527E0,0E0,0E0,2.3062196E0,0E0,0E0,0E0],"parents":[2147483647,0,0,1,1,2,2,3,3,7,7,8,8,11,11],"right_children":[2,4,6,8,-1,-1,-1,10,12,-1,-1,14,-1,-1,-1],"split_conditions":[8.534498E0,1.0226666E1,3.7217667E2,6.347533E0,7.776518E-3,2.7467925E-3,1.6192794E-2,1.63E2,1E0,-5.302417E-3,-1.0433804E-4,1.6666667E-1,2.8252068E-3,-3.868744E-3,-0E0],"split_indices":[27,36,28,36,0,0,0,8,46,0,0,14,0,0,0],"split_type":[0,0,0,0,0,0,0,0,0,0,0,0,0,0,0],"sum_hessian":[1.6612454E2,1.3735204E2,2.877252E1,1.2809125E2,9.260778E0,8.973787E0,1.9798733E1,9.409374E1,3.399751E1,8.454173E1,9.552011E0,2.4431946E1,9.565562E0,1.4560765E1,9.8711815E0],"tree_param":{"num_deleted":"0","num_feature":"50","num_nodes":"15","size_leaf_vector":"1"}},{"base_weights":[-4.549191E-2,-3.4488314E-1,1.6705116E-2,-5.7880515E-1,1.0339246E0,-7.138539E-1,-0E0,1.9793094E-3,9.183735E-3,-5.1123677E-3,-9.934112E-4,-3.4725484E-3,3.2232397E-3],"categories":[],"categories_nodes":[],"categories_segments":[],"categories_sizes":[],"default_left":[0,0,0,0,0,0,0,0,0,0,0,0,0],"id":41,"left_children":[1,3,-1,5,7,9,11,-1,-1,-1,-1,-1,-1],"loss_changes":[1.3420734E2,5.3320892E1,0E0,1.0829117E1,3.716364E0,2.682232E0,8.960978E0,0E0,0E0,0E0,0E0,0E0,0E0],"parents":[2147483647,0,0,1,1,3,3,4,4,5,5,6,6],"right_children":[2,4,-1,6,8,10,12,-1,-1,-1,-1,-1,-1],"split_conditions":[1.15112E1,8.964302E0,1.6705116E-2,7.152933E0,-3.7037037E-2,1.8518518E0,-1.3166667E1,1.9793094E-3,9.183735E-3,-5.1123677E-3,-9.934112E-4,-3.4725484E-3,3.2232397E-3],"split_indices":[36,27,0,36,10,10,1,0,0,0,0,0,0],"split_type":[0,0,0,0,0,0,0,0,0,0,0,0,0],"sum_hessian":[1.6587517E2,1.5229895E2,1.3576207E1,1.32764E2,1.9534948E1,1.06913574E2,2.5850431E1,9.422747E0,1.0112202E1,9.511577E1,1.1797807E1,1.2154285E1,1.3696147E1],"tree_param":{"num_deleted":"0","num_feature":"50","num_nodes":"13","size_leaf_vector":"1"}},{"base_weights":[2.4728656E-2,-3.819515E-1,1.990315E0,-6.172482E-1,6.916295E-2,4.205983E-3,1.6322711E-2,-0E0,-4.7993804E-3,-3.0314252E-1,8.418989E-3,-4.166638E-3,5.6426678E-2,2.6676913E-3,-1.5935522E-3],"categories":[],"categories_nodes":[],"categories_segments":[],"categories_sizes":[],"default_left":[0,0,0,0,0,0,0,0,0,0,0,0,0,0,0],"id":42,"left_children":[1,3,5,7,9,-1,-1,-1,-1,11,-1,-1,13,-1,-1],"loss_changes":[1.4077896E2,1.5827229E1,1.0778969E1,6.5396996E0,2.6077894E1,0E0,0E0,0E0,0E0,5.554147E0,0E0,0E0,3.0659842E0,0E0,0E0],"parents":[2147483647,0,0,1,1,2,2,3,3,4,4,9,9,12,12],"right_children":[2,4,6,8,10,-1,-1,-1,-1,12,-1,-1,14,-1,-1],"split_conditions":[9.452652E0,-3E0,3.801561E2,2.1940588E4,1E0,4.205983E-3,1.6322711E-2,-0E0,-4.7993804E-3,2.2110832E0,8.418989E-3,-4.166638E-3,2E0,2.6676913E-3,-1.5935522E-3],"split_indices":[27,0,28,29,5,0,0,0,0,2,0,0,0,0,0],"split_type":[0,0,0,0,0,0,0,0,0,0,0,0,0,0,0],"sum_hessian":[1.6620706E2,1.4072679E2,2.5480267E1,9.183706E1,4.8889732E1,9.577494E0,1.5902772E1,1.364825E1,7.8188805E1,3.9784428E1,9.105307E0,1.9557487E1,2.022694E1,9.09524E0,1.11317005E1],"tree_param":{"num_deleted":"0","num_feature":"50","num_nodes":"15","size_leaf_vector":"1"}},{"base_weights":[-2.275274E-2,-4.2613846E-1,1.6204083E0,-6.37761E-1,-0E0,1.7438551E-3,1.3544679E-2,-4.9954476E-3,1.7427818E-3,-3.151122E-3,5.4896027E-3],"categories":[],"categories_nodes":[],"categories_segments":[],"categories_sizes":[],"default_left":[0,0,0,0,0,0,0,0,0,0,0],"id":43,"left_children":[1,3,5,7,9,-1,-1,-1,-1,-1,-1],"loss_changes":[1.16020035E2,1.2535301E1,1.6328476E1,1.0779293E1,2.2143719E1,0E0,0E0,0E0,0E0,0E0,0E0],"parents":[2147483647,0,0,1,1,2,2,3,3,4,4],"right_children":[2,4,6,8,10,-1,-1,-1,-1,-1,-1],"split_conditions":[8.534498E0,-3E0,-1.2E1,5.3041935E1,6E0,1.7438551E-3,1.3544679E-2,-4.9954476E-3,1.7427818E-3,-3.151122E-3,5.4896027E-3],"split_indices":[27,0,1,13,4,0,0,0,0,0,0],"split_type":[0,0,0,0,0,0,0,0,0,0,0],"sum_hessian":[1.659972E2,1.362554E2,2.9741789E1,8.9035194E1,4.7220215E1,9.029112E0,2.0712677E1,7.999903E1,9.0361595E0,3.1494425E1,1.5725789E1],"tree_param":{"num_deleted":"0","num_feature":"50","num_nodes":"11","size_leaf_vector":"1"}},{"base_weights":[1.5262034E-2,-3.9817262E-1,2.0888581E0,-6.1643547E-1,7.003615E-3,3.2718207E-3,1.9220809E-2,-5.408769E-3,-2.5954372E-1,-3.9717397E-3,1.2370372E-1,4.1430774E-3,-1.5793111E-3],"categories":[],"categories_nodes":[],"categories_segments":[],"categories_sizes":[],"default_left":[0,0,0,0,0,0,0,0,0,0,0,0,0],"id":44,"left_children":[1,3,5,7,-1,-1,-1,-1,9,-1,11,-1,-1],"loss_changes":[1.5072453E2,4.9242027E1,2.973877E1,7.844578E0,0E0,0E0,0E0,0E0,7.524087E0,0E0,6.042233E0,0E0,0E0],"parents":[2147483647,0,0,1,1,2,2,3,3,8,8,10,10],"right_children":[2,4,6,8,-1,-1,-1,-1,10,-1,12,-1,-1],"split_conditions":[9.595933E0,8.964302E0,-1.0833333E1,5.5006666E0,7.003615E-3,3.2718207E-3,1.9220809E-2,-5.408769E-3,-1.1E1,-3.9717397E-3,3.9763373E-1,4.1430774E-3,-1.5793111E-3],"split_indices":[36,27,1,36,0,0,0,0,1,0,15,0,0],"split_type":[0,0,0,0,0,0,0,0,0,0,0,0,0],"sum_hessian":[1.658303E2,1.4131154E2,2.4518768E1,1.25427055E2,1.5884478E1,1.0926525E1,1.3592244E1,7.612521E1,4.9301846E1,2.5234749E1,2.4067097E1,9.050689E0,1.5016408E1],"tree_param":{"num_deleted":"0","num_feature":"50","num_nodes":"13","size_leaf_vector":"1"}},{"base_weights":[6.111186E-2,-3.9509872E-1,1.8874177E0,-5.299411E-1,2.8898264E-3,1.9446878E-3,2.410257E0,-6.147067E-1,1.1526106E-3,5.9890742E-3,1.9698886E-2,-1.632167E-1,-4.924124E-3,1.4161373E-3,-3.342137E-3],"categories":[],"categories_nodes":[],"categories_segments":[],"categories_sizes":[],"default_left":[0,0,0,0,0,0,0,0,0,0,0,0,0,0,0],"id":45,"left_children":[1,3,5,7,-1,-1,9,11,-1,-1,-1,13,-1,-1,-1],"loss_changes":[1.4627776E2,1.6839035E1,2.499852E1,8.003788E0,0E0,0E0,7.5415344E0,5.510391E0,0E0,0E0,0E0,4.591424E0,0E0,0E0,0E0],"parents":[2147483647,0,0,1,1,2,2,3,3,6,6,7,7,11,11],"right_children":[2,4,6,8,-1,-1,10,12,-1,-1,-1,14,-1,-1,-1],"split_conditions":[8.534498E0,3.6666667E0,3.7217667E2,1.6444136E2,2.8898264E-3,1.9446878E-3,-7.8333335E0,3.1666667E0,1.1526106E-3,5.9890742E-3,1.9698886E-2,9.4E1,-4.924124E-3,1.4161373E-3,-3.342137E-3],"split_indices":[27,1,28,12,0,0,1,16,0,0,0,26,0,0,0],"split_type":[0,0,0,0,0,0,0,0,0,0,0,0,0,0,0],"sum_hessian":[1.6599886E2,1.3563591E2,3.0362938E1,1.18510506E2,1.7125408E1,9.479281E0,2.0883656E1,1.0673081E2,1.1779698E1,9.135815E0,1.1747841E1,2.6386799E1,8.034401E1,1.288782E1,1.3498979E1],"tree_param":{"num_deleted":"0","num_feature":"50","num_nodes":"15","size_leaf_vector":"1"}},{"base_weights":[2.5833748E-2,-1.397547E-1,1.0936859E-2,-3.216147E-1,7.984827E-1,-4.7434214E-1,4.817858E-1,7.6379644E-4,7.6233707E-3,1.8005408E-3,-5.748836E-1,-6.57066E-4,6.247064E-3,-4.5483042E-3,-1.4072278E-1,-3.6270875E-3,1.6326208E-3],"categories":[],"categories_nodes":[],"categories_segments":[],"categories_sizes":[],"default_left":[0,0,0,0,0,0,0,0,0,0,0,0,0,0,0,0,0],"id":46,"left_children":[1,3,-1,5,7,9,11,-1,-1,-1,13,-1,-1,-1,15,-1,-1],"loss_changes":[4.7446434E1,2.8198095E1,0E0,1.7880184E1,5.373411E0,9.670256E0,7.0896983E0,0E0,0E0,0E0,4.3217278E0,0E0,0E0,0E0,5.1239433E0,0E0,0E0],"parents":[2147483647,0,0,1,1,3,3,4,4,5,5,6,6,10,10,14,14],"right_children":[2,4,-1,6,8,10,12,-1,-1,-1,14,-1,-1,-1,16,-1,-1],"split_conditions":[9E0,2.7366667E0,1.0936859E-2,8.333333E-1,3.8954813E2,-3.5420668E0,-1.25E1,7.6379644E-4,7.6233707E-3,1.8005408E-3,9.2260367E-1,-6.57066E-4,6.247064E-3,-4.5483042E-3,-1.1E1,-3.6270875E-3,1.6326208E-3],"split_indices":[1,35,0,14,49,35,1,0,0,0,21,0,0,0,1,0,0],"split_type":[0,0,0,0,0,0,0,0,0,0,0,0,0,0,0,0,0],"sum_hessian":[1.6602025E2,1.5436696E2,1.1653293E1,1.322094E2,2.2157557E1,1.13072945E2,1.913646E1,9.956333E0,1.2201222E1,1.2081792E1,1.0099115E2,9.760492E0,9.375967E0,7.774457E1,2.3246586E1,1.0820619E1,1.2425968E1],"tree_param":{"num_deleted":"0","num_feature":"50","num_nodes":"17","size_leaf_vector":"1"}},{"base_weights":[5.8547914E-2,-5.208143E-1,1.601072E0,-6.481807E-1,3.8053424E-3,1.7007425E-1,1.7404888E-2,-5.6137186E-3,-2.1760951E-1,-2.8459188E-3,5.416006E-3,1.5429151E-3,-2.9750043E-3],"categories":[],"categories_nodes":[],"categories_segments":[],"categories_sizes":[],"default_left":[0,0,0,0,0,0,0,0,0,0,0,0,0],"id":47,"left_children":[1,3,5,7,-1,9,-1,-1,11,-1,-1,-1,-1],"loss_changes":[1.5640854E2,1.949598E1,6.673473E1,8.658794E0,0E0,1.1483677E1,0E0,0E0,5.075846E0,0E0,0E0,0E0,0E0],"parents":[2147483647,0,0,1,1,2,2,3,3,5,5,8,8],"right_children":[2,4,6,8,-1,10,-1,-1,12,-1,-1,-1,-1],"split_conditions":[7.7408E0,9.079019E0,-1E1,9.3E1,3.8053424E-3,6.7138E0,1.7404888E-2,-5.6137186E-3,3.7376562E2,-2.8459188E-3,5.416006E-3,1.5429151E-3,-2.9750043E-3],"split_indices":[36,27,0,8,0,27,0,0,28,0,0,0,0],"split_type":[0,0,0,0,0,0,0,0,0,0,0,0,0],"sum_hessian":[1.6546733E2,1.224043E2,4.3063046E1,1.1164313E2,1.0761167E1,2.0360533E1,2.270251E1,7.288698E1,3.8756153E1,1.1116187E1,9.244346E0,1.2615077E1,2.6141075E1],"tree_param":{"num_deleted":"0","num_feature":"50","num_nodes":"13","size_leaf_vector":"1"}},{"base_weights":[1.8741213E-2,-2.7442825E-1,1.6031306E-2,-6.973821E-1,1.8693337E-1,-5.1819393E-3,-1.6487777E-4,-5.000491E-1,7.6316404E-1,-3.7025884E-4,-4.403134E-3,-0E0,9.8609746E-1,1.6771588E-3,1.2213953E0,1.1266274E-2,2.3961966E-3],"categories":[],"categories_nodes":[],"categories_segments":[],"categories_sizes":[],"default_left":[0,0,0,0,0,0,0,0,0,0,0,0,0,0,0,0,0],"id":48,"left_children":[1,3,-1,5,7,-1,-1,9,11,-1,-1,-1,13,-1,15,-1,-1],"loss_changes":[1.2325129E2,3.1145004E1,0E0,4.2501564E0,3.2670296E1,0E0,0E0,2.3394985E0,7.586458E0,0E0,0E0,0E0,3.9793968E0,0E0,6.4185867E0,0E0,0E0],"parents":[2147483647,0,0,1,1,3,3,4,4,7,7,8,8,12,12,14,14],"right_children":[2,4,-1,6,8,-1,-1,10,12,-1,-1,-1,14,-1,16,-1,-1],"split_conditions":[1.15112E1,5.4294E0,1.6031306E-2,8.333333E-1,-1.1166667E1,-5.1819393E-3,-1.6487777E-4,3.6920452E3,3.6E1,-3.7025884E-4,-4.403134E-3,-0E0,-3.8333333E0,1.6771588E-3,-4.0122878E-2,1.1266274E-2,2.3961966E-3],"split_indices":[36,36,0,14,1,0,0,49,8,0,0,0,1,0,48,0,0],"split_type":[0,0,0,0,0,0,0,0,0,0,0,0,0,0,0,0,0],"sum_hessian":[1.6524579E2,1.5083392E2,1.4411865E1,7.781463E1,7.3019295E1,6.812918E1,9.685453E0,3.3325035E1,3.9694256E1,1.1214075E1,2.211096E1,1.0013118E1,2.9681139E1,9.940376E0,1.9740763E1,9.500073E0,1.0240689E1],"tree_param":{"num_deleted":"0","num_feature":"50","num_nodes":"17","size_leaf_vector":"1"}},{"base_weights":[6.739832E-3,-4.180127E-1,1.6684967E0,3.5151807E-3,-5.126799E-1,1.669524E-3,2.0990455E0,-6.203209E-1,1.926365E-3,5.015882E-3,1.7132739E-2,-7.092417E-1,3.5946092E-4,-5.130043E-3,-6.185709E-4],"categories":[],"categories_nodes":[],"categories_segments":[],"categories_sizes":[],"default_left":[0,0,0,0,0,0,0,0,0,0,0,0,0,0,0],"id":49,"left_children":[1,3,5,-1,7,-1,9,11,-1,-1,-1,13,-1,-1,-1],"loss_changes":[1.2372246E2,1.374703E1,1.8499046E1,0E0,1.2121235E1,0E0,6.839287E0,7.3449287E0,0E0,0E0,0E0,3.3938675E0,0E0,0E0,0E0],"parents":[2147483647,0,0,1,1,2,2,4,4,6,6,7,7,11,11],"right_children":[2,4,6,-1,8,-1,10,12,-1,-1,-1,14,-1,-1,-1],"split_conditions":[8.534498E0,-4.9932E0,3.7056427E2,3.5151807E-3,4.5373335E0,1.669524E-3,7E1,1.63E2,1.926365E-3,5.015882E-3,1.7132739E-2,4E0,3.5946092E-4,-5.130043E-3,-6.185709E-4],"split_indices":[27,34,28,0,34,0,8,8,0,0,0,1,0,0,0],"split_type":[0,0,0,0,0,0,0,0,0,0,0,0,0,0,0],"sum_hessian":[1.6528485E2,1.3429297E2,3.0991882E1,9.90086E0,1.24392105E2,9.151026E0,2.1840857E1,1.1100637E2,1.3385736E1,9.152913E0,1.2687943E1,9.8305435E1,1.27009325E1,8.753562E1,1.0769814E1],"tree_param":{"num_deleted":"0","num_feature":"50","num_nodes":"15","size_leaf_vector":"1"}},{"base_weights":[1.605801E-2,-1.8309283E-1,9.857993E-3,-4.7350982E-1,6.0928154E-1,2.7889484E-3,-5.898202E-1,-1.9998334E-1,1.3199664E-2,-5.1080942E-2,-4.6388526E-3,-3.3438904E-3,2.224058E-3,-2.2922456E-3,1.527424E-3],"categories":[],"categories_nodes":[],"categories_segments":[],"categories_sizes":[],"default_left":[0,0,0,0,0,0,0,0,0,0,0,0,0,0,0],"id":50,"left_children":[1,3,-1,5,7,-1,9,11,-1,13,-1,-1,-1,-1,-1],"loss_changes":[5.1576637E1,3.677388E1,0E0,1.3256752E1,5.05581E1,0E0,5.7191772E0,5.93791E0,0E0,2.3358948E0,0E0,0E0,0E0,0E0,0E0],"parents":[2147483647,0,0,1,1,3,3,4,4,6,6,7,7,9,9],"right_children":[2,4,-1,6,8,-1,10,12,-1,14,-1,-1,-1,-1,-1],"split_conditions":[3.7745333E0,1.5E1,9.857993E-3,-4.258933E0,-9.166667E0,2.7889484E-3,-1.6575333E0,1.1485236E2,1.3199664E-2,-7E0,-4.6388526E-3,-3.3438904E-3,2.224058E-3,-2.2922456E-3,1.527424E-3],"split_indices":[35,4,0,34,1,0,35,12,0,1,0,0,0,0,0],"split_type":[0,0,0,0,0,0,0,0,0,0,0,0,0,0,0],"sum_hessian":[1.6569287E2,1.4934972E2,1.6343163E1,1.10998116E2,3.8351604E1,1.1025541E1,9.997257E1,2.6559555E1,1.17920475E1,1.850188E1,8.147069E1,1.7523499E1,9.0360565E0,9.104501E0,9.397381E0],"tree_param":{"num_deleted":"0","num_feature":"50","num_nodes":"15","size_leaf_vector":"1"}},{"base_weights":[6.425443E-2,-3.571077E-1,1.2932602E-2,-4.8653144E-1,4.6008592E-3,2.5933958E-3,-6.449433E-1,-4.6531484E-3,-0E0],"categories":[],"categories_nodes":[],"categories_segments":[],"categories_sizes":[],"default_left":[0,0,0,0,0,0,0,0,0],"id":51,"left_children":[1,3,-1,5,-1,-1,7,-1,-1],"loss_changes":[1.3893445E2,2.0952076E1,0E0,1.9387096E1,0E0,0E0,4.0396805E0,0E0,0E0],"parents":[2147483647,0,0,1,1,3,3,6,6],"right_children":[2,4,-1,6,-1,-1,8,-1,-1],"split_conditions":[9.452652E0,4.803867E0,1.2932602E-2,-3.8978E0,4.6008592E-3,2.5933958E-3,1.1666666E0,-4.6531484E-3,-0E0],"split_indices":[27,34,0,34,0,0,14,0,0],"split_type":[0,0,0,0,0,0,0,0,0],"sum_hessian":[1.6549184E2,1.3822368E2,2.7268164E1,1.2560363E2,1.2620045E1,1.7825811E1,1.07777824E2,9.876285E1,9.014973E0],"tree_param":{"num_deleted":"0","num_feature":"50","num_nodes":"9","size_leaf_vector":"1"}},{"base_weights":[1.8176991E-2,-5.154827E-1,1.3912691E0,-7.06387E-1,-1.3901506E-1,7.7450347E-1,1.7459083E-2,-5.163916E-3,-6.311861E-4,-2.8461725E-1,1.862771E-3,6.3582943E-3,1.353555E-3,1.9349049E-4,-3.6306193E-3],"categories":[],"categories_nodes":[],"categories_segments":[],"categories_sizes":[],"default_left":[0,0,0,0,0,0,0,0,0,0,0,0,0,0,0],"id":52,"left_children":[1,3,5,7,9,11,-1,-1,-1,13,-1,-1,-1,-1,-1],"loss_changes":[1.2830492E2,8.285503E0,2.6684967E1,2.919857E0,3.3597293E0,2.8255062E0,0E0,0E0,0E0,3.4739616E0,0E0,0E0,0E0,0E0,0E0],"parents":[2147483647,0,0,1,1,2,2,3,3,4,4,5,5,9,9],"right_children":[2,4,6,8,10,12,-1,-1,-1,14,-1,-1,-1,-1,-1],"split_conditions":[7.7408E0,5.4294E0,1.30724E1,8.333333E-1,7.1E2,1.1963276E0,1.7459083E-2,-5.163916E-3,-6.311861E-4,1.5793334E-1,1.862771E-3,6.3582943E-3,1.353555E-3,1.9349049E-4,-3.6306193E-3],"split_indices":[36,36,36,14,17,48,0,0,0,34,0,0,0,0,0],"split_type":[0,0,0,0,0,0,0,0,0,0,0,0,0,0,0],"sum_hessian":[1.6533705E2,1.2101095E2,4.4326096E1,7.694695E1,4.406399E1,3.4902466E1,9.42363E0,6.72479E1,9.699052E0,3.4442066E1,9.621926E0,2.3542383E1,1.1360084E1,1.70043E1,1.7437767E1],"tree_param":{"num_deleted":"0","num_feature":"50","num_nodes":"15","size_leaf_vector":"1"}},{"base_weights":[2.5789144E-2,-4.245483E-1,1.6832178E0,-6.486309E-1,1.979491E-1,-4.514467E-4,2.3776867E0,-7.4274284E-1,1.1867355E-3,-3.1742996E-3,6.950546E-1,7.3950537E-3,2.0416459E-2,-5.3491993E-3,-1.0965086E-3,6.9042575E-3,2.5205206E-4],"categories":[],"categories_nodes":[],"categories_segments":[],"categories_sizes":[],"default_left":[0,0,0,0,0,0,0,0,0,0,0,0,0,0,0,0,0],"id":53,"left_children":[1,3,5,7,9,-1,11,13,-1,-1,15,-1,-1,-1,-1,-1,-1],"loss_changes":[1.3052779E2,1.988663E1,4.7017517E1,8.787182E0,1.4924823E1,0E0,6.2218475E0,2.4296951E0,0E0,0E0,5.1100883E0,0E0,0E0,0E0,0E0,0E0,0E0],"parents":[2147483647,0,0,1,1,2,2,3,3,4,4,6,6,7,7,10,10],"right_children":[2,4,6,8,10,-1,12,14,-1,-1,16,-1,-1,-1,-1,-1,-1],"split_conditions":[8.828733E0,6.347533E0,-2.0833334E1,2.0370371E0,-1.3166667E1,-4.514467E-4,1.15112E1,3.6666667E0,1.1867355E-3,-3.1742996E-3,0E0,7.3950537E-3,2.0416459E-2,-5.3491993E-3,-1.0965086E-3,6.9042575E-3,2.5205206E-4],"split_indices":[36,36,1,10,1,0,36,1,0,0,1,0,0,0,0,0,0],"split_type":[0,0,0,0,0,0,0,0,0,0,0,0,0,0,0,0,0],"sum_hessian":[1.6504987E2,1.3239008E2,3.2659786E1,9.760261E1,3.478747E1,1.0346123E1,2.2313663E1,8.843707E1,9.16553E0,1.4527484E1,2.0259987E1,1.24744625E1,9.8392E0,7.752971E1,1.0907369E1,1.1141238E1,9.118749E0],"tree_param":{"num_deleted":"0","num_feature":"50","num_nodes":"17","size_leaf_vector":"1"}},{"base_weights":[5.0302785E-2,-2.6259091E-1,1.6464403E-2,-6.271718E-1,4.0043154E-1,-7.0654017E-1,3.3629942E-4,-3.2937573E-3,9.985091E-1,-5.2347765E-3,-5.2073423E-4,1.3050437E-3,8.51194E-3],"categories":[],"categories_nodes":[],"categories_segments":[],"categories_sizes":[],"default_left":[0,0,0,0,0,0,0,0,0,0,0,0,0],"id":54,"left_children":[1,3,-1,5,7,9,-1,-1,11,-1,-1,-1,-1],"loss_changes":[1.3278023E2,3.8591793E1,0E0,5.86887E0,3.3259327E1,4.142994E0,0E0,0E0,6.537422E0,0E0,0E0,0E0,0E0],"parents":[2147483647,0,0,1,1,3,3,4,4,5,5,8,8],"right_children":[2,4,-1,6,8,10,-1,-1,12,-1,-1,-1,-1],"split_conditions":[1.15112E1,6.347533E0,1.6464403E-2,1.962963E0,-1.3166667E1,3.3333333E0,3.3629942E-4,-3.2937573E-3,6.610744E-1,-5.2347765E-3,-5.2073423E-4,1.3050437E-3,8.51194E-3],"split_indices":[36,36,0,10,1,1,0,0,21,0,0,0,0],"split_type":[0,0,0,0,0,0,0,0,0,0,0,0,0],"sum_hessian":[1.6489517E2,1.4969391E2,1.5201266E1,9.7079666E1,5.2614243E1,8.7172935E1,9.906729E0,2.114909E1,3.1465155E1,7.556756E1,1.1605378E1,1.0623818E1,2.0841335E1],"tree_param":{"num_deleted":"0","num_feature":"50","num_nodes":"13","size_leaf_vector":"1"}},{"base_weights":[1.0780912E-1,-3.325831E-1,8.6975896E-1,-4.684257E-1,3.2125087E-3,-2.7333254E-1,2.1059706E0,-5.5424255E-1,4.203021E-4,-3.358028E-3,1.214175E-3,7.3214965E-3,1.9177247E-2,-4.7551813E-3,-2.427351E-1,-3.1961165E-3,1.67938E-3],"categories":[],"categories_nodes":[],"categories_segments":[],"categories_sizes":[],"default_left":[0,0,0,0,0,0,0,0,0,0,0,0,0,0,0,0,0],"id":55,"left_children":[1,3,5,7,-1,9,11,13,-1,-1,-1,-1,-1,-1,15,-1,-1],"loss_changes":[5.854184E1,1.3351869E1,9.349926E1,4.7920322E0,0E0,4.4910564E0,8.187393E0,3.1510868E0,0E0,0E0,0E0,0E0,0E0,0E0,5.031865E0,0E0,0E0],"parents":[2147483647,0,0,1,1,2,2,3,3,5,5,6,6,7,7,14,14],"right_children":[2,4,6,8,-1,10,12,14,-1,-1,-1,-1,-1,-1,16,-1,-1],"split_conditions":[-2E0,5.159055E0,6E0,2.7E1,3.2125087E-3,2E0,1.5E1,-1.05E1,4.203021E-4,-3.358028E-3,1.214175E-3,7.3214965E-3,1.9177247E-2,-4.7551813E-3,8.8004893E-1,-3.1961165E-3,1.67938E-3],"split_indices":[0,9,4,4,0,3,4,1,0,0,0,0,0,0,21,0,0],"split_type":[0,0,0,0,0,0,0,0,0,0,0,0,0,0,0,0,0],"sum_hessian":[1.6511552E2,1.0604311E2,5.907241E1,9.300066E1,1.3042448E1,3.246266E1,2.6609749E1,8.045437E1,1.2546294E1,2.1657492E1,1.0805171E1,1.6842358E1,9.76739E0,4.8171284E1,3.2283085E1,2.234504E1,9.938047E0],"tree_param":{"num_deleted":"0","num_feature":"50","num_nodes":"17","size_leaf_vector":"1"}},{"base_weights":[2.3659812E-2,-3.7746668E-1,7.197962E-1,-5.3095496E-1,3.7507035E-3,-1.72263E-1,2.0256362E0,-4.537417E-3,-2.1523008E-1,-2.8308474E-3,3.1234703E-3,5.536938E-3,1.787377E-2,-3.1554159E-3,2.750163E-3],"categories":[],"categories_nodes":[],"categories_segments":[],"categories_sizes":[],"default_left":[0,0,0,0,0,0,0,0,0,0,0,0,0,0,0],"id":56,"left_children":[1,3,5,7,-1,9,11,-1,13,-1,-1,-1,-1,-1,-1],"loss_changes":[4.8906826E1,1.7422834E1,7.6981995E1,3.7158241E0,0E0,7.843046E0,9.2797165E0,0E0,7.422241E0,0E0,0E0,0E0,0E0,0E0,0E0],"parents":[2147483647,0,0,1,1,2,2,3,3,5,5,6,6,8,8],"right_children":[2,4,6,8,-1,10,12,-1,14,-1,-1,-1,-1,-1,-1],"split_conditions":[-2E0,1.6782716E2,7E0,4.0673666E0,3.7507035E-3,2.2563334E0,1.5E1,-4.537417E-3,-8E0,-2.8308474E-3,3.1234703E-3,5.536938E-3,1.787377E-2,-3.1554159E-3,2.750163E-3],"split_indices":[0,12,4,18,0,33,4,0,0,0,0,0,0,0,0],"split_type":[0,0,0,0,0,0,0,0,0,0,0,0,0,0,0],"sum_hessian":[1.653999E2,1.0599822E2,5.9401676E1,9.323711E1,1.2761117E1,3.7576145E1,2.1825531E1,5.8434265E1,3.480284E1,2.8447695E1,9.128448E0,1.1829344E1,9.996188E0,2.5829426E1,8.973414E0],"tree_param":{"num_deleted":"0","num_feature":"50","num_nodes":"15","size_leaf_vector":"1"}},{"base_weights":[5.5745002E-2,-3.845782E-1,1.6341529E0,-7.0076126E-1,5.5694737E-2,4.6543046E-3,1.5100326E-2,-5.31229E-3,-1.2633337E-3,3.4175783E-1,-2.3924191E-3,-1.1950627E-3,5.619448E-1,3.0719224E-4,5.3256806E-3],"categories":[],"categories_nodes":[],"categories_segments":[],"categories_sizes":[],"default_left":[0,0,0,0,0,0,0,0,0,0,0,0,0,0,0],"id":57,"left_children":[1,3,5,7,9,-1,-1,-1,-1,11,-1,-1,13,-1,-1],"loss_changes":[1.21333824E2,1.938279E1,1.4204872E1,3.0104523E0,7.826043E0,0E0,0E0,0E0,0E0,5.0892425E0,0E0,0E0,3.1333942E0,0E0,0E0],"parents":[2147483647,0,0,1,1,2,2,3,3,4,4,9,9,12,12],"right_children":[2,4,6,8,10,-1,-1,-1,-1,12,-1,-1,14,-1,-1],"split_conditions":[8.828733E0,5.4294E0,1.15112E1,4.189935E0,9.705023E4,4.6543046E-3,1.5100326E-2,-5.31229E-3,-1.2633337E-3,2.1602468E0,-2.3924191E-3,-1.1950627E-3,7.744861E-1,3.0719224E-4,5.3256806E-3],"split_indices":[36,36,36,2,29,0,0,0,0,2,0,0,21,0,0],"split_type":[0,0,0,0,0,0,0,0,0,0,0,0,0,0,0],"sum_hessian":[1.6496599E2,1.3161136E2,3.3354626E1,7.5421364E1,5.618999E1,1.7819702E1,1.5534922E1,6.0327637E1,1.509373E1,3.4280064E1,2.190993E1,9.9717245E0,2.4308336E1,9.966063E0,1.4342274E1],"tree_param":{"num_deleted":"0","num_feature":"50","num_nodes":"15","size_leaf_vector":"1"}},{"base_weights":[4.9066294E-2,-4.8891264E-1,1.3392833E0,-6.894824E-1,-9.248384E-2,-0E0,1.37878675E-2,-5.1533654E-3,-1.1357707E-3,-2.8682658E-3,3.4793015E-3,-2.7729275E-3,2.6867331E-3],"categories":[],"categories_nodes":[],"categories_segments":[],"categories_sizes":[],"default_left":[0,0,0,0,0,0,0,0,0,0,0,0,0],"id":58,"left_children":[1,3,5,7,9,11,-1,-1,-1,-1,-1,-1,-1],"loss_changes":[1.21257256E2,9.2229E0,5.1198006E1,2.6682777E0,1.0960689E1,4.6711206E0,0E0,0E0,0E0,0E0,0E0,0E0,0E0],"parents":[2147483647,0,0,1,1,2,2,3,3,4,4,5,5],"right_children":[2,4,6,8,10,12,-1,-1,-1,-1,-1,-1,-1],"split_conditions":[7.679867E0,5.4539332E0,-1.35E1,4.8598123E0,-2E0,1.0226666E1,1.37878675E-2,-5.1533654E-3,-1.1357707E-3,-2.8682658E-3,3.4793015E-3,-2.7729275E-3,2.6867331E-3],"split_indices":[36,36,1,9,0,36,0,0,0,0,0,0,0],"split_type":[0,0,0,0,0,0,0,0,0,0,0,0,0],"sum_hessian":[1.650916E2,1.1839686E2,4.6694733E1,7.573056E1,4.2666294E1,1.816599E1,2.8528742E1,6.2301422E1,1.3429144E1,2.878136E1,1.3884933E1,9.103983E0,9.062009E0],"tree_param":{"num_deleted":"0","num_feature":"50","num_nodes":"13","size_leaf_vector":"1"}},{"base_weights":[1.8457626E-3,-3.5593727E-1,6.1849934E-1,-5.0572765E-1,2.841483E-3,-2.9784575E-1,1.596138E0,-4.188894E-3,3.6276045E-4,1.0657245E-3,-3.4117731E-3,1.2272074E-3,1.495329E-2],"categories":[],"categories_nodes":[],"categories_segments":[],"categories_sizes":[],"default_left":[0,0,0,0,0,0,0,0,0,0,0,0,0],"id":59,"left_children":[1,3,5,7,-1,9,11,-1,-1,-1,-1,-1,-1],"loss_changes":[3.860076E1,1.39817295E1,6.0411877E1,7.0240097E0,0E0,4.180374E0,2.6927933E1,0E0,0E0,0E0,0E0,0E0,0E0],"parents":[2147483647,0,0,1,1,2,2,3,3,5,5,6,6],"right_children":[2,4,6,8,-1,10,12,-1,-1,-1,-1,-1,-1],"split_conditions":[-2E0,1.7407408E0,6E0,4.4413944E1,2.841483E-3,1E0,2.8396948E1,-4.188894E-3,3.6276045E-4,1.0657245E-3,-3.4117731E-3,1.2272074E-3,1.495329E-2],"split_indices":[0,10,4,13,0,0,13,0,0,0,0,0,0],"split_type":[0,0,0,0,0,0,0,0,0,0,0,0,0],"sum_hessian":[1.6510977E2,1.0540304E2,5.970673E1,9.0266075E1,1.5136962E1,3.2337048E1,2.7369684E1,7.3788315E1,1.6477762E1,1.0244856E1,2.2092192E1,1.0773846E1,1.6595839E1],"tree_param":{"num_deleted":"0","num_feature":"50","num_nodes":"13","size_leaf_vector":"1"}},{"base_weights":[-4.4031795E-3,-5.044242E-1,1.2552198E0,-6.54215E-1,5.7209013E-3,7.1934885E-1,1.4877671E-2,-7.682395E-1,-9.451714E-2,9.270481E-2,8.598109E-3,-5.6248065E-3,-2.2536593E-4,1.7285941E-3,-2.7845704E-3,-2.1030242E-3,3.3981313E-3],"categories":[],"categories_nodes":[],"categories_segments":[],"categories_sizes":[],"default_left":[0,0,0,0,0,0,0,0,0,0,0,0,0,0,0,0,0],"id":60,"left_children":[1,3,5,7,-1,9,-1,11,13,15,-1,-1,-1,-1,-1,-1,-1],"loss_changes":[1.0954398E2,2.816442E1,1.744088E1,6.736168E0,0E0,1.3087301E1,0E0,5.0631714E0,3.5041952E0,4.9726434E0,0E0,0E0,0E0,0E0,0E0,0E0,0E0],"parents":[2147483647,0,0,1,1,2,2,3,3,5,5,7,7,8,8,9,9],"right_children":[2,4,6,8,-1,10,-1,12,14,16,-1,-1,-1,-1,-1,-1,-1],"split_conditions":[7.858267E0,9.880484E0,1.30724E1,6.347533E0,5.7209013E-3,7.925383E0,1.4877671E-2,9.814815E-1,7.644699E4,5.5555556E-2,8.598109E-3,-5.6248065E-3,-2.2536593E-4,1.7285941E-3,-2.7845704E-3,-2.1030242E-3,3.3981313E-3],"split_indices":[36,27,36,36,0,27,0,14,29,14,0,0,0,0,0,0,0],"split_type":[0,0,0,0,0,0,0,0,0,0,0,0,0,0,0,0,0],"sum_hessian":[1.6484882E2,1.2022717E2,4.4621635E1,1.1079134E2,9.435835E0,3.4427303E1,1.0194332E1,9.007318E1,2.0718157E1,1.9395119E1,1.5032185E1,8.025148E1,9.821703E0,9.851642E0,1.0866515E1,9.985E0,9.41012E0],"tree_param":{"num_deleted":"0","num_feature":"50","num_nodes":"17","size_leaf_vector":"1"}},{"base_weights":[5.603412E-2,-4.0785715E-1,1.5621265E0,3.2748254E-3,-5.2688426E-1,1.5485465E-3,1.9521729E0,-6.329331E-1,2.105338E-3,5.4385075E-3,1.805538E-2,-5.2539487E-3,-2.1393159E-1,2.6002943E-3,-3.5989524E-3],"categories":[],"categories_nodes":[],"categories_segments":[],"categories_sizes":[],"default_left":[0,0,0,0,0,0,0,0,0,0,0,0,0,0,0],"id":61,"left_children":[1,3,5,-1,7,-1,9,11,-1,-1,-1,-1,13,-1,-1],"loss_changes":[1.2192776E2,1.55345745E1,1.840802E1,0E0,1.1827209E1,0E0,1.5162476E1,6.083748E0,0E0,0E0,0E0,0E0,8.393911E0,0E0,0E0],"parents":[2147483647,0,0,1,1,2,2,4,4,6,6,7,7,12,12],"right_children":[2,4,6,-1,8,-1,10,12,-1,-1,-1,-1,14,-1,-1],"split_conditions":[7.925383E0,-4.4192667E0,3.7056427E2,3.2748254E-3,4.803867E0,1.5485465E-3,1.2341384E1,9E0,2.105338E-3,5.4385075E-3,1.805538E-2,-5.2539487E-3,4.2992285E3,2.6002943E-3,-3.5989524E-3],"split_indices":[27,34,28,0,34,0,27,4,0,0,0,0,49,0,0],"split_type":[0,0,0,0,0,0,0,0,0,0,0,0,0,0,0],"sum_hessian":[1.6491638E2,1.2854509E2,3.6371292E1,1.2931139E1,1.15613945E2,1.0164821E1,2.6206472E1,1.04116135E2,1.1497812E1,1.4707602E1,1.1498872E1,7.191306E1,3.220307E1,1.0632206E1,2.1570864E1],"tree_param":{"num_deleted":"0","num_feature":"50","num_nodes":"15","size_leaf_vector":"1"}},{"base_weights":[-0E0,-3.959778E-1,1.6338428E0,-5.490736E-1,4.645289E-3,3.1711247E-3,1.2949983E-2,-6.8458986E-1,-1.0929055E-1,-5.1629855E-3,4.6482502E-4,-2.7884E-3,2.378553E-3],"categories":[],"categories_nodes":[],"categories_segments":[],"categories_sizes":[],"default_left":[0,0,0,0,0,0,0,0,0,0,0,0,0],"id":62,"left_children":[1,3,5,7,-1,-1,-1,9,11,-1,-1,-1,-1],"loss_changes":[1.1255794E2,2.5343891E1,7.188286E0,6.9012337E0,0E0,0E0,0E0,7.1716347E0,5.9556766E0,0E0,0E0,0E0,0E0],"parents":[2147483647,0,0,1,1,2,2,3,3,7,7,8,8],"right_children":[2,4,6,8,-1,-1,-1,10,12,-1,-1,-1,-1],"split_conditions":[9.452652E0,9.595933E0,4.8E1,6.444267E0,4.645289E-3,3.1711247E-3,1.2949983E-2,1.63E2,-5E0,-5.1629855E-3,4.6482502E-4,-2.7884E-3,2.378553E-3],"split_indices":[27,36,8,36,0,0,0,8,0,0,0,0,0],"split_type":[0,0,0,0,0,0,0,0,0,0,0,0,0],"sum_hessian":[1.6502007E2,1.3583884E2,2.9181229E1,1.2152635E2,1.431249E1,9.054891E0,2.0126337E1,9.029807E1,3.1228275E1,8.065534E1,9.642731E0,1.9486061E1,1.1742213E1],"tree_param":{"num_deleted":"0","num_feature":"50","num_nodes":"13","size_leaf_vector":"1"}},{"base_weights":[-5.063182E-2,-3.6203632E-1,1.437013E0,-5.101264E-1,4.256203E-3,2.1170084E-3,1.2222192E-2,2.3386448E-3,-6.4629644E-1,-4.851434E-3,-0E0],"categories":[],"categories_nodes":[],"categories_segments":[],"categories_sizes":[],"default_left":[0,0,0,0,0,0,0,0,0,0,0],"id":63,"left_children":[1,3,5,7,-1,-1,-1,-1,9,-1,-1],"loss_changes":[8.057261E1,2.2899908E1,1.00797615E1,1.6259274E1,0E0,0E0,0E0,0E0,6.2958794E0,0E0,0E0],"parents":[2147483647,0,0,1,1,2,2,3,3,8,8],"right_children":[2,4,6,8,-1,-1,-1,-1,10,-1,-1],"split_conditions":[1.0189395E1,4.5373335E0,3.801561E2,-4.4192667E0,4.256203E-3,2.1170084E-3,1.2222192E-2,2.3386448E-3,5.0998664E0,-4.851434E-3,-0E0],"split_indices":[27,34,28,34,0,0,0,0,9,0,0],"split_type":[0,0,0,0,0,0,0,0,0,0,0],"sum_hessian":[1.646767E2,1.3931871E2,2.5357996E1,1.23716286E2,1.5602422E1,9.197545E0,1.6160452E1,1.5507929E1,1.0820836E2,9.540631E1,1.2802044E1],"tree_param":{"num_deleted":"0","num_feature":"50","num_nodes":"11","size_leaf_vector":"1"}},{"base_weights":[4.6121697E-3,-1.5738653E-1,9.707494E-3,-4.5129842E-1,4.0799204E-1,-5.6054556E-1,1.6481645E-3,-6.492166E-2,1.0422708E-2,-5.1506194E-3,-2.3306464E-1,4.594381E-3,-3.8484797E-1,-3.7106562E-3,7.801849E-2,-3.94187E-3,-0E0,3.1554282E-3,-1.6084552E-3],"categories":[],"categories_nodes":[],"categories_segments":[],"categories_sizes":[],"default_left":[0,0,0,0,0,0,0,0,0,0,0,0,0,0,0,0,0,0,0],"id":64,"left_children":[1,3,-1,5,7,9,-1,11,-1,-1,13,-1,15,-1,17,-1,-1,-1,-1],"loss_changes":[4.1522E1,2.6888231E1,0E0,8.83419E0,3.1550163E1,5.373047E0,0E0,1.1775265E1,0E0,0E0,4.864915E0,0E0,2.7847219E0,0E0,3.9703639E0,0E0,0E0,0E0,0E0],"parents":[2147483647,0,0,1,1,3,3,4,4,5,5,7,7,10,10,12,12,14,14],"right_children":[2,4,-1,6,8,10,-1,12,-1,-1,14,-1,16,-1,18,-1,-1,-1,-1],"split_conditions":[4.517733E0,1E0,9.707494E-3,9.444444E-1,-2E0,-3E0,1.6481645E-3,4.2523834E2,1.0422708E-2,-5.1506194E-3,2.2110832E0,4.594381E-3,1.6666667E-1,-3.7106562E-3,-2.5925925E-1,-3.94187E-3,-0E0,3.1554282E-3,-1.6084552E-3],"split_indices":[35,7,0,14,0,0,0,28,0,0,2,0,14,0,10,0,0,0,0],"split_type":[0,0,0,0,0,0,0,0,0,0,0,0,0,0,0,0,0,0,0],"sum_hessian":[1.646385E2,1.5175587E2,1.2882631E1,1.00871956E2,5.088392E1,8.8479034E1,1.23929205E1,3.9128983E1,1.1754936E1,4.8856663E1,3.962237E1,9.676079E0,2.9452904E1,1.8045576E1,2.1576797E1,1.7532423E1,1.192048E1,9.083084E0,1.2493713E1],"tree_param":{"num_deleted":"0","num_feature":"50","num_nodes":"19","size_leaf_vector":"1"}},{"base_weights":[2.7472666E-2,-3.2388768E-1,1.9951448E0,-5.198793E-1,4.5728546E-1,1.7440359E-3,1.8592307E-2,-5.9661144E-1,1.6171742E-3,-3.075917E-3,6.734756E-3,-4.505708E-3,-2.4775055E-4],"categories":[],"categories_nodes":[],"categories_segments":[],"categories_sizes":[],"default_left":[0,0,0,0,0,0,0,0,0,0,0,0,0],"id":65,"left_children":[1,3,5,7,9,-1,-1,11,-1,-1,-1,-1,-1],"loss_changes":[1.20801216E2,2.3763268E1,3.2433815E1,7.8753967E0,1.871772E1,0E0,0E0,4.750145E0,0E0,0E0,0E0,0E0,0E0],"parents":[2147483647,0,0,1,1,2,2,3,3,4,4,7,7],"right_children":[2,4,6,8,10,-1,-1,12,-1,-1,-1,-1,-1],"split_conditions":[1.0533533E1,7.624533E0,-1.1833333E1,5.3041935E1,-1.3166667E1,1.7440359E-3,1.8592307E-2,7.962963E-1,1.6171742E-3,-3.075917E-3,6.734756E-3,-4.505708E-3,-2.4775055E-4],"split_indices":[36,36,1,13,1,0,0,14,0,0,0,0,0],"split_type":[0,0,0,0,0,0,0,0,0,0,0,0,0],"sum_hessian":[1.6476251E2,1.4300365E2,2.175887E1,1.159327E2,2.7070942E1,9.027865E0,1.2731003E1,1.0668783E2,9.244875E0,1.0276624E1,1.679432E1,9.16294E1,1.5058421E1],"tree_param":{"num_deleted":"0","num_feature":"50","num_nodes":"13","size_leaf_vector":"1"}},{"base_weights":[5.1400222E-2,-3.5556284E-1,1.6926671E0,-5.650498E-1,1.2504427E-2,2.2182544E-3,2.1502619E0,-6.619939E-1,8.629941E-4,-2.3655265E-3,3.8801095E-1,4.3545985E-3,1.881239E-2,-5.0375005E-3,1.2522108E-4,2.7687689E-5,5.1927594E-3],"categories":[],"categories_nodes":[],"categories_segments":[],"categories_sizes":[],"default_left":[0,0,0,0,0,0,0,0,0,0,0,0,0,0,0,0,0],"id":66,"left_children":[1,3,5,7,9,-1,11,13,-1,-1,15,-1,-1,-1,-1,-1,-1],"loss_changes":[1.1647155E2,1.0978096E1,1.7301888E1,6.624569E0,8.231437E0,0E0,1.5418419E1,5.5788918E0,0E0,0E0,4.2249575E0,0E0,0E0,0E0,0E0,0E0,0E0],"parents":[2147483647,0,0,1,1,2,2,3,3,4,4,6,6,7,7,10,10],"right_children":[2,4,6,8,10,-1,12,14,-1,-1,16,-1,-1,-1,-1,-1,-1],"split_conditions":[9.452652E0,4.574711E0,-9.166667E0,4.3333335E0,-1.1E1,2.2182544E-3,3.8756573E2,9.565287E-1,8.629941E-4,-2.3655265E-3,4.118791E3,4.3545985E-3,1.881239E-2,-5.0375005E-3,1.2522108E-4,2.7687689E-5,5.1927594E-3],"split_indices":[27,9,1,1,1,0,28,21,0,0,49,0,0,0,0,0,0],"split_type":[0,0,0,0,0,0,0,0,0,0,0,0,0,0,0,0,0],"sum_hessian":[1.6470876E2,1.3478452E2,2.9924232E1,8.4871704E1,4.9912815E1,9.787491E0,2.0136742E1,7.5108696E1,9.763016E0,2.484692E1,2.5065893E1,9.38172E0,1.0755022E1,6.572496E1,9.38373E0,1.5555557E1,9.510337E0],"tree_param":{"num_deleted":"0","num_feature":"50","num_nodes":"17","size_leaf_vector":"1"}},{"base_weights":[3.2341518E-2,-1.6346343E-1,8.941193E-3,-5.147399E-1,3.269542E-1,1.3581811E-3,-6.170864E-1,-9.2526376E-2,7.937704E-3,3.0880986E-4,-4.7006877E-3,2.6373175E-1,-2.7839106E-3,-1.257244E-3,4.729613E-3],"categories":[],"categories_nodes":[],"categories_segments":[],"categories_sizes":[],"default_left":[0,0,0,0,0,0,0,0,0,0,0,0,0,0,0],"id":67,"left_children":[1,3,-1,5,7,-1,9,11,-1,-1,-1,13,-1,-1,-1],"loss_changes":[4.5106514E1,2.698462E1,0E0,7.4067326E0,2.486581E1,0E0,5.2629547E0,6.220046E0,0E0,0E0,0E0,6.019558E0,0E0,0E0,0E0],"parents":[2147483647,0,0,1,1,3,3,4,4,6,6,7,7,11,11],"right_children":[2,4,-1,6,8,-1,10,12,-1,-1,-1,14,-1,-1,-1],"split_conditions":[3.7745333E0,1E0,8.941193E-3,-3.8978E0,4.3816753E1,1.3581811E-3,-1.9732667E0,1.0914933E5,7.937704E-3,3.0880986E-4,-4.7006877E-3,3.7037037E-2,-2.7839106E-3,-1.257244E-3,4.729613E-3],"split_indices":[35,5,0,34,13,0,35,29,0,0,0,10,0,0,0],"split_type":[0,0,0,0,0,0,0,0,0,0,0,0,0,0,0],"sum_hessian":[1.649292E2,1.4692352E2,1.8005665E1,8.587251E1,6.1051018E1,9.69501E0,7.61775E1,4.3754494E1,1.7296524E1,9.010071E0,6.716743E1,2.0873016E1,2.288148E1,1.1367911E1,9.505104E0],"tree_param":{"num_deleted":"0","num_feature":"50","num_nodes":"15","size_leaf_vector":"1"}},{"base_weights":[5.0641943E-2,-4.4030747E-1,1.1786659E0,-5.3554434E-1,2.8459365E-3,4.6533028E-6,1.7567209E0,-4.932549E-3,-1.0915353E-1,9.7122395E-1,1.5339917E-2,-3.51751E-3,2.6121503E-3,2.0757315E-3,8.51863E-3],"categories":[],"categories_nodes":[],"categories_segments":[],"categories_sizes":[],"default_left":[0,0,0,0,0,0,0,0,0,0,0,0,0,0,0],"id":68,"left_children":[1,3,5,7,-1,-1,9,-1,11,13,-1,-1,-1,-1,-1],"loss_changes":[9.660517E1,1.116601E1,3.5427597E1,9.217972E0,0E0,0E0,3.6334152E0,0E0,1.0054573E1,2.2870274E0,0E0,0E0,0E0,0E0,0E0],"parents":[2147483647,0,0,1,1,2,2,3,3,6,6,8,8,9,9],"right_children":[2,4,6,8,-1,-1,10,-1,12,14,-1,-1,-1,-1,-1],"split_conditions":[7.7408E0,5.3041935E1,-1.6E1,-2E0,2.8459365E-3,4.6533028E-6,1.0881133E1,-4.932549E-3,4.8743334E0,3.4549084E1,1.5339917E-2,-3.51751E-3,2.6121503E-3,2.0757315E-3,8.51863E-3],"split_indices":[36,13,0,0,0,0,36,0,36,13,0,0,0,0,0],"split_type":[0,0,0,0,0,0,0,0,0,0,0,0,0,0,0],"sum_hessian":[1.648294E2,1.166438E2,4.8185604E1,1.07109505E2,9.534295E0,1.7613394E1,3.0572208E1,6.916124E1,3.794826E1,1.827844E1,1.229377E1,2.0886417E1,1.7061846E1,9.266391E0,9.012049E0],"tree_param":{"num_deleted":"0","num_feature":"50","num_nodes":"15","size_leaf_vector":"1"}},{"base_weights":[2.4092803E-2,-4.8886335E-1,1.1485213E0,-6.786134E-1,-1.120385E-1,4.2342218E-3,1.4557819E-2,-5.0975024E-3,-1.0442764E-3,3.947887E-3,-3.3638987E-3],"categories":[],"categories_nodes":[],"categories_segments":[],"categories_sizes":[],"default_left":[0,0,0,0,0,0,0,0,0,0,0],"id":69,"left_children":[1,3,5,7,9,-1,-1,-1,-1,-1,-1],"loss_changes":[1.00394905E2,7.8961773E0,2.1539818E1,2.7301712E0,1.4275319E1,0E0,0E0,0E0,0E0,0E0,0E0],"parents":[2147483647,0,0,1,1,2,2,3,3,4,4],"right_children":[2,4,6,8,10,-1,-1,-1,-1,-1,-1],"split_conditions":[7.624533E0,5.4539332E0,1.30724E1,1.28E2,3.801561E2,4.2342218E-3,1.4557819E-2,-5.0975024E-3,-1.0442764E-3,3.947887E-3,-3.3638987E-3],"split_indices":[36,36,36,8,28,0,0,0,0,0,0],"split_type":[0,0,0,0,0,0,0,0,0,0,0],"sum_hessian":[1.643425E2,1.14485344E2,4.9857162E1,7.302607E1,4.1459274E1,3.881288E1,1.1044278E1,5.9893284E1,1.3132786E1,1.3689523E1,2.776975E1],"tree_param":{"num_deleted":"0","num_feature":"50","num_nodes":"11","size_leaf_vector":"1"}},{"base_weights":[8.322278E-2,-3.180867E-1,1.5380481E0,-4.435175E-1,2.6194644E-3,1.5875157E-3,1.9129034E0,-5.406913E-1,7.553027E-4,4.1773086E-3,1.5540637E-2,-4.5855287E-3,-2.0607029E-1,2.5613664E-3,-3.843053E-3],"categories":[],"categories_nodes":[],"categories_segments":[],"categories_sizes":[],"default_left":[0,0,0,0,0,0,0,0,0,0,0,0,0,0,0],"id":70,"left_children":[1,3,5,7,-1,-1,9,11,-1,-1,-1,-1,13,-1,-1],"loss_changes":[1.0143719E2,1.3022999E1,1.538942E1,6.852377E0,0E0,0E0,7.5513916E0,4.1541195E0,0E0,0E0,0E0,0E0,9.744251E0,0E0,0E0],"parents":[2147483647,0,0,1,1,2,2,3,3,6,6,7,7,12,12],"right_children":[2,4,6,8,-1,-1,10,12,-1,-1,-1,-1,14,-1,-1],"split_conditions":[8.964302E0,3.6666667E0,3.7056427E2,1.6666666E0,2.6194644E-3,1.5875157E-3,-9E0,4.0673666E0,7.553027E-4,4.1773086E-3,1.5540637E-2,-4.5855287E-3,1.1313708E1,2.5613664E-3,-3.843053E-3],"split_indices":[27,1,28,10,0,0,1,18,0,0,0,0,18,0,0],"split_type":[0,0,0,0,0,0,0,0,0,0,0,0,0,0,0],"sum_hessian":[1.6434451E2,1.3152438E2,3.2820126E1,1.13762764E2,1.7761625E1,9.287212E0,2.3532911E1,9.7509834E1,1.6252926E1,9.000959E0,1.4531952E1,6.315542E1,3.4354416E1,1.2860242E1,2.1494175E1],"tree_param":{"num_deleted":"0","num_feature":"50","num_nodes":"15","size_leaf_vector":"1"}},{"base_weights":[2.423861E-2,-5.2576923E-1,1.257612E0,-6.2292093E-1,2.76938E-4,-1.8313194E-4,1.9147774E0,-7.3927623E-1,-7.10152E-2,9.754208E-1,1.8726608E-2,-5.403217E-3,-3.8876507E-4,-3.0107088E-3,2.2554488E-3,8.630265E-3,1.6586742E-3],"categories":[],"categories_nodes":[],"categories_segments":[],"categories_sizes":[],"default_left":[0,0,0,0,0,0,0,0,0,0,0,0,0,0,0,0,0],"id":71,"left_children":[1,3,5,7,-1,-1,9,11,13,15,-1,-1,-1,-1,-1,-1,-1],"loss_changes":[1.1804774E2,6.9388885E0,4.6260223E1,6.1111145E0,0E0,0E0,1.6155945E1,3.7584877E0,4.494145E0,3.8197727E0,0E0,0E0,0E0,0E0,0E0,0E0,0E0],"parents":[2147483647,0,0,1,1,2,2,3,3,6,6,7,7,8,8,9,9],"right_children":[2,4,6,8,-1,-1,10,12,14,16,-1,-1,-1,-1,-1,-1,-1],"split_conditions":[7.7408E0,3.3333333E0,-1.4333333E1,6.347533E0,2.76938E-4,-1.8313194E-4,1.15112E1,1.8148148E0,-1.2166667E1,1.5E0,1.8726608E-2,-5.403217E-3,-3.8876507E-4,-3.0107088E-3,2.2554488E-3,8.630265E-3,1.6586742E-3],"split_indices":[36,1,1,36,0,0,36,10,1,1,0,0,0,0,0,0,0],"split_type":[0,0,0,0,0,0,0,0,0,0,0,0,0,0,0,0,0],"sum_hessian":[1.6431633E2,1.1532536E2,4.899096E1,9.858433E1,1.6741035E1,1.7932825E1,3.1058134E1,7.9585655E1,1.8998678E1,2.0251177E1,1.0806957E1,7.044521E1,9.140437E0,1.0011141E1,8.987537E0,1.1084258E1,9.166919E0],"tree_param":{"num_deleted":"0","num_feature":"50","num_nodes":"17","size_leaf_vector":"1"}},{"base_weights":[6.350501E-3,-3.7353435E-1,1.607767E0,-4.87495E-1,4.025472E-3,3.8739888E-3,1.2472666E-2,-4.4840663E-3,-1.2394337E-1,2.458068E-3,-3.5374767E-1,-3.3287988E-3,3.0292207E-4],"categories":[],"categories_nodes":[],"categories_segments":[],"categories_sizes":[],"default_left":[0,0,0,0,0,0,0,0,0,0,0,0,0],"id":72,"left_children":[1,3,5,7,-1,-1,-1,-1,9,-1,11,-1,-1],"loss_changes":[1.0611008E2,1.70254E1,3.2711105E0,8.119949E0,0E0,0E0,0E0,0E0,6.318527E0,0E0,2.454996E0,0E0,0E0],"parents":[2147483647,0,0,1,1,2,2,3,3,8,8,10,10],"right_children":[2,4,6,8,-1,-1,-1,-1,10,-1,12,-1,-1],"split_conditions":[9.880484E0,3.7745333E0,2.8282707E1,4.574711E0,4.025472E-3,3.8739888E-3,1.2472666E-2,-4.4840663E-3,3.7374582E4,2.458068E-3,5.450277E0,-3.3287988E-3,3.0292207E-4],"split_indices":[27,35,13,9,0,0,0,0,29,0,27,0,0],"split_type":[0,0,0,0,0,0,0,0,0,0,0,0,0],"sum_hessian":[1.6433852E2,1.3558751E2,2.8751E1,1.2389961E2,1.1687907E1,9.394535E0,1.9356464E1,7.839224E1,4.5507362E1,1.3058754E1,3.244861E1,2.3429377E1,9.019233E0],"tree_param":{"num_deleted":"0","num_feature":"50","num_nodes":"13","size_leaf_vector":"1"}},{"base_weights":[4.973986E-2,-3.7161574E-1,1.5374162E0,-4.8563734E-1,3.361808E-3,1.2273256E-3,1.9159604E0,3.3217722E-3,-6.058305E-1,4.650866E-3,1.5114608E-2,-6.7751306E-1,-2.0446047E-5,-5.0939145E-3,-3.4880923E-4],"categories":[],"categories_nodes":[],"categories_segments":[],"categories_sizes":[],"default_left":[0,0,0,0,0,0,0,0,0,0,0,0,0,0,0],"id":73,"left_children":[1,3,5,7,-1,-1,9,-1,11,-1,-1,13,-1,-1,-1],"loss_changes":[1.0887346E2,1.4683218E1,1.7244118E1,1.5968561E1,0E0,0E0,4.2745895E0,0E0,4.5768204E0,0E0,0E0,5.0911636E0,0E0,0E0,0E0],"parents":[2147483647,0,0,1,1,2,2,3,3,6,6,8,8,11,11],"right_children":[2,4,6,8,-1,-1,10,-1,12,-1,-1,14,-1,-1,-1],"split_conditions":[8.964302E0,4.803867E0,-1.25E1,-4.9932E0,3.361808E-3,1.2273256E-3,5.4E1,3.3217722E-3,4E0,4.650866E-3,1.5114608E-2,6.0207973E0,-2.0446047E-5,-5.0939145E-3,-3.4880923E-4],"split_indices":[27,34,1,34,0,0,8,0,1,0,0,2,0,0,0],"split_type":[0,0,0,0,0,0,0,0,0,0,0,0,0,0,0],"sum_hessian":[1.6401833E2,1.3040266E2,3.3615654E1,1.17626045E2,1.2776625E1,9.085564E0,2.4530088E1,1.0849416E1,1.0677663E2,9.011488E0,1.55186E1,9.44004E1,1.2376231E1,8.11305E1,1.32698965E1],"tree_param":{"num_deleted":"0","num_feature":"50",