{"learner":{"attributes":{},"feature_names":[],"feature_types":[],"gradient_booster":{"model":{"cats":{"enc":[],"feature_segments":[],"sorted_idx":[]},"gbtree_model_param":{"num_parallel_tree":"1","num_trees":"467"},"iteration_indptr":[0,1,2,3,4,5,6,7,8,9,10,11,12,13,14,15,16,17,18,19,20,21,22,23,24,25,26,27,28,29,30,31,32,33,34,35,36,37,38,39,40,41,42,43,44,45,46,47,48,49,50,51,52,53,54,55,56,57,58,59,60,61,62,63,64,65,66,67,68,69,70,71,72,73,74,75,76,77,78,79,80,81,82,83,84,85,86,87,88,89,90,91,92,93,94,95,96,97,98,99,100,101,102,103,104,105,106,107,108,109,110,111,112,113,114,115,116,117,118,119,120,121,122,123,124,125,126,127,128,129,130,131,132,133,134,135,136,137,138,139,140,141,142,143,144,145,146,147,148,149,150,151,152,153,154,155,156,157,158,159,160,161,162,163,164,165,166,167,168,169,170,171,172,173,174,175,176,177,178,179,180,181,182,183,184,185,186,187,188,189,190,191,192,193,194,195,196,197,198,199,200,201,202,203,204,205,206,207,208,209,210,211,212,213,214,215,216,217,218,219,220,221,222,223,224,225,226,227,228,229,230,231,232,233,234,235,236,237,238,239,240,241,242,243,244,245,246,247,248,249,250,251,252,253,254,255,256,257,258,259,260,261,262,263,264,265,266,267,268,269,270,271,272,273,274,275,276,277,278,279,280,281,282,283,284,285,286,287,288,289,290,291,292,293,294,295,296,297,298,299,300,301,302,303,304,305,306,307,308,309,310,311,312,313,314,315,316,317,318,319,320,321,322,323,324,325,326,327,328,329,330,331,332,333,334,335,336,337,338,339,340,341,342,343,344,345,346,347,348,349,350,351,352,353,354,355,356,357,358,359,360,361,362,363,364,365,366,367,368,369,370,371,372,373,374,375,376,377,378,379,380,381,382,383,384,385,386,387,388,389,390,391,392,393,394,395,396,397,398,399,400,401,402,403,404,405,406,407,408,409,410,411,412,413,414,415,416,417,418,419,420,421,422,423,424,425,426,427,428,429,430,431,432,433,434,435,436,437,438,439,440,441,442,443,444,445,446,447,448,449,450,451,452,453,454,455,456,457,458,459,460,461,462,463,464,465,466,467],"tree_info":[0,0,0,0,0,0,0,0,0,0,0,0,0,0,0,0,0,0,0,0,0,0,0,0,0,0,0,0,0,0,0,0,0,0,0,0,0,0,0,0,0,0,0,0,0,0,0,0,0,0,0,0,0,0,0,0,0,0,0,0,0,0,0,0,0,0,0,0,0,0,0,0,0,0,0,0,0,0,0,0,0,0,0,0,0,0,0,0,0,0,0,0,0,0,0,0,0,0,0,0,0,0,0,0,0,0,0,0,0,0,0,0,0,0,0,0,0,0,0,0,0,0,0,0,0,0,0,0,0,0,0,0,0,0,0,0,0,0,0,0,0,0,0,0,0,0,0,0,0,0,0,0,0,0,0,0,0,0,0,0,0,0,0,0,0,0,0,0,0,0,0,0,0,0,0,0,0,0,0,0,0,0,0,0,0,0,0,0,0,0,0,0,0,0,0,0,0,0,0,0,0,0,0,0,0,0,0,0,0,0,0,0,0,0,0,0,0,0,0,0,0,0,0,0,0,0,0,0,0,0,0,0,0,0,0,0,0,0,0,0,0,0,0,0,0,0,0,0,0,0,0,0,0,0,0,0,0,0,0,0,0,0,0,0,0,0,0,0,0,0,0,0,0,0,0,0,0,0,0,0,0,0,0,0,0,0,0,0,0,0,0,0,0,0,0,0,0,0,0,0,0,0,0,0,0,0,0,0,0,0,0,0,0,0,0,0,0,0,0,0,0,0,0,0,0,0,0,0,0,0,0,0,0,0,0,0,0,0,0,0,0,0,0,0,0,0,0,0,0,0,0,0,0,0,0,0,0,0,0,0,0,0,0,0,0,0,0,0,0,0,0,0,0,0,0,0,0,0,0,0,0,0,0,0,0,0,0,0,0,0,0,0,0,0,0,0,0,0,0,0,0,0,0,0,0,0,0,0,0,0,0,0,0,0,0,0,0,0,0,0,0,0,0,0,0,0,0,0,0,0,0,0,0,0,0,0,0,0,0,0,0,0,0,0,0,0,0,0,0,0,0,0,0,0,0,0,0,0,0,0,0,0,0,0,0,0,0],"trees":[{"base_weights":[4.0199043E-4,9.495733E-1,-1.3394996E0,1.5149628E0,3.050725E-1,-7.5988364E-1,-1.8097186E0,3.6399912E-2,2.3745155E-2,-7.4096047E-3,1.0377177E-2,-2.5694631E-2,-1.0193893E-2,-3.7388884E-2,6.0793045E-3],"categories":[],"categories_nodes":[],"categories_segments":[],"categories_sizes":[],"default_left":[0,0,0,0,0,0,0,0,0,0,0,0,0,0,0],"id":0,"left_children":[1,3,5,7,9,11,13,-1,-1,-1,-1,-1,-1,-1,-1],"loss_changes":[6.5483773E4,1.0981133E4,5.8148867E3,1.5784883E3,2.0044429E3,1.251667E3,1.2515547E3,0E0,0E0,0E0,0E0,0E0,0E0,0E0,0E0],"parents":[2147483647,0,0,1,1,2,2,3,3,4,4,5,5,6,6],"right_children":[2,4,6,8,10,12,14,-1,-1,-1,-1,-1,-1,-1,-1],"split_conditions":[-1.0666667E1,-2.3333334E1,-3.5E0,-3.4666668E1,-7.534278E-1,-7.787038E-1,5E0,3.6399912E-2,2.3745155E-2,-7.4096047E-3,1.0377177E-2,-2.5694631E-2,-1.0193893E-2,-3.7388884E-2,6.0793045E-3],"split_indices":[5,5,5,5,47,47,13,0,0,0,0,0,0,0,0],"split_type":[0,0,0,0,0,0,0,0,0,0,0,0,0,0,0],"sum_hessian":[5.1483348E4,3.0136115E4,2.1347234E4,1.605121E4,1.4084905E4,9.564814E3,1.1782419E4,8.50287E3,7.54834E3,3.3606086E3,1.0724296E4,3.1316812E3,6.433134E3,1.1509157E4,2.7326248E2],"tree_param":{"num_deleted":"0","num_feature":"50","num_nodes":"15","size_leaf_vector":"1"}},{"base_weights":[-2.016833E-3,-1.7482157E0,4.8386005E-1,-1.8593755E0,7.063395E-1,-5.4891354E-1,7.500659E-1,-3.7970982E-2,-2.2511097E-2,-5.8957017E-3,2.328113E-2,-3.6019636E-3,-2.1349508E-2,1.1777056E-2,3.4596946E-2],"categories":[],"categories_nodes":[],"categories_segments":[],"categories_sizes":[],"default_left":[0,0,0,0,0,0,0,0,0,0,0,0,0,0,0],"id":1,"left_children":[1,3,5,7,9,11,13,-1,-1,-1,-1,-1,-1,-1,-1],"loss_changes":[4.3601555E4,3.0560938E3,1.1054445E4,2.2740625E2,2.2083708E2,1.5628984E3,5.0938125E3,0E0,0E0,0E0,0E0,0E0,0E0,0E0,0E0],"parents":[2147483647,0,0,1,1,2,2,3,3,4,4,5,5,6,6],"right_children":[2,4,6,8,10,12,14,-1,-1,-1,-1,-1,-1,-1,-1],"split_conditions":[8.333333E-1,1.6666667E-1,-7.0552456E-1,1.1296813E0,1E0,-1.1008219E0,1E0,-3.7970982E-2,-2.2511097E-2,-5.8957017E-3,2.328113E-2,-3.6019636E-3,-2.1349508E-2,1.1777056E-2,3.4596946E-2],"split_indices":[7,14,18,43,3,18,4,0,0,0,0,0,0,0,0],"split_type":[0,0,0,0,0,0,0,0,0,0,0,0,0,0,0],"sum_hessian":[5.138456E4,1.1183704E4,4.0200855E4,1.0699849E4,4.838555E2,8.23791E3,3.1962945E4,1.0284867E4,4.1498108E2,1.5093285E2,3.3292264E2,4.790269E3,3.4476416E3,2.7343393E4,4.619553E3],"tree_param":{"num_deleted":"0","num_feature":"50","num_nodes":"15","size_leaf_vector":"1"}},{"base_weights":[-7.2974595E-4,-1.7131693E0,4.7337902E-1,-1.8222715E0,7.0423573E-1,-4.906466E-1,7.216058E-1,-3.739356E-2,-2.5003677E-2,2.4869995E-2,-1.8970397E-3,-1.1899747E-2,3.1113632E-2,1.0950432E-2,3.325629E-2],"categories":[],"categories_nodes":[],"categories_segments":[],"categories_sizes":[],"default_left":[0,0,0,0,0,0,0,0,0,0,0,0,0,0,0],"id":2,"left_children":[1,3,5,7,9,11,13,-1,-1,-1,-1,-1,-1,-1,-1],"loss_changes":[4.184633E4,2.951336E3,9.660601E3,2.276289E2,2.0664177E2,1.7100419E3,5.2933945E3,0E0,0E0,0E0,0E0,0E0,0E0,0E0,0E0],"parents":[2147483647,0,0,1,1,2,2,3,3,4,4,5,5,6,6],"right_children":[2,4,6,8,10,12,14,-1,-1,-1,-1,-1,-1,-1,-1],"split_conditions":[8.333333E-1,5E0,-7.864087E-1,4.4517216E-1,-1.996065E0,1E0,4.667E0,-3.739356E-2,-2.5003677E-2,2.4869995E-2,-1.8970397E-3,-1.1899747E-2,3.1113632E-2,1.0950432E-2,3.325629E-2],"split_indices":[7,13,47,42,41,4,13,0,0,0,0,0,0,0,0],"split_type":[0,0,0,0,0,0,0,0,0,0,0,0,0,0,0],"sum_hessian":[5.1536484E4,1.1172985E4,4.03635E4,1.0691191E4,4.8179337E2,8.264443E3,3.2099057E4,1.0027813E4,6.6337805E2,2.8799622E2,1.9379715E2,7.8751123E3,3.8933145E2,2.6986443E4,5.1126123E3],"tree_param":{"num_deleted":"0","num_feature":"50","num_nodes":"15","size_leaf_vector":"1"}},{"base_weights":[4.5575947E-3,1.0585638E0,-1.1010776E0,1.5942285E0,5.915268E-1,-5.3122044E-1,-1.689582E0,3.558841E-2,2.6381485E-2,1.7043445E-2,5.6650736E-3,-4.1241697E-3,-1.7067896E-2,-3.4879964E-2,5.519321E-3],"categories":[],"categories_nodes":[],"categories_segments":[],"categories_sizes":[],"default_left":[0,0,0,0,0,0,0,0,0,0,0,0,0,0,0],"id":3,"left_children":[1,3,5,7,9,11,13,-1,-1,-1,-1,-1,-1,-1,-1],"loss_changes":[5.9959477E4,6.587115E3,8.418695E3,6.0224023E2,1.1167388E3,1.3220396E3,1.106293E3,0E0,0E0,0E0,0E0,0E0,0E0,0E0,0E0],"parents":[2147483647,0,0,1,1,2,2,3,3,4,4,5,5,6,6],"right_children":[2,4,6,8,10,12,14,-1,-1,-1,-1,-1,-1,-1,-1],"split_conditions":[-1.3666667E1,-2.8E1,-4E0,-3.6833332E1,-1.9166666E1,-8.833333E0,1.6666667E-1,3.558841E-2,2.6381485E-2,1.7043445E-2,5.6650736E-3,-4.1241697E-3,-1.7067896E-2,-3.4879964E-2,5.519321E-3],"split_indices":[5,5,5,5,5,5,14,0,0,0,0,0,0,0,0],"split_type":[0,0,0,0,0,0,0,0,0,0,0,0,0,0,0],"sum_hessian":[5.1446207E4,2.6338111E4,2.5108096E4,1.22644375E4,1.4073673E4,1.2758972E4,1.2349124E4,7.5383164E3,4.7261206E3,7.697992E3,6.375681E3,6.3003286E3,6.4586426E3,1.2069613E4,2.7951065E2],"tree_param":{"num_deleted":"0","num_feature":"50","num_nodes":"15","size_leaf_vector":"1"}},{"base_weights":[-3.5619175E-3,1.0242947E0,-1.0980561E0,1.538759E0,5.3761697E-1,-4.2779008E-1,-1.5753883E0,3.4920417E-2,2.5232116E-2,-1.706065E-3,1.399847E-2,-2.0125205E-2,-3.456425E-3,-3.2513723E-2,6.105244E-3],"categories":[],"categories_nodes":[],"categories_segments":[],"categories_sizes":[],"default_left":[0,0,0,0,0,0,0,0,0,0,0,0,0,0,0],"id":4,"left_children":[1,3,5,7,9,11,13,-1,-1,-1,-1,-1,-1,-1,-1],"loss_changes":[5.778102E4,6.6293906E3,7.956367E3,7.178594E2,1.3456252E3,1.5177909E3,1.1486445E3,0E0,0E0,0E0,0E0,0E0,0E0,0E0,0E0],"parents":[2147483647,0,0,1,1,2,2,3,3,4,4,5,5,6,6],"right_children":[2,4,6,8,10,12,14,-1,-1,-1,-1,-1,-1,-1,-1],"split_conditions":[-1.35E1,-2.7166666E1,-5.6666665E0,-3.6833332E1,-7.534278E-1,-7.70623E-1,5E0,3.4920417E-2,2.5232116E-2,-1.706065E-3,1.399847E-2,-2.0125205E-2,-3.456425E-3,-3.2513723E-2,6.105244E-3],"split_indices":[5,5,5,5,47,47,13,0,0,0,0,0,0,0,0],"split_type":[0,0,0,0,0,0,0,0,0,0,0,0,0,0,0],"sum_hessian":[5.135583E4,2.6484244E4,2.4871584E4,1.2871514E4,1.361273E4,1.03474E4,1.4524183E4,7.5646E3,5.306913E3,2.7663618E3,1.0846369E4,3.1900493E3,7.1573516E3,1.4206858E4,3.1732474E2],"tree_param":{"num_deleted":"0","num_feature":"50","num_nodes":"15","size_leaf_vector":"1"}},{"base_weights":[-3.8054506E-3,1.0210698E0,-1.0572726E0,1.534806E0,5.6395185E-1,-4.1571593E-1,-1.5510243E0,3.4226615E-2,2.5510326E-2,-2.2279888E-3,1.4541133E-2,-2.0268587E-2,-3.1032474E-3,-3.2020047E-2,6.6561685E-3],"categories":[],"categories_nodes":[],"categories_segments":[],"categories_sizes":[],"default_left":[0,0,0,0,0,0,0,0,0,0,0,0,0,0,0],"id":5,"left_children":[1,3,5,7,9,11,13,-1,-1,-1,-1,-1,-1,-1,-1],"loss_changes":[5.5401562E4,6.1055137E3,8.0135547E3,5.3981836E2,1.4811611E3,1.7043594E3,1.1272461E3,0E0,0E0,0E0,0E0,0E0,0E0,0E0,0E0],"parents":[2147483647,0,0,1,1,2,2,3,3,4,4,5,5,6,6],"right_children":[2,4,6,8,10,12,14,-1,-1,-1,-1,-1,-1,-1,-1],"split_conditions":[-1.3833333E1,-2.8E1,-5.5E0,-3.6833332E1,-7.0552456E-1,-7.0552456E-1,5E0,3.4226615E-2,2.5510326E-2,-2.2279888E-3,1.4541133E-2,-2.0268587E-2,-3.1032474E-3,-3.2020047E-2,6.6561685E-3],"split_indices":[5,5,5,5,18,18,13,0,0,0,0,0,0,0,0],"split_type":[0,0,0,0,0,0,0,0,0,0,0,0,0,0,0],"sum_hessian":[5.130746E4,2.6006693E4,2.5300766E4,1.2241769E4,1.3764926E4,1.1005785E4,1.42949795E4,7.494093E3,4.747676E3,2.6305068E3,1.1134418E4,3.3658523E3,7.639933E3,1.3984617E4,3.1036218E2],"tree_param":{"num_deleted":"0","num_feature":"50","num_nodes":"15","size_leaf_vector":"1"}},{"base_weights":[3.980487E-3,8.556315E-1,-1.2099236E0,1.3753289E0,2.653864E-1,-6.6139746E-1,-1.6088868E0,3.3073097E-2,2.1563698E-2,-7.9073375E-3,9.3005905E-3,-2.335705E-2,-8.467837E-3,-3.3201516E-2,5.0018146E-3],"categories":[],"categories_nodes":[],"categories_segments":[],"categories_sizes":[],"default_left":[0,0,0,0,0,0,0,0,0,0,0,0,0,0,0],"id":6,"left_children":[1,3,5,7,9,11,13,-1,-1,-1,-1,-1,-1,-1,-1],"loss_changes":[5.3099438E4,9.25815E3,4.6313477E3,1.3059414E3,1.8376796E3,1.0710366E3,9.7449805E2,0E0,0E0,0E0,0E0,0E0,0E0,0E0,0E0],"parents":[2147483647,0,0,1,1,2,2,3,3,4,4,5,5,6,6],"right_children":[2,4,6,8,10,12,14,-1,-1,-1,-1,-1,-1,-1,-1],"split_conditions":[-1.0666667E1,-2.3333334E1,-4E0,-3.4666668E1,-7.0552456E-1,-7.0552456E-1,5E0,3.3073097E-2,2.1563698E-2,-7.9073375E-3,9.3005905E-3,-2.335705E-2,-8.467837E-3,-3.3201516E-2,5.0018146E-3],"split_indices":[5,5,5,5,18,18,13,0,0,0,0,0,0,0,0],"split_type":[0,0,0,0,0,0,0,0,0,0,0,0,0,0,0],"sum_hessian":[5.135637E4,3.0182084E4,2.1174287E4,1.6048154E4,1.4133931E4,8.919221E3,1.2255067E4,8.475768E3,7.572386E3,3.2566157E3,1.0877314E4,2.8883784E3,6.030842E3,1.1979766E4,2.7530157E2],"tree_param":{"num_deleted":"0","num_feature":"50","num_nodes":"15","size_leaf_vector":"1"}},{"base_weights":[-6.07972E-4,8.3810407E-1,-1.1929779E0,1.3487806E0,2.6059002E-1,-6.8843716E-1,-1.6061032E0,3.2508735E-2,2.1010438E-2,-7.8472085E-3,9.111307E-3,-2.1672985E-2,-8.0542695E-3,-3.3195794E-2,5.1430333E-3],"categories":[],"categories_nodes":[],"categories_segments":[],"categories_sizes":[],"default_left":[0,0,0,0,0,0,0,0,0,0,0,0,0,0,0],"id":7,"left_children":[1,3,5,7,9,11,13,-1,-1,-1,-1,-1,-1,-1,-1],"loss_changes":[5.1143938E4,8.853436E3,4.3985996E3,1.2933027E3,1.7679467E3,1.0654907E3,9.7910156E2,0E0,0E0,0E0,0E0,0E0,0E0,0E0,0E0],"parents":[2147483647,0,0,1,1,2,2,3,3,4,4,5,5,6,6],"right_children":[2,4,6,8,10,12,14,-1,-1,-1,-1,-1,-1,-1,-1],"split_conditions":[-1.0666667E1,-2.3333334E1,-3.5E0,-3.4666668E1,-7.0552456E-1,-5.718918E-1,5E0,3.2508735E-2,2.1010438E-2,-7.8472085E-3,9.111307E-3,-2.1672985E-2,-8.0542695E-3,-3.3195794E-2,5.1430333E-3],"split_indices":[5,5,5,5,18,47,13,0,0,0,0,0,0,0,0],"split_type":[0,0,0,0,0,0,0,0,0,0,0,0,0,0,0],"sum_hessian":[5.1135273E4,3.0020057E4,2.1115215E4,1.5929882E4,1.4090175E4,9.5094E3,1.1605813E4,8.4486455E3,7.481236E3,3.2171147E3,1.0873061E4,4.0359438E3,5.473457E3,1.1330835E4,2.7497876E2],"tree_param":{"num_deleted":"0","num_feature":"50","num_nodes":"15","size_leaf_vector":"1"}},{"base_weights":[1.66849E-3,8.3354336E-1,-1.1625063E0,1.326271E0,2.7033237E-1,-6.33093E-1,-1.5581033E0,3.181308E-2,2.042294E-2,-7.487202E-3,9.255436E-3,-2.2525618E-2,-8.080308E-3,-3.216707E-2,4.3075853E-3],"categories":[],"categories_nodes":[],"categories_segments":[],"categories_sizes":[],"default_left":[0,0,0,0,0,0,0,0,0,0,0,0,0,0,0],"id":8,"left_children":[1,3,5,7,9,11,13,-1,-1,-1,-1,-1,-1,-1,-1],"loss_changes":[4.9477164E4,8.267959E3,4.456373E3,1.2592344E3,1.699813E3,1.0251733E3,9.09416E2,0E0,0E0,0E0,0E0,0E0,0E0,0E0,0E0],"parents":[2147483647,0,0,1,1,2,2,3,3,4,4,5,5,6,6],"right_children":[2,4,6,8,10,12,14,-1,-1,-1,-1,-1,-1,-1,-1],"split_conditions":[-1.0833333E1,-2.3333334E1,-4E0,-3.4E1,-7.0552456E-1,-7.0552456E-1,5E0,3.181308E-2,2.042294E-2,-7.487202E-3,9.255436E-3,-2.2525618E-2,-8.080308E-3,-3.216707E-2,4.3075853E-3],"split_indices":[5,5,5,5,18,18,13,0,0,0,0,0,0,0,0],"split_type":[0,0,0,0,0,0,0,0,0,0,0,0,0,0,0],"sum_hessian":[5.1083285E4,2.9794268E4,2.1289016E4,1.5889394E4,1.3904875E4,9.107879E3,1.2181136E4,8.695725E3,7.193668E3,3.1728381E3,1.0732037E4,2.9259124E3,6.181967E3,1.1899009E4,2.821274E2],"tree_param":{"num_deleted":"0","num_feature":"50","num_nodes":"15","size_leaf_vector":"1"}},{"base_weights":[-1.179056E-3,9.835886E-1,-9.520679E-1,1.4434872E0,5.68319E-1,-3.3617836E-1,-1.4344918E0,3.2105174E-2,2.3906829E-2,-9.0175605E-4,1.4233694E-2,-1.8127698E-2,-1.8965193E-3,-2.9633721E-2,6.4127087E-3],"categories":[],"categories_nodes":[],"categories_segments":[],"categories_sizes":[],"default_left":[0,0,0,0,0,0,0,0,0,0,0,0,0,0,0],"id":9,"left_children":[1,3,5,7,9,11,13,-1,-1,-1,-1,-1,-1,-1,-1],"loss_changes":[4.767237E4,4.773957E3,7.6941465E3,4.577793E2,1.1266548E3,1.5563654E3,1.0112285E3,0E0,0E0,0E0,0E0,0E0,0E0,0E0,0E0],"parents":[2147483647,0,0,1,1,2,2,3,3,4,4,5,5,6,6],"right_children":[2,4,6,8,10,12,14,-1,-1,-1,-1,-1,-1,-1,-1],"split_conditions":[-1.45E1,-2.8333334E1,-5.8333335E0,-3.6833332E1,-7.0552456E-1,-7.0552456E-1,1.6666667E-1,3.2105174E-2,2.3906829E-2,-9.0175605E-4,1.4233694E-2,-1.8127698E-2,-1.8965193E-3,-2.9633721E-2,6.4127087E-3],"split_indices":[5,5,5,5,18,18,14,0,0,0,0,0,0,0,0],"split_type":[0,0,0,0,0,0,0,0,0,0,0,0,0,0,0],"sum_hessian":[5.090416E4,2.5006557E4,2.5897604E4,1.1862236E4,1.314432E4,1.137746E4,1.4520144E4,7.3848804E3,4.477356E3,2.439989E3,1.0704331E4,3.4052952E3,7.9721646E3,1.4199494E4,3.2064993E2],"tree_param":{"num_deleted":"0","num_feature":"50","num_nodes":"15","size_leaf_vector":"1"}},{"base_weights":[1.4598162E-3,7.943642E-1,-1.1317706E0,1.2974113E0,2.6239285E-1,-6.4382064E-1,-1.5363178E0,3.0441206E-2,1.9560203E-2,-6.295388E-3,8.848726E-3,-2.2013556E-2,-8.457181E-3,-3.176304E-2,4.5131277E-3],"categories":[],"categories_nodes":[],"categories_segments":[],"categories_sizes":[],"default_left":[0,0,0,0,0,0,0,0,0,0,0,0,0,0,0],"id":10,"left_children":[1,3,5,7,9,11,13,-1,-1,-1,-1,-1,-1,-1,-1],"loss_changes":[4.5657137E4,7.9991523E3,4.1261367E3,1.0767168E3,1.4876218E3,9.537444E2,8.8191016E2,0E0,0E0,0E0,0E0,0E0,0E0,0E0,0E0],"parents":[2147483647,0,0,1,1,2,2,3,3,4,4,5,5,6,6],"right_children":[2,4,6,8,10,12,14,-1,-1,-1,-1,-1,-1,-1,-1],"split_conditions":[-1.0666667E1,-2.3833334E1,-3.5E0,-3.2833332E1,-7.534278E-1,-7.70623E-1,5E0,3.0441206E-2,1.9560203E-2,-6.295388E-3,8.848726E-3,-2.2013556E-2,-8.457181E-3,-3.176304E-2,4.5131277E-3],"split_indices":[5,5,5,5,47,47,13,0,0,0,0,0,0,0,0],"split_type":[0,0,0,0,0,0,0,0,0,0,0,0,0,0,0],"sum_hessian":[5.080653E4,2.989225E4,2.0914283E4,1.5361639E4,1.453061E4,9.483373E3,1.1430911E4,9.199447E3,6.162192E3,3.4287148E3,1.11018955E4,3.1337627E3,6.3496104E3,1.1154058E4,2.7685345E2],"tree_param":{"num_deleted":"0","num_feature":"50","num_nodes":"15","size_leaf_vector":"1"}},{"base_weights":[-7.1635004E-5,-1.4847817E0,4.0444025E-1,-1.5833284E0,6.3506883E-1,-4.6995366E-1,6.310184E-1,-3.245803E-2,-1.6224464E-2,-7.0285206E-3,2.1777038E-2,-1.7983741E-3,-1.9989753E-2,9.637494E-3,2.8874801E-2],"categories":[],"categories_nodes":[],"categories_segments":[],"categories_sizes":[],"default_left":[0,0,0,0,0,0,0,0,0,0,0,0,0,0,0],"id":11,"left_children":[1,3,5,7,9,11,13,-1,-1,-1,-1,-1,-1,-1,-1],"loss_changes":[3.0472305E4,2.2724297E3,7.9006665E3,2.4854688E2,2.1504242E2,1.637574E3,3.86454E3,0E0,0E0,0E0,0E0,0E0,0E0,0E0,0E0],"parents":[2147483647,0,0,1,1,2,2,3,3,4,4,5,5,6,6],"right_children":[2,4,6,8,10,12,14,-1,-1,-1,-1,-1,-1,-1,-1],"split_conditions":[8.333333E-1,5E0,-7.0552456E-1,1.1296813E0,1E0,-1.1008219E0,4.667E0,-3.245803E-2,-1.6224464E-2,-7.0285206E-3,2.1777038E-2,-1.7983741E-3,-1.9989753E-2,9.637494E-3,2.8874801E-2],"split_indices":[7,13,18,43,3,18,13,0,0,0,0,0,0,0,0],"split_type":[0,0,0,0,0,0,0,0,0,0,0,0,0,0,0],"sum_hessian":[5.0732027E4,1.0860845E4,3.9871184E4,1.0379087E4,4.8175735E2,8.204772E3,3.166641E4,9.97357E3,4.055165E2,1.5090042E2,3.3085693E2,4.7569683E3,3.447804E3,2.6653998E4,5.012413E3],"tree_param":{"num_deleted":"0","num_feature":"50","num_nodes":"15","size_leaf_vector":"1"}},{"base_weights":[3.5875197E-3,7.699156E-1,-1.1131305E0,1.2554513E0,2.356118E-1,-6.53134E-1,-1.488198E0,3.0299833E-2,1.9623403E-2,-7.0531545E-3,8.267771E-3,-2.2042472E-2,-8.857325E-3,-3.0913692E-2,-3.7278677E-4],"categories":[],"categories_nodes":[],"categories_segments":[],"categories_sizes":[],"default_left":[0,0,0,0,0,0,0,0,0,0,0,0,0,0,0],"id":12,"left_children":[1,3,5,7,9,11,13,-1,-1,-1,-1,-1,-1,-1,-1],"loss_changes":[4.3364535E4,7.7950723E3,3.5550605E3,1.102918E3,1.4748137E3,8.718474E2,8.2816406E2,0E0,0E0,0E0,0E0,0E0,0E0,0E0,0E0],"parents":[2147483647,0,0,1,1,2,2,3,3,4,4,5,5,6,6],"right_children":[2,4,6,8,10,12,14,-1,-1,-1,-1,-1,-1,-1,-1],"split_conditions":[-1.05E1,-2.3333334E1,-3.5E0,-3.4666668E1,-7.0552456E-1,-7.0552456E-1,4.667E0,3.0299833E-2,1.9623403E-2,-7.0531545E-3,8.267771E-3,-2.2042472E-2,-8.857325E-3,-3.0913692E-2,-3.7278677E-4],"split_indices":[5,5,5,5,18,18,13,0,0,0,0,0,0,0,0],"split_type":[0,0,0,0,0,0,0,0,0,0,0,0,0,0,0],"sum_hessian":[5.066712E4,3.0048072E4,2.061905E4,1.5740403E4,1.4307668E4,9.264614E3,1.1354437E4,8.270096E3,7.4703076E3,3.297208E3,1.101046E4,2.997914E3,6.2666997E3,1.0983456E4,3.709806E2],"tree_param":{"num_deleted":"0","num_feature":"50","num_nodes":"15","size_leaf_vector":"1"}},{"base_weights":[1.022144E-3,9.115139E-1,-9.0967417E-1,1.366532E0,5.181991E-1,-3.3630815E-1,-1.366438E0,3.0488774E-2,2.2504168E-2,-9.030804E-4,1.3044675E-2,-1.7571477E-2,-2.322405E-3,-3.1532377E-2,-2.1894272E-2],"categories":[],"categories_nodes":[],"categories_segments":[],"categories_sizes":[],"default_left":[0,0,0,0,0,0,0,0,0,0,0,0,0,0,0],"id":13,"left_children":[1,3,5,7,9,11,13,-1,-1,-1,-1,-1,-1,-1,-1],"loss_changes":[4.184426E4,4.514135E3,6.6060664E3,4.2895898E2,9.9675244E2,1.3284202E3,7.821367E2,0E0,0E0,0E0,0E0,0E0,0E0,0E0,0E0],"parents":[2147483647,0,0,1,1,2,2,3,3,4,4,5,5,6,6],"right_children":[2,4,6,8,10,12,14,-1,-1,-1,-1,-1,-1,-1,-1],"split_conditions":[-1.4166667E1,-2.8333334E1,-5.6666665E0,-3.6833332E1,-7.0552456E-1,-7.864087E-1,1E0,3.0488774E-2,2.2504168E-2,-9.030804E-4,1.3044675E-2,-1.7571477E-2,-2.322405E-3,-3.1532377E-2,-2.1894272E-2],"split_indices":[5,5,5,5,18,47,3,0,0,0,0,0,0,0,0],"split_type":[0,0,0,0,0,0,0,0,0,0,0,0,0,0,0],"sum_hessian":[5.0458688E4,2.5232176E4,2.522651E4,1.1695102E4,1.3537074E4,1.1187794E4,1.4038717E4,7.2647524E3,4.430349E3,2.5506772E3,1.0986397E4,3.2536257E3,7.934168E3,8.111508E3,5.927209E3],"tree_param":{"num_deleted":"0","num_feature":"50","num_nodes":"15","size_leaf_vector":"1"}},{"base_weights":[-1.515737E-3,8.723053E-1,-9.2054385E-1,1.3465999E0,4.8161435E-1,-4.431243E-1,-1.4328909E0,3.008504E-2,2.208128E-2,-1.5669025E-3,1.2386338E-2,-1.8776394E-2,-4.515778E-3,-2.9605538E-2,4.283322E-3],"categories":[],"categories_nodes":[],"categories_segments":[],"categories_sizes":[],"default_left":[0,0,0,0,0,0,0,0,0,0,0,0,0,0,0],"id":14,"left_children":[1,3,5,7,9,11,13,-1,-1,-1,-1,-1,-1,-1,-1],"loss_changes":[4.036326E4,4.7723125E3,5.9902285E3,4.2829102E2,1.0641221E3,1.3599517E3,7.759512E2,0E0,0E0,0E0,0E0,0E0,0E0,0E0,0E0],"parents":[2147483647,0,0,1,1,2,2,3,3,4,4,5,5,6,6],"right_children":[2,4,6,8,10,12,14,-1,-1,-1,-1,-1,-1,-1,-1],"split_conditions":[-1.3666667E1,-2.8333334E1,-4E0,-3.6833332E1,-7.0552456E-1,-7.0552456E-1,1.6666667E-1,3.008504E-2,2.208128E-2,-1.5669025E-3,1.2386338E-2,-1.8776394E-2,-4.515778E-3,-2.9605538E-2,4.283322E-3],"split_indices":[5,5,5,5,18,18,14,0,0,0,0,0,0,0,0],"split_type":[0,0,0,0,0,0,0,0,0,0,0,0,0,0,0],"sum_hessian":[5.025559E4,2.5761473E4,2.4494115E4,1.1632535E4,1.4128938E4,1.2682065E4,1.181205E4,7.2409766E3,4.391559E3,2.7390823E3,1.1389855E4,3.902915E3,8.77915E3,1.153311E4,2.7894016E2],"tree_param":{"num_deleted":"0","num_feature":"50","num_nodes":"15","size_leaf_vector":"1"}},{"base_weights":[5.8386225E-4,7.14739E-1,-1.0797389E0,1.1780459E0,1.908796E-1,-6.3388187E-1,-1.430675E0,2.8461494E-2,1.7610792E-2,-7.0313574E-3,7.224543E-3,-2.108031E-2,-8.7336665E-3,-2.9627217E-2,5.1348354E-3],"categories":[],"categories_nodes":[],"categories_segments":[],"categories_sizes":[],"default_left":[0,0,0,0,0,0,0,0,0,0,0,0,0,0,0],"id":15,"left_children":[1,3,5,7,9,11,13,-1,-1,-1,-1,-1,-1,-1,-1],"loss_changes":[3.8670516E4,7.323078E3,3.1184766E3,1.1462051E3,1.290939E3,7.2578955E2,8.1298047E2,0E0,0E0,0E0,0E0,0E0,0E0,0E0,0E0],"parents":[2147483647,0,0,1,1,2,2,3,3,4,4,5,5,6,6],"right_children":[2,4,6,8,10,12,14,-1,-1,-1,-1,-1,-1,-1,-1],"split_conditions":[-1.0166667E1,-2.2666666E1,-3.5E0,-3.2833332E1,-7.0552456E-1,-7.0552456E-1,5E0,2.8461494E-2,1.7610792E-2,-7.0313574E-3,7.224543E-3,-2.108031E-2,-8.7336665E-3,-2.9627217E-2,5.1348354E-3],"split_indices":[5,5,5,5,18,18,13,0,0,0,0,0,0,0,0],"split_type":[0,0,0,0,0,0,0,0,0,0,0,0,0,0,0],"sum_hessian":[5.0116773E4,3.0172209E4,1.9944566E4,1.6009543E4,1.4162665E4,8.787916E3,1.1156649E4,8.950801E3,7.0587427E3,3.364523E3,1.0798143E4,2.8492864E3,5.93863E3,1.0878633E4,2.7801706E2],"tree_param":{"num_deleted":"0","num_feature":"50","num_nodes":"15","size_leaf_vector":"1"}},{"base_weights":[-5.917399E-4,8.801444E-1,-8.544851E-1,1.3020712E0,4.9342996E-1,-3.9914307E-1,-1.3896931E0,2.9320821E-2,2.1254435E-2,-5.973961E-4,1.2365834E-2,-1.7877402E-2,-3.7264363E-3,-2.888547E-2,5.45714E-4],"categories":[],"categories_nodes":[],"categories_segments":[],"categories_sizes":[],"default_left":[0,0,0,0,0,0,0,0,0,0,0,0,0,0,0],"id":16,"left_children":[1,3,5,7,9,11,13,-1,-1,-1,-1,-1,-1,-1,-1],"loss_changes":[3.7559145E4,4.0094707E3,6.178051E3,4.4579297E2,8.171516E2,1.4356062E3,7.8007227E2,0E0,0E0,0E0,0E0,0E0,0E0,0E0,0E0],"parents":[2147483647,0,0,1,1,2,2,3,3,4,4,5,5,6,6],"right_children":[2,4,6,8,10,12,14,-1,-1,-1,-1,-1,-1,-1,-1],"split_conditions":[-1.45E1,-2.8E1,-4E0,-3.6833332E1,-7.0552456E-1,-7.0552456E-1,4.667E0,2.9320821E-2,2.1254435E-2,-5.973961E-4,1.2365834E-2,-1.7877402E-2,-3.7264363E-3,-2.888547E-2,5.45714E-4],"split_indices":[5,5,5,5,18,18,13,0,0,0,0,0,0,0,0],"split_type":[0,0,0,0,0,0,0,0,0,0,0,0,0,0,0],"sum_hessian":[4.9936176E4,2.4581672E4,2.5354506E4,1.1752317E4,1.28293545E4,1.3702155E4,1.1652351E4,7.1596006E3,4.5927163E3,2.4219092E3,1.0407445E4,4.1581543E3,9.544001E3,1.1276404E4,3.7594604E2],"tree_param":{"num_deleted":"0","num_feature":"50","num_nodes":"15","size_leaf_vector":"1"}},{"base_weights":[9.4954006E-4,8.5246533E-1,-8.5573596E-1,1.283089E0,4.733058E-1,-3.5480523E-1,-1.3225276E0,2.8901024E-2,2.0969816E-2,-7.2651496E-4,1.1930414E-2,-1.7039353E-2,-2.8067187E-3,-2.7484842E-2,-1.6114956E-3],"categories":[],"categories_nodes":[],"categories_segments":[],"categories_sizes":[],"default_left":[0,0,0,0,0,0,0,0,0,0,0,0,0,0,0],"id":17,"left_children":[1,3,5,7,9,11,13,-1,-1,-1,-1,-1,-1,-1,-1],"loss_changes":[3.634163E4,4.077588E3,5.8055293E3,4.2950586E2,8.1379614E2,1.270417E3,7.1384766E2,0E0,0E0,0E0,0E0,0E0,0E0,0E0,0E0],"parents":[2147483647,0,0,1,1,2,2,3,3,4,4,5,5,6,6],"right_children":[2,4,6,8,10,12,14,-1,-1,-1,-1,-1,-1,-1,-1],"split_conditions":[-1.4166667E1,-2.8E1,-5E0,-3.6833332E1,-7.0552456E-1,-7.70623E-1,5.254604E-1,2.8901024E-2,2.0969816E-2,-7.2651496E-4,1.1930414E-2,-1.7039353E-2,-2.8067187E-3,-2.7484842E-2,-1.6114956E-3],"split_indices":[5,5,5,5,18,47,42,0,0,0,0,0,0,0,0],"split_type":[0,0,0,0,0,0,0,0,0,0,0,0,0,0,0],"sum_hessian":[4.98126E4,2.4981684E4,2.4830918E4,1.1693744E4,1.3287939E4,1.1979956E4,1.2850962E4,7.102444E3,4.591301E3,2.5367166E3,1.0751223E4,3.6384155E3,8.34154E3,1.2404153E4,4.4680878E2],"tree_param":{"num_deleted":"0","num_feature":"50","num_nodes":"15","size_leaf_vector":"1"}},{"base_weights":[-2.8202657E-3,6.712572E-1,-1.0461226E0,1.1454172E0,1.8621036E-1,-6.278723E-1,-1.3872854E0,2.789266E-2,1.775897E-2,-6.4899805E-3,6.87582E-3,-2.0713074E-2,-8.784821E-3,-2.8861322E-2,3.0052845E-4],"categories":[],"categories_nodes":[],"categories_segments":[],"categories_sizes":[],"default_left":[0,0,0,0,0,0,0,0,0,0,0,0,0,0,0],"id":18,"left_children":[1,3,5,7,9,11,13,-1,-1,-1,-1,-1,-1,-1,-1],"loss_changes":[3.4826543E4,6.918371E3,2.7709727E3,9.6134766E2,1.1802931E3,6.699414E2,7.2699805E2,0E0,0E0,0E0,0E0,0E0,0E0,0E0,0E0],"parents":[2147483647,0,0,1,1,2,2,3,3,4,4,5,5,6,6],"right_children":[2,4,6,8,10,12,14,-1,-1,-1,-1,-1,-1,-1,-1],"split_conditions":[-1E1,-2.3333334E1,-3.3333333E0,-3.4666668E1,-7.0552456E-1,-7.0552456E-1,4.667E0,2.789266E-2,1.775897E-2,-6.4899805E-3,6.87582E-3,-2.0713074E-2,-8.784821E-3,-2.8861322E-2,3.0052845E-4],"split_indices":[5,5,5,5,18,18,13,0,0,0,0,0,0,0,0],"split_type":[0,0,0,0,0,0,0,0,0,0,0,0,0,0,0],"sum_hessian":[4.951526E4,3.0080984E4,1.9434275E4,1.5209185E4,1.4871799E4,8.734494E3,1.0699782E4,7.897771E3,7.311413E3,3.4847925E3,1.1387007E4,2.8054026E3,5.929092E3,1.0342451E4,3.573301E2],"tree_param":{"num_deleted":"0","num_feature":"50","num_nodes":"15","size_leaf_vector":"1"}},{"base_weights":[-8.848686E-5,6.88941E-1,-9.9167997E-1,1.1290311E0,2.1112385E-1,-5.732072E-1,-1.3688877E0,2.8152313E-2,1.8027242E-2,-6.0580815E-3,7.3077013E-3,-1.9652095E-2,-7.6929578E-3,-2.8362768E-2,4.79105E-3],"categories":[],"categories_nodes":[],"categories_segments":[],"categories_sizes":[],"default_left":[0,0,0,0,0,0,0,0,0,0,0,0,0,0,0],"id":19,"left_children":[1,3,5,7,9,11,13,-1,-1,-1,-1,-1,-1,-1,-1],"loss_changes":[3.375937E4,6.1297207E3,3.195418E3,9.529492E2,1.0922998E3,7.3919604E2,7.20625E2,0E0,0E0,0E0,0E0,0E0,0E0,0E0,0E0],"parents":[2147483647,0,0,1,1,2,2,3,3,4,4,5,5,6,6],"right_children":[2,4,6,8,10,12,14,-1,-1,-1,-1,-1,-1,-1,-1],"split_conditions":[-1.0666667E1,-2.3333334E1,-3.3333333E0,-3.6833332E1,-7.0552456E-1,-7.0552456E-1,1.6666667E-1,2.8152313E-2,1.8027242E-2,-6.0580815E-3,7.3077013E-3,-1.9652095E-2,-7.6929578E-3,-2.8362768E-2,4.79105E-3],"split_indices":[5,5,5,5,18,18,14,0,0,0,0,0,0,0,0],"split_type":[0,0,0,0,0,0,0,0,0,0,0,0,0,0,0],"sum_hessian":[4.9405156E4,2.9150307E4,2.025485E4,1.5172135E4,1.3978173E4,9.605698E3,1.064915E4,6.98938E3,8.1827544E3,3.2033406E3,1.0774832E4,3.0722778E3,6.5334204E3,1.0378085E4,2.7106552E2],"tree_param":{"num_deleted":"0","num_feature":"50","num_nodes":"15","size_leaf_vector":"1"}},{"base_weights":[4.0084173E-4,8.6815524E-1,-7.640729E-1,1.2515384E0,5.2076566E-1,-2.5911543E-1,-1.2425326E0,2.8341508E-2,2.1272363E-2,9.015849E-4,1.2589343E-2,-1.5387323E-2,-1.1962497E-3,-2.575829E-2,6.7788344E-3],"categories":[],"categories_nodes":[],"categories_segments":[],"categories_sizes":[],"default_left":[0,0,0,0,0,0,0,0,0,0,0,0,0,0,0],"id":20,"left_children":[1,3,5,7,9,11,13,-1,-1,-1,-1,-1,-1,-1,-1],"loss_changes":[3.2728004E4,3.075545E3,6.3359473E3,3.3179492E2,6.088208E2,1.2899701E3,8.273125E2,0E0,0E0,0E0,0E0,0E0,0E0,0E0,0E0],"parents":[2147483647,0,0,1,1,2,2,3,3,4,4,5,5,6,6],"right_children":[2,4,6,8,10,12,14,-1,-1,-1,-1,-1,-1,-1,-1],"split_conditions":[-1.55E1,-2.8833334E1,-5.6666665E0,-3.9333332E1,-7.0552456E-1,-7.864087E-1,5E0,2.8341508E-2,2.1272363E-2,9.015849E-4,1.2589343E-2,-1.5387323E-2,-1.1962497E-3,-2.575829E-2,6.7788344E-3],"split_indices":[5,5,5,5,18,47,13,0,0,0,0,0,0,0,0],"split_type":[0,0,0,0,0,0,0,0,0,0,0,0,0,0,0],"sum_hessian":[4.932971E4,2.3103979E4,2.6225732E4,1.0979385E4,1.2124594E4,1.2761742E4,1.3463991E4,6.0260474E3,4.953338E3,2.2007812E3,9.9238125E3,3.6060708E3,9.155671E3,1.3141541E4,3.224498E2],"tree_param":{"num_deleted":"0","num_feature":"50","num_nodes":"15","size_leaf_vector":"1"}},{"base_weights":[-1.3162512E-3,-1.3171831E0,3.4156388E-1,-1.4267726E0,3.754473E-1,-4.012835E-1,5.349609E-1,-2.9430931E-2,-2.0940697E-2,-5.939442E-3,2.0099372E-2,1.38591395E-5,-1.8559562E-2,8.044991E-3,2.5509482E-2],"categories":[],"categories_nodes":[],"categories_segments":[],"categories_sizes":[],"default_left":[0,0,0,0,0,0,0,0,0,0,0,0,0,0,0],"id":21,"left_children":[1,3,5,7,9,11,13,-1,-1,-1,-1,-1,-1,-1,-1],"loss_changes":[2.2149805E4,1.883957E3,5.5955884E3,1.3238281E2,2.6034137E2,1.6882753E3,3.055128E3,0E0,0E0,0E0,0E0,0E0,0E0,0E0,0E0],"parents":[2147483647,0,0,1,1,2,2,3,3,4,4,5,5,6,6],"right_children":[2,4,6,8,10,12,14,-1,-1,-1,-1,-1,-1,-1,-1],"split_conditions":[8.333333E-1,4.667E0,-7.0552456E-1,1.3470377E0,5.6965894E-1,-1.117371E0,4.667E0,-2.9430931E-2,-2.0940697E-2,-5.939442E-3,2.0099372E-2,1.38591395E-5,-1.8559562E-2,8.044991E-3,2.5509482E-2],"split_indices":[7,13,18,34,42,18,13,0,0,0,0,0,0,0,0],"split_type":[0,0,0,0,0,0,0,0,0,0,0,0,0,0,0],"sum_hessian":[4.9086707E4,1.014501E4,3.89417E4,9.528544E3,6.164666E2,8.0434136E3,3.0898285E4,8.679869E3,8.4867487E2,2.9791125E2,3.1855533E2,4.5456865E3,3.497727E3,2.6109414E4,4.78887E3],"tree_param":{"num_deleted":"0","num_feature":"50","num_nodes":"15","size_leaf_vector":"1"}},{"base_weights":[2.1548683E-3,6.294688E-1,-1.0011218E0,1.0982494E0,1.8180288E-1,-6.0912246E-1,-1.3335807E0,2.6750412E-2,1.6899254E-2,9.322432E-3,-5.178619E-4,-1.814144E-2,-8.95322E-3,-2.7832676E-2,1.8417498E-4],"categories":[],"categories_nodes":[],"categories_segments":[],"categories_sizes":[],"default_left":[0,0,0,0,0,0,0,0,0,0,0,0,0,0,0],"id":22,"left_children":[1,3,5,7,9,11,13,-1,-1,-1,-1,-1,-1,-1,-1],"loss_changes":[3.0850252E4,6.328669E3,2.455252E3,8.7886914E2,9.0308075E2,4.147373E2,6.982383E2,0E0,0E0,0E0,0E0,0E0,0E0,0E0,0E0],"parents":[2147483647,0,0,1,1,2,2,3,3,4,4,5,5,6,6],"right_children":[2,4,6,8,10,12,14,-1,-1,-1,-1,-1,-1,-1,-1],"split_conditions":[-9.833333E0,-2.3666666E1,-3.1666667E0,-3.4666668E1,-1.7E1,-1.11323886E-1,5.254604E-1,2.6750412E-2,1.6899254E-2,9.322432E-3,-5.178619E-4,-1.814144E-2,-8.95322E-3,-2.7832676E-2,1.8417498E-4],"split_indices":[5,5,5,5,5,15,42,0,0,0,0,0,0,0,0],"split_type":[0,0,0,0,0,0,0,0,0,0,0,0,0,0,0],"sum_hessian":[4.901187E4,3.01569E4,1.8854969E4,1.4728968E4,1.5427933E4,8.656483E3,1.0198485E4,7.735596E3,6.993372E3,6.5402754E3,8.887657E3,3.0963198E3,5.560164E3,9.825414E3,3.730713E2],"tree_param":{"num_deleted":"0","num_feature":"50","num_nodes":"15","size_leaf_vector":"1"}},{"base_weights":[1.3671682E-3,-1.2823583E0,3.3142492E-1,-1.3794355E0,6.103051E-1,-3.6330926E-1,5.117419E-1,-2.8375441E-2,-1.23743145E-2,2.5118541E-2,1.8252275E-3,1.1158294E-2,-1.05192885E-2,7.639445E-3,2.5080478E-2],"categories":[],"categories_nodes":[],"categories_segments":[],"categories_sizes":[],"default_left":[0,0,0,0,0,0,0,0,0,0,0,0,0,0,0],"id":23,"left_children":[1,3,5,7,9,11,13,-1,-1,-1,-1,-1,-1,-1,-1],"loss_changes":[2.0694451E4,1.8378516E3,4.867685E3,2.305957E2,1.6218988E2,1.1773768E3,2.9886045E3,0E0,0E0,0E0,0E0,0E0,0E0,0E0,0E0],"parents":[2147483647,0,0,1,1,2,2,3,3,4,4,5,5,6,6],"right_children":[2,4,6,8,10,12,14,-1,-1,-1,-1,-1,-1,-1,-1],"split_conditions":[8.333333E-1,5E0,-7.864087E-1,1.1296813E0,-2.2617614E0,-8.10216E0,4.667E0,-2.8375441E-2,-1.23743145E-2,2.5118541E-2,1.8252275E-3,1.1158294E-2,-1.05192885E-2,7.639445E-3,2.5080478E-2],"split_indices":[7,13,47,43,1,46,13,0,0,0,0,0,0,0,0],"split_type":[0,0,0,0,0,0,0,0,0,0,0,0,0,0,0],"sum_hessian":[4.8835953E4,9.986408E3,3.8849543E4,9.4999375E3,4.8647098E2,8.0048994E3,3.0844645E4,9.114245E3,3.8569232E2,2.1625964E2,2.7021133E2,1.1864802E3,6.818419E3,2.6165854E4,4.678791E3],"tree_param":{"num_deleted":"0","num_feature":"50","num_nodes":"15","size_leaf_vector":"1"}},{"base_weights":[2.2269483E-3,8.2513016E-1,-7.268581E-1,1.2390796E0,5.2076715E-1,-2.4455136E-1,-1.1793487E0,2.7217926E-2,2.0835884E-2,1.3544915E-2,4.9517434E-3,-1.433101E-2,-1.2302895E-3,-2.8026387E-2,-1.8155908E-2],"categories":[],"categories_nodes":[],"categories_segments":[],"categories_sizes":[],"default_left":[0,0,0,0,0,0,0,0,0,0,0,0,0,0,0],"id":24,"left_children":[1,3,5,7,9,11,13,-1,-1,-1,-1,-1,-1,-1,-1],"loss_changes":[2.9214006E4,2.8801035E3,5.6336836E3,2.2143945E2,5.533545E2,1.0733649E3,7.8663086E2,0E0,0E0,0E0,0E0,0E0,0E0,0E0,0E0],"parents":[2147483647,0,0,1,1,2,2,3,3,4,4,5,5,6,6],"right_children":[2,4,6,8,10,12,14,-1,-1,-1,-1,-1,-1,-1,-1],"split_conditions":[-1.55E1,-3.0666666E1,-5.8333335E0,-3.85E1,-1.9833334E1,-7.864087E-1,1E0,2.7217926E-2,2.0835884E-2,1.3544915E-2,4.9517434E-3,-1.433101E-2,-1.2302895E-3,-2.8026387E-2,-1.8155908E-2],"split_indices":[5,5,5,5,5,47,3,0,0,0,0,0,0,0,0],"split_type":[0,0,0,0,0,0,0,0,0,0,0,0,0,0,0],"sum_hessian":[4.8686883E4,2.2871691E4,2.5815193E4,9.687374E3,1.3184317E4,1.2498082E4,1.331711E4,6.17101E3,3.516364E3,8.46168E3,4.722638E3,3.5138284E3,8.984254E3,7.483616E3,5.833494E3],"tree_param":{"num_deleted":"0","num_feature":"50","num_nodes":"15","size_leaf_vector":"1"}},{"base_weights":[1.0143381E-3,6.024454E-1,-9.665964E-1,1.0340016E0,1.4684568E-1,-6.2616324E-1,-1.3243638E0,2.570374E-2,1.560372E-2,-6.342269E-3,5.8624423E-3,-1.9563083E-2,-9.268184E-3,-2.7663758E-2,-4.4419366E-4],"categories":[],"categories_nodes":[],"categories_segments":[],"categories_sizes":[],"default_left":[0,0,0,0,0,0,0,0,0,0,0,0,0,0,0],"id":25,"left_children":[1,3,5,7,9,11,13,-1,-1,-1,-1,-1,-1,-1,-1],"loss_changes":[2.8186637E4,5.872333E3,2.2587832E3,9.6445703E2,9.7313293E2,5.4407666E2,6.10208E2,0E0,0E0,0E0,0E0,0E0,0E0,0E0,0E0],"parents":[2147483647,0,0,1,1,2,2,3,3,4,4,5,5,6,6],"right_children":[2,4,6,8,10,12,14,-1,-1,-1,-1,-1,-1,-1,-1],"split_conditions":[-9.833333E0,-2.2666666E1,-2.3333333E0,-3.4E1,-7.0552456E-1,-7.0552456E-1,5.254604E-1,2.570374E-2,1.560372E-2,-6.342269E-3,5.8624423E-3,-1.9563083E-2,-9.268184E-3,-2.7663758E-2,-4.4419366E-4],"split_indices":[5,5,5,5,18,18,42,0,0,0,0,0,0,0,0],"split_type":[0,0,0,0,0,0,0,0,0,0,0,0,0,0,0],"sum_hessian":[4.8428855E4,2.986622E4,1.8562635E4,1.5335916E4,1.4530304E4,9.51587E3,9.046765E3,7.862552E3,7.4733647E3,3.464278E3,1.1066025E4,3.0633503E3,6.4525195E3,8.700612E3,3.4615186E2],"tree_param":{"num_deleted":"0","num_feature":"50","num_nodes":"15","size_leaf_vector":"1"}},{"base_weights":[-1.774869E-3,7.26827E-1,-7.754032E-1,1.169641E0,4.0006843E-1,-3.7674308E-1,-1.2391379E0,1.3718506E-2,2.4839936E-2,1.1889513E-2,2.6556898E-3,-1.6058493E-2,-3.8339049E-3,-2.5886144E-2,3.9522364E-4],"categories":[],"categories_nodes":[],"categories_segments":[],"categories_sizes":[],"default_left":[0,0,0,0,0,0,0,0,0,0,0,0,0,0,0],"id":26,"left_children":[1,3,5,7,9,11,13,-1,-1,-1,-1,-1,-1,-1,-1],"loss_changes":[2.7123012E4,3.584211E3,4.31324E3,3.3599805E2,7.3122925E2,9.8528015E2,6.597871E2,0E0,0E0,0E0,0E0,0E0,0E0,0E0,0E0],"parents":[2147483647,0,0,1,1,2,2,3,3,4,4,5,5,6,6],"right_children":[2,4,6,8,10,12,14,-1,-1,-1,-1,-1,-1,-1,-1],"split_conditions":[-1.3666667E1,-2.8833334E1,-4E0,-3.272992E-1,-1.8833334E1,-7.70623E-1,5.254604E-1,1.3718506E-2,2.4839936E-2,1.1889513E-2,2.6556898E-3,-1.6058493E-2,-3.8339049E-3,-2.5886144E-2,3.9522364E-4],"split_indices":[5,5,5,27,5,47,42,0,0,0,0,0,0,0,0],"split_type":[0,0,0,0,0,0,0,0,0,0,0,0,0,0,0],"sum_hessian":[4.8113E4,2.4777639E4,2.3335361E4,1.0517317E4,1.4260322E4,1.2550952E4,1.0784409E4,1.2593229E3,9.257994E3,8.316778E3,5.943544E3,3.8363792E3,8.714573E3,1.0383589E4,4.0082004E2],"tree_param":{"num_deleted":"0","num_feature":"50","num_nodes":"15","size_leaf_vector":"1"}},{"base_weights":[-2.6835306E-3,7.859143E-1,-6.974463E-1,1.1966923E0,4.9040967E-1,-2.3573455E-1,-1.1384904E0,2.6396265E-2,1.9992081E-2,1.2765233E-3,1.1704311E-2,-1.3373783E-2,-1.2306772E-3,-2.3777718E-2,3.5789874E-3],"categories":[],"categories_nodes":[],"categories_segments":[],"categories_sizes":[],"default_left":[0,0,0,0,0,0,0,0,0,0,0,0,0,0,0],"id":27,"left_children":[1,3,5,7,9,11,13,-1,-1,-1,-1,-1,-1,-1,-1],"loss_changes":[2.6272295E4,2.724543E3,5.190414E3,2.1727539E2,5.121614E2,9.3378125E2,7.6176953E2,0E0,0E0,0E0,0E0,0E0,0E0,0E0,0E0],"parents":[2147483647,0,0,1,1,2,2,3,3,4,4,5,5,6,6],"right_children":[2,4,6,8,10,12,14,-1,-1,-1,-1,-1,-1,-1,-1],"split_conditions":[-1.55E1,-3.0666666E1,-5.8333335E0,-3.85E1,-7.0552456E-1,-7.0552456E-1,4.667E0,2.6396265E-2,1.9992081E-2,1.2765233E-3,1.1704311E-2,-1.3373783E-2,-1.2306772E-3,-2.3777718E-2,3.5789874E-3],"split_indices":[5,5,5,5,18,18,13,0,0,0,0,0,0,0,0],"split_type":[0,0,0,0,0,0,0,0,0,0,0,0,0,0,0],"sum_hessian":[4.7946055E4,2.2456352E4,2.5489705E4,9.391874E3,1.3064478E4,1.2455269E4,1.3034436E4,5.9499966E3,3.441877E3,2.3135815E3,1.07508955E4,3.5959326E3,8.859336E3,1.260998E4,4.244554E2],"tree_param":{"num_deleted":"0","num_feature":"50","num_nodes":"15","size_leaf_vector":"1"}},{"base_weights":[-6.494851E-4,5.712887E-1,-9.273589E-1,1.019625E0,1.6397557E-1,-5.7607794E-1,-1.2639148E0,2.5759846E-2,1.5964193E-2,8.4076235E-3,-5.358257E-4,3.0802255E-2,-1.1959808E-2,-2.6479797E-2,8.015831E-4],"categories":[],"categories_nodes":[],"categories_segments":[],"categories_sizes":[],"default_left":[0,0,0,0,0,0,0,0,0,0,0,0,0,0,0],"id":28,"left_children":[1,3,5,7,9,11,13,-1,-1,-1,-1,-1,-1,-1,-1],"loss_changes":[2.5319152E4,5.3937812E3,2.1532168E3,8.2708203E2,7.5042413E2,3.577627E2,6.474512E2,0E0,0E0,0E0,0E0,0E0,0E0,0E0,0E0],"parents":[2147483647,0,0,1,1,2,2,3,3,4,4,5,5,6,6],"right_children":[2,4,6,8,10,12,14,-1,-1,-1,-1,-1,-1,-1,-1],"split_conditions":[-9.833333E0,-2.3833334E1,-2.8333333E0,-3.6833332E1,-1.7E1,-2.2005663E0,5.254604E-1,2.5759846E-2,1.5964193E-2,8.4076235E-3,-5.358257E-4,3.0802255E-2,-1.1959808E-2,-2.6479797E-2,8.015831E-4],"split_indices":[5,5,5,5,5,20,42,0,0,0,0,0,0,0,0],"split_type":[0,0,0,0,0,0,0,0,0,0,0,0,0,0,0],"sum_hessian":[4.7764277E4,2.9536395E4,1.8227883E4,1.4058057E4,1.5478338E4,8.922714E3,9.305168E3,6.4985464E3,7.5595103E3,6.630698E3,8.84764E3,7.706624E1,8.845648E3,8.939428E3,3.6574063E2],"tree_param":{"num_deleted":"0","num_feature":"50","num_nodes":"15","size_leaf_vector":"1"}},{"base_weights":[-1.2094139E-3,-1.1772764E0,2.389626E-1,-1.312742E0,1.934182E-1,-4.288162E-1,4.1612425E-1,-2.663966E-2,7.8047854E-3,6.818816E-3,-2.0383345E-2,-1.1523248E-3,-1.863865E-2,6.142651E-3,2.6015034E-2],"categories":[],"categories_nodes":[],"categories_segments":[],"categories_sizes":[],"default_left":[0,0,0,0,0,0,0,0,0,0,0,0,0,0,0],"id":29,"left_children":[1,3,5,7,9,11,13,-1,-1,-1,-1,-1,-1,-1,-1],"loss_changes":[1.3425927E4,1.4974814E3,4.670209E3,1.5703027E2,1.2907188E2,1.5323811E3,3.027067E3,0E0,0E0,0E0,0E0,0E0,0E0,0E0,0E0],"parents":[2147483647,0,0,1,1,2,2,3,3,4,4,5,5,6,6],"right_children":[2,4,6,8,10,12,14,-1,-1,-1,-1,-1,-1,-1,-1],"split_conditions":[1E0,1.745431E0,-7.0552456E-1,1.741992E0,7.6953E-1,-1.117371E0,1.6666667E-1,-2.663966E-2,7.8047854E-3,6.818816E-3,-2.0383345E-2,-1.1523248E-3,-1.863865E-2,6.142651E-3,2.6015034E-2],"split_indices":[3,0,18,43,18,18,14,0,0,0,0,0,0,0,0],"split_type":[0,0,0,0,0,0,0,0,0,0,0,0,0,0,0],"sum_hessian":[4.752656E4,8.057826E3,3.9468734E4,7.3332095E3,7.2461664E2,8.274677E3,3.1194057E4,7.280512E3,5.269721E1,6.484271E2,7.618951E1,4.742691E3,3.531986E3,2.7709018E4,3.4850398E3],"tree_param":{"num_deleted":"0","num_feature":"50","num_nodes":"15","size_leaf_vector":"1"}},{"base_weights":[-1.6035596E-3,5.592519E-1,-9.109499E-1,9.910573E-1,1.4431478E-1,-5.8564484E-1,-1.265129E0,2.5345681E-2,1.5526932E-2,-5.667874E-3,5.5694473E-3,-1.8692996E-2,-8.513597E-3,-2.6497947E-2,8.1794633E-4],"categories":[],"categories_nodes":[],"categories_segments":[],"categories_sizes":[],"default_left":[0,0,0,0,0,0,0,0,0,0,0,0,0,0,0],"id":30,"left_children":[1,3,5,7,9,11,13,-1,-1,-1,-1,-1,-1,-1,-1],"loss_changes":[2.4194328E4,5.2568E3,2.0829023E3,8.453135E2,8.470787E2,5.2564087E2,5.999053E2,0E0,0E0,0E0,0E0,0E0,0E0,0E0,0E0],"parents":[2147483647,0,0,1,1,2,2,3,3,4,4,5,5,6,6],"right_children":[2,4,6,8,10,12,14,-1,-1,-1,-1,-1,-1,-1,-1],"split_conditions":[-9.833333E0,-2.3333334E1,-2.3333333E0,-3.6833332E1,-7.0552456E-1,-7.0552456E-1,4.667E0,2.5345681E-2,1.5526932E-2,-5.667874E-3,5.5694473E-3,-1.8692996E-2,-8.513597E-3,-2.6497947E-2,8.1794633E-4],"split_indices":[5,5,5,5,18,18,13,0,0,0,0,0,0,0,0],"split_type":[0,0,0,0,0,0,0,0,0,0,0,0,0,0,0],"sum_hessian":[4.7432902E4,2.93388E4,1.80941E4,1.4375175E4,1.4963627E4,9.435546E3,8.658554E3,6.429134E3,7.9460415E3,3.5524478E3,1.1411179E4,3.0166042E3,6.4189414E3,8.320643E3,3.3791168E2],"tree_param":{"num_deleted":"0","num_feature":"50","num_nodes":"15","size_leaf_vector":"1"}},{"base_weights":[-9.6001674E-4,-1.1893986E0,2.911631E-1,-1.2856086E0,6.0739595E-1,-3.4953332E-1,4.594272E-1,-2.6928611E-2,-1.5842743E-2,2.2007007E-2,-1.9732462E-3,7.1863213E-4,-1.7858272E-2,6.8318294E-3,2.3026217E-2],"categories":[],"categories_nodes":[],"categories_segments":[],"categories_sizes":[],"default_left":[0,0,0,0,0,0,0,0,0,0,0,0,0,0,0],"id":31,"left_children":[1,3,5,7,9,11,13,-1,-1,-1,-1,-1,-1,-1,-1],"loss_changes":[1.638213E4,1.6117666E3,4.0838696E3,2.3421777E2,1.6370764E2,1.636042E3,2.4597827E3,0E0,0E0,0E0,0E0,0E0,0E0,0E0,0E0],"parents":[2147483647,0,0,1,1,2,2,3,3,4,4,5,5,6,6],"right_children":[2,4,6,8,10,12,14,-1,-1,-1,-1,-1,-1,-1,-1],"split_conditions":[8.333333E-1,5E0,-7.0552456E-1,1.3470377E0,-1.996065E0,-1.1008219E0,4.667E0,-2.6928611E-2,-1.5842743E-2,2.2007007E-2,-1.9732462E-3,7.1863213E-4,-1.7858272E-2,6.8318294E-3,2.3026217E-2],"split_indices":[7,13,18,34,41,18,13,0,0,0,0,0,0,0,0],"split_type":[0,0,0,0,0,0,0,0,0,0,0,0,0,0,0],"sum_hessian":[4.7181734E4,9.307445E3,3.7874285E4,8.835195E3,4.7225067E2,7.877211E3,2.9997076E4,7.9660605E3,8.691344E2,2.7836118E2,1.938895E2,4.5946504E3,3.2825603E3,2.5548379E4,4.4486978E3],"tree_param":{"num_deleted":"0","num_feature":"50","num_nodes":"15","size_leaf_vector":"1"}},{"base_weights":[1.1953308E-3,7.4141604E-1,-6.551638E-1,1.1403062E0,4.6201664E-1,-2.2098184E-1,-1.0847243E0,1.3688319E-2,2.4164725E-2,7.5841295E-3,1.8276475E-2,-1.2887471E-2,-1.1721172E-3,-2.2687303E-2,3.3443111E-3],"categories":[],"categories_nodes":[],"categories_segments":[],"categories_sizes":[],"default_left":[0,0,0,0,0,0,0,0,0,0,0,0,0,0,0],"id":32,"left_children":[1,3,5,7,9,11,13,-1,-1,-1,-1,-1,-1,-1,-1],"loss_changes":[2.2889047E4,2.466085E3,4.656409E3,2.5639062E2,4.9256763E2,8.4882367E2,6.8939844E2,0E0,0E0,0E0,0E0,0E0,0E0,0E0,0E0],"parents":[2147483647,0,0,1,1,2,2,3,3,4,4,5,5,6,6],"right_children":[2,4,6,8,10,12,14,-1,-1,-1,-1,-1,-1,-1,-1],"split_conditions":[-1.55E1,-3.0666666E1,-5.8333335E0,-3.272992E-1,1.2582684E0,-7.864087E-1,4.667E0,1.3688319E-2,2.4164725E-2,7.5841295E-3,1.8276475E-2,-1.2887471E-2,-1.1721172E-3,-2.2687303E-2,3.3443111E-3],"split_indices":[5,5,5,27,18,47,13,0,0,0,0,0,0,0,0],"split_type":[0,0,0,0,0,0,0,0,0,0,0,0,0,0,0],"sum_hessian":[4.7105418E4,2.2138242E4,2.4967176E4,9.115416E3,1.3022827E4,1.2418998E4,1.2548179E4,1.0847834E3,8.0306323E3,1.0952617E4,2.0702104E3,3.4641301E3,8.954868E3,1.2123367E4,4.2481097E2],"tree_param":{"num_deleted":"0","num_feature":"50","num_nodes":"15","size_leaf_vector":"1"}},{"base_weights":[-2.3647298E-3,7.2490776E-1,-6.4511836E-1,1.1290123E0,4.4441164E-1,-2.8765616E-1,-1.1612067E0,2.5107067E-2,1.8506119E-2,1.6309256E-2,6.886079E-3,-1.4021501E-2,-2.335107E-3,-2.443896E-2,-1.4418259E-3],"categories":[],"categories_nodes":[],"categories_segments":[],"categories_sizes":[],"default_left":[0,0,0,0,0,0,0,0,0,0,0,0,0,0,0],"id":33,"left_children":[1,3,5,7,9,11,13,-1,-1,-1,-1,-1,-1,-1,-1],"loss_changes":[2.187227E4,2.486751E3,4.5812256E3,2.2143945E2,4.836245E2,1.0314525E3,6.034492E2,0E0,0E0,0E0,0E0,0E0,0E0,0E0,0E0],"parents":[2147483647,0,0,1,1,2,2,3,3,4,4,5,5,6,6],"right_children":[2,4,6,8,10,12,14,-1,-1,-1,-1,-1,-1,-1,-1],"split_conditions":[-1.55E1,-3.0666666E1,-4E0,-3.85E1,2E0,-7.70623E-1,4.333E0,2.5107067E-2,1.8506119E-2,1.6309256E-2,6.886079E-3,-1.4021501E-2,-2.335107E-3,-2.443896E-2,-1.4418259E-3],"split_indices":[5,5,5,5,13,47,13,0,0,0,0,0,0,0,0],"split_type":[0,0,0,0,0,0,0,0,0,0,0,0,0,0,0],"sum_hessian":[4.678405E4,2.1948762E4,2.4835287E4,8.989267E3,1.2959496E4,1.467523E4,1.0160058E4,5.696205E3,3.2930615E3,2.8116096E3,1.0147887E4,4.3264873E3,1.0348743E4,9.675506E3,4.8455228E2],"tree_param":{"num_deleted":"0","num_feature":"50","num_nodes":"15","size_leaf_vector":"1"}},{"base_weights":[2.2029313E-3,5.022316E-1,-9.141415E-1,9.335654E-1,9.6244685E-2,-6.065175E-1,-1.2175528E0,2.3898259E-2,1.39123555E-2,-6.5233908E-3,4.749069E-3,-1.7604686E-2,-8.225585E-3,3.8933456E-3,-2.5567517E-2],"categories":[],"categories_nodes":[],"categories_segments":[],"categories_sizes":[],"default_left":[0,0,0,0,0,0,0,0,0,0,0,0,0,0,0],"id":34,"left_children":[1,3,5,7,9,11,13,-1,-1,-1,-1,-1,-1,-1,-1],"loss_changes":[2.131598E4,5.270313E3,1.5307617E3,8.9715625E2,9.137147E2,4.325376E2,6.343154E2,0E0,0E0,0E0,0E0,0E0,0E0,0E0,0E0],"parents":[2147483647,0,0,1,1,2,2,3,3,4,4,5,5,6,6],"right_children":[2,4,6,8,10,12,14,-1,-1,-1,-1,-1,-1,-1,-1],"split_conditions":[-9E0,-2.2666666E1,-2.3333333E0,-3.4666668E1,-7.534278E-1,-5.837311E-1,-1.996065E0,2.3898259E-2,1.39123555E-2,-6.5233908E-3,4.749069E-3,-1.7604686E-2,-8.225585E-3,3.8933456E-3,-2.5567517E-2],"split_indices":[5,5,5,5,47,47,41,0,0,0,0,0,0,0,0],"split_type":[0,0,0,0,0,0,0,0,0,0,0,0,0,0,0],"sum_hessian":[4.651542E4,3.0094727E4,1.6420697E4,1.4590015E4,1.5504712E4,8.158103E3,8.262594E3,7.087064E3,7.50295E3,3.8700085E3,1.1634703E4,3.44614E3,4.7119634E3,3.0596014E2,7.956634E3],"tree_param":{"num_deleted":"0","num_feature":"50","num_nodes":"15","size_leaf_vector":"1"}},{"base_weights":[-1.3426864E-3,-1.1497998E0,2.7342266E-1,-1.2598057E0,3.8618094E-1,-3.3971632E-1,4.3464085E-1,-2.5603514E-2,1.1889939E-3,-8.36283E-3,1.6163724E-2,1.1847958E-3,-1.7252216E-2,6.8326127E-3,2.4872074E-2],"categories":[],"categories_nodes":[],"categories_segments":[],"categories_sizes":[],"default_left":[0,0,0,0,0,0,0,0,0,0,0,0,0,0,0],"id":35,"left_children":[1,3,5,7,9,11,13,-1,-1,-1,-1,-1,-1,-1,-1],"loss_changes":[1.4633082E4,1.5141143E3,3.6993457E3,1.5290723E2,2.0230783E2,1.6108503E3,2.2521177E3,0E0,0E0,0E0,0E0,0E0,0E0,0E0,0E0],"parents":[2147483647,0,0,1,1,2,2,3,3,4,4,5,5,6,6],"right_children":[2,4,6,8,10,12,14,-1,-1,-1,-1,-1,-1,-1,-1],"split_conditions":[8.333333E-1,4.667E0,-7.0552456E-1,2.2264566E0,1E0,-1.117371E0,5E0,-2.5603514E-2,1.1889939E-3,-8.36283E-3,1.6163724E-2,1.1847958E-3,-1.7252216E-2,6.8326127E-3,2.4872074E-2],"split_indices":[7,13,18,40,3,18,13,0,0,0,0,0,0,0,0],"split_type":[0,0,0,0,0,0,0,0,0,0,0,0,0,0,0],"sum_hessian":[4.6366504E4,8.949652E3,3.7416848E4,8.352014E3,5.9763904E2,7.7893696E3,2.962748E4,8.265287E3,8.672693E1,2.0470206E2,3.9293698E2,4.4050913E3,3.384278E3,2.6503041E4,3.1244385E3],"tree_param":{"num_deleted":"0","num_feature":"50","num_nodes":"15","size_leaf_vector":"1"}},{"base_weights":[2.5808418E-3,7.0650285E-1,-6.236157E-1,1.1011173E0,4.369227E-1,-2.4087784E-1,-1.0714864E0,2.4775628E-2,1.8191645E-2,1.6177392E-2,6.7360476E-3,-1.3102756E-2,-1.6257686E-3,-2.2684282E-2,5.820262E-4],"categories":[],"categories_nodes":[],"categories_segments":[],"categories_sizes":[],"default_left":[0,0,0,0,0,0,0,0,0,0,0,0,0,0,0],"id":36,"left_children":[1,3,5,7,9,11,13,-1,-1,-1,-1,-1,-1,-1,-1],"loss_changes":[2.0420531E4,2.3187256E3,4.2018643E3,2.2478613E2,4.847605E2,8.6928326E2,7.081162E2,0E0,0E0,0E0,0E0,0E0,0E0,0E0,0E0],"parents":[2147483647,0,0,1,1,2,2,3,3,4,4,5,5,6,6],"right_children":[2,4,6,8,10,12,14,-1,-1,-1,-1,-1,-1,-1,-1],"split_conditions":[-1.55E1,-3.0666666E1,-5.1666665E0,-3.9333332E1,2E0,-7.864087E-1,4.333E0,2.4775628E-2,1.8191645E-2,1.6177392E-2,6.7360476E-3,-1.3102756E-2,-1.6257686E-3,-2.2684282E-2,5.820262E-4],"split_indices":[5,5,5,5,13,47,13,0,0,0,0,0,0,0,0],"split_type":[0,0,0,0,0,0,0,0,0,0,0,0,0,0,0],"sum_hessian":[4.6320895E4,2.1806889E4,2.4514004E4,8.847213E3,1.2959677E4,1.3220571E4,1.1293434E4,5.289587E3,3.5576257E3,2.8055745E3,1.0154102E4,3.702546E3,9.518025E3,1.0737605E4,5.5582825E2],"tree_param":{"num_deleted":"0","num_feature":"50","num_nodes":"15","size_leaf_vector":"1"}},{"base_weights":[-2.4355671E-4,4.8129475E-1,-8.884206E-1,9.2001164E-1,1.0181928E-1,-5.904334E-1,-1.1904709E0,2.3939202E-2,1.4248639E-2,7.926732E-3,-1.1297909E-3,-1.2411251E-2,2.334572E-2,-2.5038514E-2,2.1139062E-3],"categories":[],"categories_nodes":[],"categories_segments":[],"categories_sizes":[],"default_left":[0,0,0,0,0,0,0,0,0,0,0,0,0,0,0],"id":37,"left_children":[1,3,5,7,9,11,13,-1,-1,-1,-1,-1,-1,-1,-1],"loss_changes":[1.9658201E4,4.9616567E3,1.4523652E3,7.8828906E2,7.388932E2,3.8669727E2,5.728955E2,0E0,0E0,0E0,0E0,0E0,0E0,0E0,0E0],"parents":[2147483647,0,0,1,1,2,2,3,3,4,4,5,5,6,6],"right_children":[2,4,6,8,10,12,14,-1,-1,-1,-1,-1,-1,-1,-1],"split_conditions":[-9E0,-2.3333334E1,-2.3333333E0,-3.6833332E1,2E0,5.6954628E1,4.667E0,2.3939202E-2,1.4248639E-2,7.926732E-3,-1.1297909E-3,-1.2411251E-2,2.334572E-2,-2.5038514E-2,2.1139062E-3],"split_indices":[5,5,5,5,13,46,13,0,0,0,0,0,0,0,0],"split_type":[0,0,0,0,0,0,0,0,0,0,0,0,0,0,0],"sum_hessian":[4.595768E4,2.9801627E4,1.6156052E4,1.3819982E4,1.5981645E4,8.137082E3,8.01897E3,6.0489688E3,7.7710137E3,5.6040557E3,1.0377589E4,8.0155654E3,1.2151646E2,7.6920522E3,3.2691772E2],"tree_param":{"num_deleted":"0","num_feature":"50","num_nodes":"15","size_leaf_vector":"1"}},{"base_weights":[-9.023113E-4,7.2923416E-1,-5.6788117E-1,1.1177045E0,4.918746E-1,-1.7899339E-1,-1.0198872E0,1.30728455E-2,2.364853E-2,6.3312026E-3,1.304572E-2,-8.730397E-3,-3.4179294E-4,-2.127865E-2,7.8049647E-3],"categories":[],"categories_nodes":[],"categories_segments":[],"categories_sizes":[],"default_left":[0,0,0,0,0,0,0,0,0,0,0,0,0,0,0],"id":38,"left_children":[1,3,5,7,9,11,13,-1,-1,-1,-1,-1,-1,-1,-1],"loss_changes":[1.8958752E4,1.8442217E3,4.53087E3,2.0601758E2,3.4490796E2,5.7320764E2,6.4970605E2,0E0,0E0,0E0,0E0,0E0,0E0,0E0,0E0],"parents":[2147483647,0,0,1,1,2,2,3,3,4,4,5,5,6,6],"right_children":[2,4,6,8,10,12,14,-1,-1,-1,-1,-1,-1,-1,-1],"split_conditions":[-1.6833334E1,-3.2833332E1,-5.8333335E0,-3.427058E-1,3.9090623E-6,-2.6594153E-1,1.6666667E-1,1.30728455E-2,2.364853E-2,6.3312026E-3,1.304572E-2,-8.730397E-3,-3.4179294E-4,-2.127865E-2,7.8049647E-3],"split_indices":[5,5,5,27,10,48,14,0,0,0,0,0,0,0,0],"split_type":[0,0,0,0,0,0,0,0,0,0,0,0,0,0,0],"sum_hessian":[4.5791336E4,2.0015371E4,2.5775967E4,7.5871455E3,1.2428227E4,1.3857564E4,1.1918402E4,8.50571E2,6.7365747E3,5.8492705E3,6.5789556E3,5.377478E3,8.480086E3,1.160087E4,3.1753168E2],"tree_param":{"num_deleted":"0","num_feature":"50","num_nodes":"15","size_leaf_vector":"1"}},{"base_weights":[-3.433953E-3,4.6493185E-1,-8.73746E-1,8.869873E-1,9.3657024E-2,-5.845858E-1,-1.1713902E0,2.3466326E-2,1.365488E-2,-6.212487E-3,4.552312E-3,-1.7151348E-2,-7.842063E-3,-2.4699362E-2,2.2303758E-3],"categories":[],"categories_nodes":[],"categories_segments":[],"categories_sizes":[],"default_left":[0,0,0,0,0,0,0,0,0,0,0,0,0,0,0],"id":39,"left_children":[1,3,5,7,9,11,13,-1,-1,-1,-1,-1,-1,-1,-1],"loss_changes":[1.8542096E4,4.633829E3,1.3677529E3,8.036416E2,8.4176514E2,4.210437E2,5.763721E2,0E0,0E0,0E0,0E0,0E0,0E0,0E0,0E0],"parents":[2147483647,0,0,1,1,2,2,3,3,4,4,5,5,6,6],"right_children":[2,4,6,8,10,12,14,-1,-1,-1,-1,-1,-1,-1,-1],"split_conditions":[-9E0,-2.3E1,-2.3333333E0,-3.6833332E1,-7.534278E-1,-5.837311E-1,5.254604E-1,2.3466326E-2,1.365488E-2,-6.212487E-3,4.552312E-3,-1.7151348E-2,-7.842063E-3,-2.4699362E-2,2.2303758E-3],"split_indices":[5,5,5,5,47,47,42,0,0,0,0,0,0,0,0],"split_type":[0,0,0,0,0,0,0,0,0,0,0,0,0,0,0],"sum_hessian":[4.5482348E4,2.9570238E4,1.591211E4,1.3836828E4,1.573341E4,8.075485E3,7.8366255E3,5.882983E3,7.953845E3,3.9008064E3,1.1832604E4,3.3871511E3,4.6883335E3,7.501585E3,3.350403E2],"tree_param":{"num_deleted":"0","num_feature":"50","num_nodes":"15","size_leaf_vector":"1"}},{"base_weights":[-8.897329E-4,4.5906416E-1,-8.5787106E-1,8.950112E-1,1.0505436E-1,-5.591357E-1,-1.1668798E0,2.3338158E-2,1.3756455E-2,-5.576373E-3,4.498321E-3,3.4256123E-2,-1.1652149E-2,-2.4266528E-2,7.972183E-3],"categories":[],"categories_nodes":[],"categories_segments":[],"categories_sizes":[],"default_left":[0,0,0,0,0,0,0,0,0,0,0,0,0,0,0],"id":40,"left_children":[1,3,5,7,9,11,13,-1,-1,-1,-1,-1,-1,-1,-1],"loss_changes":[1.788869E4,4.557458E3,1.4612783E3,7.3924805E2,7.403181E2,3.7719897E2,4.9180566E2,0E0,0E0,0E0,0E0,0E0,0E0,0E0,0E0],"parents":[2147483647,0,0,1,1,2,2,3,3,4,4,5,5,6,6],"right_children":[2,4,6,8,10,12,14,-1,-1,-1,-1,-1,-1,-1,-1],"split_conditions":[-9E0,-2.3666666E1,-2.3333333E0,-3.6833332E1,-7.0552456E-1,-2.2005663E0,1E0,2.3338158E-2,1.3756455E-2,-5.576373E-3,4.498321E-3,3.4256123E-2,-1.1652149E-2,-2.4266528E-2,7.972183E-3],"split_indices":[5,5,5,5,18,20,11,0,0,0,0,0,0,0,0],"split_type":[0,0,0,0,0,0,0,0,0,0,0,0,0,0,0],"sum_hessian":[4.5377113E4,2.9529549E4,1.5847564E4,1.32313125E4,1.6298236E4,8.061909E3,7.7856553E3,5.842693E3,7.3886196E3,3.8597896E3,1.2438447E4,7.023511E1,7.991674E3,7.590795E3,1.9486038E2],"tree_param":{"num_deleted":"0","num_feature":"50","num_nodes":"15","size_leaf_vector":"1"}},{"base_weights":[3.1871817E-3,6.59809E-1,-5.8189046E-1,1.0444577E0,4.074518E-1,-2.7497342E-1,-1.1045609E0,1.1016651E-2,2.230089E-2,1.4069828E-2,5.5826767E-3,-2.283008E-3,-1.1046432E-2,-2.3250131E-2,1.9961563E-3],"categories":[],"categories_nodes":[],"categories_segments":[],"categories_sizes":[],"default_left":[0,0,0,0,0,0,0,0,0,0,0,0,0,0,0],"id":41,"left_children":[1,3,5,7,9,11,13,-1,-1,-1,-1,-1,-1,-1,-1],"loss_changes":[1.7355947E4,2.0650674E3,3.83148E3,2.699131E2,4.8733423E2,6.6695056E2,5.538906E2,0E0,0E0,0E0,0E0,0E0,0E0,0E0,0E0],"parents":[2147483647,0,0,1,1,2,2,3,3,4,4,5,5,6,6],"right_children":[2,4,6,8,10,12,14,-1,-1,-1,-1,-1,-1,-1,-1],"split_conditions":[-1.55E1,-3.0666666E1,-3.5E0,-3.427058E-1,2.333E0,-8E0,5.254604E-1,1.1016651E-2,2.230089E-2,1.4069828E-2,5.5826767E-3,-2.283008E-3,-1.1046432E-2,-2.3250131E-2,1.9961563E-3],"split_indices":[5,5,5,27,13,5,42,0,0,0,0,0,0,0,0],"split_type":[0,0,0,0,0,0,0,0,0,0,0,0,0,0,0],"sum_hessian":[4.517137E4,2.1284168E4,2.3887201E4,8.428326E3,1.2855842E4,1.5052626E4,8.834576E3,9.7783734E2,7.450489E3,3.9465513E3,8.909291E3,9.482117E3,5.570509E3,8.46868E3,3.6589627E2],"tree_param":{"num_deleted":"0","num_feature":"50","num_nodes":"15","size_leaf_vector":"1"}},{"base_weights":[4.8930285E-4,4.422711E-1,-8.293523E-1,9.0665364E-1,1.2885442E-1,-5.306608E-1,-1.1444738E0,2.2906091E-2,1.3801095E-2,-5.1750927E-3,4.9428106E-3,3.381583E-2,-1.1091941E-2,-2.412933E-2,2.5438142E-3],"categories":[],"categories_nodes":[],"categories_segments":[],"categories_sizes":[],"default_left":[0,0,0,0,0,0,0,0,0,0,0,0,0,0,0],"id":42,"left_children":[1,3,5,7,9,11,13,-1,-1,-1,-1,-1,-1,-1,-1],"loss_changes":[1.652517E4,4.280977E3,1.4722051E3,6.051211E2,7.942943E2,3.786006E2,5.412461E2,0E0,0E0,0E0,0E0,0E0,0E0,0E0,0E0],"parents":[2147483647,0,0,1,1,2,2,3,3,4,4,5,5,6,6],"right_children":[2,4,6,8,10,12,14,-1,-1,-1,-1,-1,-1,-1,-1],"split_conditions":[-9E0,-2.5166666E1,-2.3333333E0,-3.6833332E1,-7.0552456E-1,-2.2005663E0,5.3185815E-1,2.2906091E-2,1.3801095E-2,-5.1750927E-3,4.9428106E-3,3.381583E-2,-1.1091941E-2,-2.412933E-2,2.5438142E-3],"split_indices":[5,5,5,5,18,20,42,0,0,0,0,0,0,0,0],"split_type":[0,0,0,0,0,0,0,0,0,0,0,0,0,0,0],"sum_hessian":[4.5069887E4,2.9412797E4,1.5657089E4,1.1849748E4,1.7563049E4,8.042124E3,7.614965E3,5.752637E3,6.097111E3,4.0828154E3,1.3480233E4,7.3832855E1,7.968291E3,7.294575E3,3.203898E2],"tree_param":{"num_deleted":"0","num_feature":"50","num_nodes":"15","size_leaf_vector":"1"}},{"base_weights":[-1.3522068E-3,6.8310994E-1,-5.331807E-1,1.0638615E0,4.5908713E-1,-2.4386303E-1,-1.0894486E0,2.4106408E-2,1.8230708E-2,7.598099E-3,1.7585127E-2,-1.2447222E-2,-1.851483E-3,-2.2978785E-2,2.8289796E-3],"categories":[],"categories_nodes":[],"categories_segments":[],"categories_sizes":[],"default_left":[0,0,0,0,0,0,0,0,0,0,0,0,0,0,0],"id":43,"left_children":[1,3,5,7,9,11,13,-1,-1,-1,-1,-1,-1,-1,-1],"loss_changes":[1.6307493E4,1.6694082E3,4.056523E3,1.5089648E2,4.1504614E2,9.4470953E2,5.6964355E2,0E0,0E0,0E0,0E0,0E0,0E0,0E0,0E0],"parents":[2147483647,0,0,1,1,2,2,3,3,4,4,5,5,6,6],"right_children":[2,4,6,8,10,12,14,-1,-1,-1,-1,-1,-1,-1,-1],"split_conditions":[-1.6833334E1,-3.2833332E1,-3.5E0,-4.3666668E1,1.2582684E0,-7.70623E-1,5.254604E-1,2.4106408E-2,1.8230708E-2,7.598099E-3,1.7585127E-2,-1.2447222E-2,-1.851483E-3,-2.2978785E-2,2.8289796E-3],"split_indices":[5,5,5,5,18,47,42,0,0,0,0,0,0,0,0],"split_type":[0,0,0,0,0,0,0,0,0,0,0,0,0,0,0],"sum_hessian":[4.479292E4,1.958554E4,2.520738E4,7.2508853E3,1.2334654E4,1.6585428E4,8.621953E3,3.8834045E3,3.3674807E3,1.0325424E4,2.0092312E3,4.772677E3,1.1812751E4,8.261886E3,3.600673E2],"tree_param":{"num_deleted":"0","num_feature":"50","num_nodes":"15","size_leaf_vector":"1"}},{"base_weights":[1.0425955E-3,-1.0658826E0,2.3938923E-1,-1.1685672E0,6.205122E-1,-3.219115E-1,3.8768938E-1,-2.3849927E-2,4.215468E-3,-4.679567E-3,2.0541953E-2,1.5643584E-3,-1.7724218E-2,6.0742944E-3,2.3255253E-2],"categories":[],"categories_nodes":[],"categories_segments":[],"categories_sizes":[],"default_left":[0,0,0,0,0,0,0,0,0,0,0,0,0,0,0],"id":44,"left_children":[1,3,5,7,9,11,13,-1,-1,-1,-1,-1,-1,-1,-1],"loss_changes":[1.1334686E4,1.4115371E3,3.0331145E3,1.8961523E2,1.6133823E2,1.7043644E3,1.8947393E3,0E0,0E0,0E0,0E0,0E0,0E0,0E0,0E0],"parents":[2147483647,0,0,1,1,2,2,3,3,4,4,5,5,6,6],"right_children":[2,4,6,8,10,12,14,-1,-1,-1,-1,-1,-1,-1,-1],"split_conditions":[8.333333E-1,5E0,-7.0552456E-1,2.2264566E0,1E0,-1.1008219E0,5E0,-2.3849927E-2,4.215468E-3,-4.679567E-3,2.0541953E-2,1.5643584E-3,-1.7724218E-2,6.0742944E-3,2.3255253E-2],"split_indices":[7,13,18,40,3,18,13,0,0,0,0,0,0,0,0],"split_type":[0,0,0,0,0,0,0,0,0,0,0,0,0,0,0],"sum_hessian":[4.4566586E4,8.1361387E3,3.6430445E4,7.6700107E3,4.6612784E2,7.6129165E3,2.881753E4,7.572289E3,9.772208E1,1.4950513E2,3.166227E2,4.442886E3,3.17003E3,2.5937676E4,2.8798533E3],"tree_param":{"num_deleted":"0","num_feature":"50","num_nodes":"15","size_leaf_vector":"1"}},{"base_weights":[2.573341E-4,-1.052254E0,2.3315658E-1,-1.1711373E0,4.4077668E-1,-3.0395302E-1,3.7588936E-1,-2.4309123E-2,-1.2738061E-2,2.0394068E-2,-1.8832985E-3,2.0364923E-3,-1.6800271E-2,5.842148E-3,2.3138335E-2],"categories":[],"categories_nodes":[],"categories_segments":[],"categories_sizes":[],"default_left":[0,0,0,0,0,0,0,0,0,0,0,0,0,0,0],"id":45,"left_children":[1,3,5,7,9,11,13,-1,-1,-1,-1,-1,-1,-1,-1],"loss_changes":[1.0874685E4,1.4282295E3,2.785131E3,1.5037012E2,1.8271548E2,1.6441826E3,1.8959438E3,0E0,0E0,0E0,0E0,0E0,0E0,0E0,0E0],"parents":[2147483647,0,0,1,1,2,2,3,3,4,4,5,5,6,6],"right_children":[2,4,6,8,10,12,14,-1,-1,-1,-1,-1,-1,-1,-1],"split_conditions":[8.333333E-1,4.667E0,-7.0552456E-1,1.6098385E0,-1.6963177E0,-1.117371E0,5E0,-2.4309123E-2,-1.2738061E-2,2.0394068E-2,-1.8832985E-3,2.0364923E-3,-1.6800271E-2,5.842148E-3,2.3138335E-2],"split_indices":[7,13,18,34,1,18,13,0,0,0,0,0,0,0,0],"split_type":[0,0,0,0,0,0,0,0,0,0,0,0,0,0,0],"sum_hessian":[4.4357242E4,8.0350747E3,3.6322168E4,7.443049E3,5.920256E2,7.6251387E3,2.8697027E4,6.946533E3,4.96516E2,2.8425394E2,3.0777167E2,4.3287144E3,3.2964243E3,2.5856715E4,2.8403125E3],"tree_param":{"num_deleted":"0","num_feature":"50","num_nodes":"15","size_leaf_vector":"1"}},{"base_weights":[3.0399773E-3,6.674826E-1,-5.04611E-1,1.033084E0,4.3845877E-1,-2.1464498E-1,-1.0349231E0,1.1201648E-2,2.2165213E-2,5.2114613E-3,1.2016531E-2,-1.1831014E-2,-1.3506339E-3,-2.1625144E-2,5.008842E-3],"categories":[],"categories_nodes":[],"categories_segments":[],"categories_sizes":[],"default_left":[0,0,0,0,0,0,0,0,0,0,0,0,0,0,0],"id":46,"left_children":[1,3,5,7,9,11,13,-1,-1,-1,-1,-1,-1,-1,-1],"loss_changes":[1.4962122E4,1.6073252E3,3.8660854E3,2.4297949E2,3.3693872E2,8.9638434E2,4.668125E2,0E0,0E0,0E0,0E0,0E0,0E0,0E0,0E0],"parents":[2147483647,0,0,1,1,2,2,3,3,4,4,5,5,6,6],"right_children":[2,4,6,8,10,12,14,-1,-1,-1,-1,-1,-1,-1,-1],"split_conditions":[-1.7E1,-3.2166668E1,-4E0,-2.90055E-1,3.9090623E-6,-7.70623E-1,1.6666667E-1,1.1201648E-2,2.2165213E-2,5.2114613E-3,1.2016531E-2,-1.1831014E-2,-1.3506339E-3,-2.1625144E-2,5.008842E-3],"split_indices":[5,5,5,27,10,47,14,0,0,0,0,0,0,0,0],"split_type":[0,0,0,0,0,0,0,0,0,0,0,0,0,0,0],"sum_hessian":[4.4351996E4,1.9209104E4,2.5142893E4,7.394554E3,1.1814549E4,1.6257607E4,8.885285E3,9.461709E2,6.4483833E3,5.5636143E3,6.2509346E3,4.595749E3,1.1661857E4,8.611915E3,2.7337E2],"tree_param":{"num_deleted":"0","num_feature":"50","num_nodes":"15","size_leaf_vector":"1"}},{"base_weights":[-9.446774E-4,-1.0363455E0,2.2403069E-1,-1.1546956E0,4.0581855E-1,1.4185365E-1,1.1175587E0,-2.351178E-2,4.509741E-3,-1.2242264E-2,1.4508843E-2,-6.8825115E-3,5.637775E-3,2.0155381E-2,2.4573905E-2],"categories":[],"categories_nodes":[],"categories_segments":[],"categories_sizes":[],"default_left":[0,0,0,0,0,0,0,0,0,0,0,0,0,0,0],"id":47,"left_children":[1,3,5,7,9,11,13,-1,-1,-1,-1,-1,-1,-1,-1],"loss_changes":[1.0261791E4,1.3435137E3,2.6568735E3,1.5021777E2,1.9318521E2,2.224805E3,3.3144775E1,0E0,0E0,0E0,0E0,0E0,0E0,0E0,0E0],"parents":[2147483647,0,0,1,1,2,2,3,3,4,4,5,5,6,6],"right_children":[2,4,6,8,10,12,14,-1,-1,-1,-1,-1,-1,-1,-1],"split_conditions":[8.333333E-1,4.667E0,5E0,2.2264566E0,4.229552E-1,-7.0552456E-1,5.667E0,-2.351178E-2,4.509741E-3,-1.2242264E-2,1.4508843E-2,-6.8825115E-3,5.637775E-3,2.0155381E-2,2.4573905E-2],"split_indices":[7,13,13,40,42,18,13,0,0,0,0,0,0,0,0],"split_type":[0,0,0,0,0,0,0,0,0,0,0,0,0,0,0],"sum_hessian":[4.4047582E4,7.860547E3,3.6187035E4,7.2649385E3,5.956086E2,3.3142355E4,3.0446826E3,7.187664E3,7.727409E1,1.4075824E2,4.548503E2,7.3743477E3,2.5768006E4,1.4675995E3,1.5770831E3],"tree_param":{"num_deleted":"0","num_feature":"50","num_nodes":"15","size_leaf_vector":"1"}},{"base_weights":[-8.239772E-5,5.747658E-1,-5.696415E-1,9.889574E-1,3.3548275E-1,-2.9525143E-1,-1.0657688E0,2.26615E-2,1.5923094E-2,1.4076834E-2,4.5306846E-3,-1.2630911E-2,-3.1782524E-3,-2.254572E-2,2.5085213E-3],"categories":[],"categories_nodes":[],"categories_segments":[],"categories_sizes":[],"default_left":[0,0,0,0,0,0,0,0,0,0,0,0,0,0,0],"id":48,"left_children":[1,3,5,7,9,11,13,-1,-1,-1,-1,-1,-1,-1,-1],"loss_changes":[1.4355221E4,2.1616938E3,2.9972192E3,2.1495947E2,5.551963E2,6.476897E2,5.2118555E2,0E0,0E0,0E0,0E0,0E0,0E0,0E0,0E0],"parents":[2147483647,0,0,1,1,2,2,3,3,4,4,5,5,6,6],"right_children":[2,4,6,8,10,12,14,-1,-1,-1,-1,-1,-1,-1,-1],"split_conditions":[-1.45E1,-3.0666666E1,-3.1666667E0,-3.9333332E1,2E0,-7.0552456E-1,5.254604E-1,2.26615E-2,1.5923094E-2,1.4076834E-2,4.5306846E-3,-1.2630911E-2,-3.1782524E-3,-2.254572E-2,2.5085213E-3],"split_indices":[5,5,5,5,13,18,42,0,0,0,0,0,0,0,0],"split_type":[0,0,0,0,0,0,0,0,0,0,0,0,0,0,0],"sum_hessian":[4.3838926E4,2.1818145E4,2.2020783E4,7.9858003E3,1.3832344E4,1.4181937E4,7.838846E3,4.681639E3,3.3041614E3,3.20341E3,1.0628934E4,4.1332695E3,1.0048667E4,7.488174E3,3.50672E2],"tree_param":{"num_deleted":"0","num_feature":"50","num_nodes":"15","size_leaf_vector":"1"}},{"base_weights":[-1.2611013E-3,6.3732016E-1,-4.9670866E-1,1.0206132E0,4.202481E-1,-2.3852266E-1,-1.039442E0,1.0661876E-2,2.1803522E-2,1.6234409E-2,6.566426E-3,-1.20052565E-2,-2.013499E-3,-2.2026047E-2,3.1071077E-3],"categories":[],"categories_nodes":[],"categories_segments":[],"categories_sizes":[],"default_left":[0,0,0,0,0,0,0,0,0,0,0,0,0,0,0],"id":49,"left_children":[1,3,5,7,9,11,13,-1,-1,-1,-1,-1,-1,-1,-1],"loss_changes":[1.3813278E4,1.5857974E3,3.444312E3,2.1468799E2,4.409082E2,8.26807E2,5.327881E2,0E0,0E0,0E0,0E0,0E0,0E0,0E0,0E0],"parents":[2147483647,0,0,1,1,2,2,3,3,4,4,5,5,6,6],"right_children":[2,4,6,8,10,12,14,-1,-1,-1,-1,-1,-1,-1,-1],"split_conditions":[-1.6833334E1,-3.2833332E1,-3.3333333E0,-3.427058E-1,2E0,-7.864087E-1,5.254604E-1,1.0661876E-2,2.1803522E-2,1.6234409E-2,6.566426E-3,-1.20052565E-2,-2.013499E-3,-2.2026047E-2,3.1071077E-3],"split_indices":[5,5,5,27,13,47,42,0,0,0,0,0,0,0,0],"split_type":[0,0,0,0,0,0,0,0,0,0,0,0,0,0,0],"sum_hessian":[4.3654062E4,1.9071723E4,2.458234E4,6.8917827E3,1.217994E4,1.6660781E4,7.921559E3,7.991389E2,6.092644E3,2.3660403E3,9.8139E3,4.6350723E3,1.2025709E4,7.565354E3,3.562051E2],"tree_param":{"num_deleted":"0","num_feature":"50","num_nodes":"15","size_leaf_vector":"1"}},{"base_weights":[3.7683934E-4,3.9810306E-1,-7.6937896E-1,8.410111E-1,1.0980675E-1,-1.1329845E0,-5.302696E-1,2.1587528E-2,1.2720379E-2,9.368945E-3,-9.136193E-5,-1.9790255E-3,-2.3355871E-2,-1.1417202E-2,1.6652368E-2],"categories":[],"categories_nodes":[],"categories_segments":[],"categories_sizes":[],"default_left":[0,0,0,0,0,0,0,0,0,0,0,0,0,0,0],"id":50,"left_children":[1,3,5,7,9,11,13,-1,-1,-1,-1,-1,-1,-1,-1],"loss_changes":[1.3294829E4,3.6556855E3,1.2844355E3,5.4539355E2,7.066699E2,1.748584E2,4.5862207E2,0E0,0E0,0E0,0E0,0E0,0E0,0E0,0E0],"parents":[2147483647,0,0,1,1,2,2,3,3,4,4,5,5,6,6],"right_children":[2,4,6,8,10,12,14,-1,-1,-1,-1,-1,-1,-1,-1],"split_conditions":[-9E0,-2.5166666E1,1E0,-3.6833332E1,1.667E0,-1.996065E0,5E0,2.1587528E-2,1.2720379E-2,9.368945E-3,-9.136193E-5,-1.9790255E-3,-2.3355871E-2,-1.1417202E-2,1.6652368E-2],"split_indices":[5,5,3,5,13,41,13,0,0,0,0,0,0,0,0],"split_type":[0,0,0,0,0,0,0,0,0,0,0,0,0,0,0],"sum_hessian":[4.3419715E4,2.8628848E4,1.4790868E4,1.1285455E4,1.7343393E4,5.8634985E3,8.927369E3,5.3217236E3,5.9637314E3,4.212028E3,1.3131366E4,1.5951877E2,5.70398E3,8.688087E3,2.3928212E2],"tree_param":{"num_deleted":"0","num_feature":"50","num_nodes":"15","size_leaf_vector":"1"}},{"base_weights":[-5.763709E-5,6.2828803E-1,-4.7931555E-1,9.87851E-1,4.113557E-1,-1.1881266E-1,-8.6438143E-1,9.375328E-3,2.1212278E-2,1.4294549E-2,5.940461E-3,-1.1561862E-2,-3.5694122E-4,-2.2886438E-2,-1.2336429E-2],"categories":[],"categories_nodes":[],"categories_segments":[],"categories_sizes":[],"default_left":[0,0,0,0,0,0,0,0,0,0,0,0,0,0,0],"id":51,"left_children":[1,3,5,7,9,11,13,-1,-1,-1,-1,-1,-1,-1,-1],"loss_changes":[1.3026947E4,1.4588301E3,3.4063901E3,2.4591895E2,4.0492737E2,5.846306E2,8.13375E2,0E0,0E0,0E0,0E0,0E0,0E0,0E0,0E0],"parents":[2147483647,0,0,1,1,2,2,3,3,4,4,5,5,6,6],"right_children":[2,4,6,8,10,12,14,-1,-1,-1,-1,-1,-1,-1,-1],"split_conditions":[-1.7E1,-3.2166668E1,-6.8333335E0,-3.427058E-1,2.333E0,-6.186111E-1,1E0,9.375328E-3,2.1212278E-2,1.4294549E-2,5.940461E-3,-1.1561862E-2,-3.5694122E-4,-2.2886438E-2,-1.2336429E-2],"split_indices":[5,5,5,27,13,10,3,0,0,0,0,0,0,0,0],"split_type":[0,0,0,0,0,0,0,0,0,0,0,0,0,0,0],"sum_hessian":[4.325297E4,1.8715082E4,2.4537887E4,7.0384775E3,1.16766045E4,1.2675126E4,1.1862762E4,8.0789166E2,6.230586E3,3.2507021E3,8.425902E3,2.2955256E3,1.0379601E4,5.661754E3,6.201008E3],"tree_param":{"num_deleted":"0","num_feature":"50","num_nodes":"15","size_leaf_vector":"1"}},{"base_weights":[9.394881E-4,-9.7619855E-1,1.7170793E-1,-1.1195672E0,1.2391186E-1,8.5449204E-2,1.0838737E0,-2.282206E-2,4.856718E-3,5.2191345E-3,-2.0788858E-2,-7.7484692E-3,4.4446075E-3,1.8968096E-2,2.4434406E-2],"categories":[],"categories_nodes":[],"categories_segments":[],"categories_sizes":[],"default_left":[0,0,0,0,0,0,0,0,0,0,0,0,0,0,0],"id":52,"left_children":[1,3,5,7,9,11,13,-1,-1,-1,-1,-1,-1,-1,-1],"loss_changes":[7.1865767E3,1.0109375E3,2.8843223E3,1.2216846E2,1.1730283E2,2.1399756E3,5.512915E1,0E0,0E0,0E0,0E0,0E0,0E0,0E0,0E0],"parents":[2147483647,0,0,1,1,2,2,3,3,4,4,5,5,6,6],"right_children":[2,4,6,8,10,12,14,-1,-1,-1,-1,-1,-1,-1,-1],"split_conditions":[1E0,1.5999787E0,5E0,1.5394068E0,7.6953E-1,-7.0552456E-1,5.667E0,-2.282206E-2,4.856718E-3,5.2191345E-3,-2.0788858E-2,-7.7484692E-3,4.4446075E-3,1.8968096E-2,2.4434406E-2],"split_indices":[3,0,13,43,18,18,13,0,0,0,0,0,0,0,0],"split_type":[0,0,0,0,0,0,0,0,0,0,0,0,0,0,0],"sum_hessian":[4.3062508E4,6.404145E3,3.6658363E4,5.665725E3,7.384203E2,3.3494195E4,3.1641685E3,5.601482E3,6.424283E1,6.6299335E2,7.542699E1,7.4894995E3,2.6004697E4,1.5432434E3,1.6209249E3],"tree_param":{"num_deleted":"0","num_feature":"50","num_nodes":"15","size_leaf_vector":"1"}},{"base_weights":[-3.4491012E-3,3.801302E-1,-7.5538105E-1,8.5136044E-1,1.20406546E-1,-4.9248594E-1,-1.0633664E0,2.1524617E-2,1.2927689E-2,-5.4781092E-3,4.5987023E-3,-1.0439966E-2,2.4831895E-2,5.56369E-3,-2.2585029E-2],"categories":[],"categories_nodes":[],"categories_segments":[],"categories_sizes":[],"default_left":[0,0,0,0,0,0,0,0,0,0,0,0,0,0,0],"id":53,"left_children":[1,3,5,7,9,11,13,-1,-1,-1,-1,-1,-1,-1,-1],"loss_changes":[1.2379159E4,3.4781797E3,1.172374E3,4.5939453E2,7.80433E2,3.650692E2,5.3880566E2,0E0,0E0,0E0,0E0,0E0,0E0,0E0,0E0],"parents":[2147483647,0,0,1,1,2,2,3,3,4,4,5,5,6,6],"right_children":[2,4,6,8,10,12,14,-1,-1,-1,-1,-1,-1,-1,-1],"split_conditions":[-9E0,-2.65E1,-2.3333333E0,-3.7666668E1,-7.9420763E-1,5.6954628E1,-1.996065E0,2.1524617E-2,1.2927689E-2,-5.4781092E-3,4.5987023E-3,-1.0439966E-2,2.4831895E-2,5.56369E-3,-2.2585029E-2],"split_indices":[5,5,5,5,47,46,41,0,0,0,0,0,0,0,0],"split_type":[0,0,0,0,0,0,0,0,0,0,0,0,0,0,0],"sum_hessian":[4.2913934E4,2.841843E4,1.4495505E4,1.0095311E4,1.832312E4,7.8243115E3,6.6711934E3,4.910399E3,5.184911E3,3.9598599E3,1.436326E4,7.7065693E3,1.1774239E2,2.8606042E2,6.385133E3],"tree_param":{"num_deleted":"0","num_feature":"50","num_nodes":"15","size_leaf_vector":"1"}},{"base_weights":[7.887018E-4,6.1226666E-1,-4.561553E-1,9.67132E-1,4.004887E-1,-2.0978129E-1,-9.964244E-1,9.158819E-3,2.0797107E-2,1.5834773E-2,6.199455E-3,-1.0780196E-2,-1.6242205E-3,-2.1163044E-2,3.1696442E-3],"categories":[],"categories_nodes":[],"categories_segments":[],"categories_sizes":[],"default_left":[0,0,0,0,0,0,0,0,0,0,0,0,0,0,0],"id":54,"left_children":[1,3,5,7,9,11,13,-1,-1,-1,-1,-1,-1,-1,-1],"loss_changes":[1.1962929E4,1.3749927E3,3.2610342E3,2.3460498E2,4.084026E2,7.087294E2,4.9947607E2,0E0,0E0,0E0,0E0,0E0,0E0,0E0,0E0],"parents":[2147483647,0,0,1,1,2,2,3,3,4,4,5,5,6,6],"right_children":[2,4,6,8,10,12,14,-1,-1,-1,-1,-1,-1,-1,-1],"split_conditions":[-1.7166666E1,-3.2166668E1,-3.5E0,-3.427058E-1,2E0,-7.70623E-1,5.254604E-1,9.158819E-3,2.0797107E-2,1.5834773E-2,6.199455E-3,-1.0780196E-2,-1.6242205E-3,-2.1163044E-2,3.1696442E-3],"split_indices":[5,5,5,27,13,47,42,0,0,0,0,0,0,0,0],"split_type":[0,0,0,0,0,0,0,0,0,0,0,0,0,0,0],"sum_hessian":[4.280893E4,1.8308148E4,2.450078E4,6.8386084E3,1.146954E4,1.6830008E4,7.670772E3,7.9915405E2,6.0394546E3,2.199457E3,9.270083E3,4.7634424E3,1.2066565E4,7.31396E3,3.568121E2],"tree_param":{"num_deleted":"0","num_feature":"50","num_nodes":"15","size_leaf_vector":"1"}},{"base_weights":[-1.5079483E-4,-9.7910535E-1,1.9924918E-1,-1.099871E0,3.9787558E-1,1.2454694E-1,1.059951E0,-2.2776896E-2,-5.1136664E-3,1.7308464E-2,-4.5199217E-3,-6.4634914E-3,5.025899E-3,3.3926372E-3,2.1644995E-2],"categories":[],"categories_nodes":[],"categories_segments":[],"categories_sizes":[],"default_left":[0,0,0,0,0,0,0,0,0,0,0,0,0,0,0],"id":55,"left_children":[1,3,5,7,9,11,13,-1,-1,-1,-1,-1,-1,-1,-1],"loss_changes":[8.2961045E3,1.1972153E3,2.2697896E3,1.8465625E2,1.6843085E2,1.8187563E3,4.1657715E1,0E0,0E0,0E0,0E0,0E0,0E0,0E0,0E0],"parents":[2147483647,0,0,1,1,2,2,3,3,4,4,5,5,6,6],"right_children":[2,4,6,8,10,12,14,-1,-1,-1,-1,-1,-1,-1,-1],"split_conditions":[8.333333E-1,4.667E0,5E0,2.1210208E0,-1.7967206E0,-7.864087E-1,-1.0023352E0,-2.2776896E-2,-5.1136664E-3,1.7308464E-2,-4.5199217E-3,-6.4634914E-3,5.025899E-3,3.3926372E-3,2.1644995E-2],"split_indices":[7,13,13,34,41,47,47,0,0,0,0,0,0,0,0],"split_type":[0,0,0,0,0,0,0,0,0,0,0,0,0,0,0],"sum_hessian":[4.2493918E4,7.1888413E3,3.530508E4,6.6097354E3,5.791062E2,3.2488664E4,2.816413E3,6.359192E3,2.5054314E2,3.3146323E2,2.4764294E2,7.131103E3,2.535756E4,5.26842E1,2.763729E3],"tree_param":{"num_deleted":"0","num_feature":"50","num_nodes":"15","size_leaf_vector":"1"}},{"base_weights":[1.585571E-3,3.9296633E-1,-6.893299E-1,8.3438903E-1,1.366403E-1,-4.3594685E-1,-1.0410221E0,2.0912113E-2,1.2482447E-2,8.805616E-3,-6.9613845E-5,3.3988304E-2,-9.132751E-3,-2.238443E-2,4.6644354E-4],"categories":[],"categories_nodes":[],"categories_segments":[],"categories_sizes":[],"default_left":[0,0,0,0,0,0,0,0,0,0,0,0,0,0,0],"id":56,"left_children":[1,3,5,7,9,11,13,-1,-1,-1,-1,-1,-1,-1,-1],"loss_changes":[1.1451054E4,3.0584385E3,1.3633013E3,4.3452148E2,7.2233484E2,3.5012292E2,4.9472314E2,0E0,0E0,0E0,0E0,0E0,0E0,0E0,0E0],"parents":[2147483647,0,0,1,1,2,2,3,3,4,4,5,5,6,6],"right_children":[2,4,6,8,10,12,14,-1,-1,-1,-1,-1,-1,-1,-1],"split_conditions":[-9.833333E0,-2.65E1,-2.3333333E0,-3.6833332E1,2E0,-2.2005663E0,4.333E0,2.0912113E-2,1.2482447E-2,8.805616E-3,-6.9613845E-5,3.3988304E-2,-9.132751E-3,-2.238443E-2,4.6644354E-4],"split_indices":[5,5,5,5,13,20,13,0,0,0,0,0,0,0,0],"split_type":[0,0,0,0,0,0,0,0,0,0,0,0,0,0,0],"sum_hessian":[4.234098E4,2.7030412E4,1.531057E4,9.927508E3,1.7102904E4,8.902882E3,6.407689E3,5.0473125E3,4.8801953E3,5.425328E3,1.1677575E4,7.39479E1,8.828934E3,5.9988604E3,4.0882874E2],"tree_param":{"num_deleted":"0","num_feature":"50","num_nodes":"15","size_leaf_vector":"1"}},{"base_weights":[1.4846519E-3,6.117984E-1,-4.3180153E-1,9.9484783E-1,4.272152E-1,-1.0359066E-1,-8.1888705E-1,1.00562675E-2,2.1254115E-2,4.9057044E-3,1.190075E-2,2.1901985E-3,-6.3262507E-3,-2.2117112E-2,-1.1546401E-2],"categories":[],"categories_nodes":[],"categories_segments":[],"categories_sizes":[],"default_left":[0,0,0,0,0,0,0,0,0,0,0,0,0,0,0],"id":57,"left_children":[1,3,5,7,9,11,13,-1,-1,-1,-1,-1,-1,-1,-1],"loss_changes":[1.1168874E4,1.2386055E3,3.1378052E3,1.7451172E2,3.569436E2,6.000177E2,7.77751E2,0E0,0E0,0E0,0E0,0E0,0E0,0E0,0E0],"parents":[2147483647,0,0,1,1,2,2,3,3,4,4,5,5,6,6],"right_children":[2,4,6,8,10,12,14,-1,-1,-1,-1,-1,-1,-1,-1],"split_conditions":[-1.7666666E1,-3.4666668E1,-6.8333335E0,-3.427058E-1,3.9090623E-6,-9.758191E-2,1E0,1.00562675E-2,2.1254115E-2,4.9057044E-3,1.190075E-2,2.1901985E-3,-6.3262507E-3,-2.2117112E-2,-1.1546401E-2],"split_indices":[5,5,5,27,10,27,3,0,0,0,0,0,0,0,0],"split_type":[0,0,0,0,0,0,0,0,0,0,0,0,0,0,0],"sum_hessian":[4.223001E4,1.7532732E4,2.469728E4,5.697129E3,1.1835603E4,1.336704E4,1.1330239E4,6.416633E2,5.055466E3,5.608598E3,6.227005E3,6.6616494E3,6.70539E3,5.263503E3,6.0667363E3],"tree_param":{"num_deleted":"0","num_feature":"50","num_nodes":"15","size_leaf_vector":"1"}},{"base_weights":[3.6256743E-4,-9.565982E-1,1.9017574E-1,4.0451828E-1,-1.0742083E0,-2.7323624E-1,3.1453875E-1,-1.7202524E-3,2.34327E-2,-2.278749E-2,-9.704999E-3,2.8071075E-3,-1.633662E-2,4.770422E-3,1.6818477E-2],"categories":[],"categories_nodes":[],"categories_segments":[],"categories_sizes":[],"default_left":[0,0,0,0,0,0,0,0,0,0,0,0,0,0,0],"id":58,"left_children":[1,3,5,7,9,11,13,-1,-1,-1,-1,-1,-1,-1,-1],"loss_changes":[7.629493E3,1.1141914E3,2.020245E3,2.0735338E2,2.2311865E2,1.6523936E3,1.1137683E3,0E0,0E0,0E0,0E0,0E0,0E0,0E0,0E0],"parents":[2147483647,0,0,1,1,2,2,3,3,4,4,5,5,6,6],"right_children":[2,4,6,8,10,12,14,-1,-1,-1,-1,-1,-1,-1,-1],"split_conditions":[8.333333E-1,-1.7967206E0,-7.0552456E-1,6.3798475E-1,1.3954012E0,-1.117371E0,1.570016E0,-1.7202524E-3,2.34327E-2,-2.278749E-2,-9.704999E-3,2.8071075E-3,-1.633662E-2,4.770422E-3,1.6818477E-2],"split_indices":[7,41,18,42,34,18,18,0,0,0,0,0,0,0,0],"split_type":[0,0,0,0,0,0,0,0,0,0,0,0,0,0,0],"sum_hessian":[4.1996645E4,6.9492964E3,3.504735E4,5.521421E2,6.3971543E3,7.4146704E3,2.763268E4,3.3745755E2,2.1468454E2,5.811139E3,5.8601526E2,4.201261E3,3.2134092E3,2.4075605E4,3.5570735E3],"tree_param":{"num_deleted":"0","num_feature":"50","num_nodes":"15","size_leaf_vector":"1"}},{"base_weights":[-1.6954809E-3,5.680022E-1,-4.4448802E-1,9.490238E-1,3.6733273E-1,-2.1799882E-1,-9.7214377E-1,9.182114E-3,2.0389669E-2,1.3325736E-2,5.0951885E-3,-5.4535773E-3,9.950842E-3,-2.0775652E-2,4.5778668E-3],"categories":[],"categories_nodes":[],"categories_segments":[],"categories_sizes":[],"default_left":[0,0,0,0,0,0,0,0,0,0,0,0,0,0,0],"id":59,"left_children":[1,3,5,7,9,11,13,-1,-1,-1,-1,-1,-1,-1,-1],"loss_changes":[1.05353E4,1.3954844E3,2.807746E3,2.010332E2,4.0231897E2,6.252959E2,5.20166E2,0E0,0E0,0E0,0E0,0E0,0E0,0E0,0E0],"parents":[2147483647,0,0,1,1,2,2,3,3,4,4,5,5,6,6],"right_children":[2,4,6,8,10,12,14,-1,-1,-1,-1,-1,-1,-1,-1],"split_conditions":[-1.6833334E1,-3.2833332E1,-3.3333333E0,-3.427058E-1,2.333E0,1.570016E0,5.254604E-1,9.182114E-3,2.0389669E-2,1.3325736E-2,5.0951885E-3,-5.4535773E-3,9.950842E-3,-2.0775652E-2,4.5778668E-3],"split_indices":[5,5,5,27,13,18,42,0,0,0,0,0,0,0,0],"split_type":[0,0,0,0,0,0,0,0,0,0,0,0,0,0,0],"sum_hessian":[4.1758152E4,1.8261738E4,2.3496412E4,6.2960957E3,1.1965642E4,1.6442727E4,7.053685E3,7.3985095E2,5.556245E3,3.323903E3,8.641738E3,1.5300904E4,1.1418232E3,6.710942E3,3.427435E2],"tree_param":{"num_deleted":"0","num_feature":"50","num_nodes":"15","size_leaf_vector":"1"}},{"base_weights":[-5.246273E-4,3.688265E-1,-6.61813E-1,8.175888E-1,1.3387012E-1,-4.1909087E-1,-1.0106449E0,5.712665E-3,1.8065497E-2,8.436484E-3,9.201471E-5,3.4983937E-2,-8.823359E-3,-2.1708962E-2,3.195753E-3],"categories":[],"categories_nodes":[],"categories_segments":[],"categories_sizes":[],"default_left":[0,0,0,0,0,0,0,0,0,0,0,0,0,0,0],"id":60,"left_children":[1,3,5,7,9,11,13,-1,-1,-1,-1,-1,-1,-1,-1],"loss_changes":[1.0172241E4,2.8172449E3,1.2624624E3,3.964253E2,6.4824677E2,3.793629E2,4.965669E2,0E0,0E0,0E0,0E0,0E0,0E0,0E0,0E0],"parents":[2147483647,0,0,1,1,2,2,3,3,4,4,5,5,6,6],"right_children":[2,4,6,8,10,12,14,-1,-1,-1,-1,-1,-1,-1,-1],"split_conditions":[-9.833333E0,-2.7166666E1,-2.3333333E0,-3.199919E-1,2E0,-2.2005663E0,5.1888454E-1,5.712665E-3,1.8065497E-2,8.436484E-3,9.201471E-5,3.4983937E-2,-8.823359E-3,-2.1708962E-2,3.195753E-3],"split_indices":[5,5,5,27,13,20,42,0,0,0,0,0,0,0,0],"split_type":[0,0,0,0,0,0,0,0,0,0,0,0,0,0,0],"sum_hessian":[4.1641395E4,2.6719164E4,1.49222295E4,9.179408E3,1.7539758E4,8.803249E3,6.118981E3,1.2130615E3,7.966346E3,5.4611226E3,1.2078634E4,7.780363E1,8.725445E3,5.7770166E3,3.4196408E2],"tree_param":{"num_deleted":"0","num_feature":"50","num_nodes":"15","size_leaf_vector":"1"}},{"base_weights":[6.714854E-4,-9.3441504E-1,1.8077283E-1,-1.0637065E0,4.537974E-1,1.0917185E-1,1.0303328E0,-2.2798743E-2,-1.2824609E-2,2.0193195E-2,-1.8343164E-3,-6.2423516E-3,4.6074423E-3,1.8249547E-2,2.3087459E-2],"categories":[],"categories_nodes":[],"categories_segments":[],"categories_sizes":[],"default_left":[0,0,0,0,0,0,0,0,0,0,0,0,0,0,0],"id":61,"left_children":[1,3,5,7,9,11,13,-1,-1,-1,-1,-1,-1,-1,-1],"loss_changes":[6.9862363E3,1.2038691E3,2.1155508E3,1.8167676E2,1.722214E2,1.6164403E3,3.6079346E1,0E0,0E0,0E0,0E0,0E0,0E0,0E0,0E0],"parents":[2147483647,0,0,1,1,2,2,3,3,4,4,5,5,6,6],"right_children":[2,4,6,8,10,12,14,-1,-1,-1,-1,-1,-1,-1,-1],"split_conditions":[8.333333E-1,4.667E0,5E0,9.932192E-1,-1.0181623E0,-7.0552456E-1,5.667E0,-2.2798743E-2,-1.2824609E-2,2.0193195E-2,-1.8343164E-3,-6.2423516E-3,4.6074423E-3,1.8249547E-2,2.3087459E-2],"split_indices":[7,13,13,34,0,18,13,0,0,0,0,0,0,0,0],"split_type":[0,0,0,0,0,0,0,0,0,0,0,0,0,0,0],"sum_hessian":[4.147755E4,6.6965884E3,3.478096E4,6.1266646E3,5.699237E2,3.2080518E4,2.7004446E3,5.252821E3,8.738437E2,2.8225787E2,2.8766586E2,7.133211E3,2.4947307E4,1.3383936E3,1.3620509E3],"tree_param":{"num_deleted":"0","num_feature":"50","num_nodes":"15","size_leaf_vector":"1"}},{"base_weights":[8.5868745E-4,5.95226E-1,-3.911779E-1,1.0010407E0,4.3112776E-1,-8.9865305E-2,-7.812259E-1,5.977272E-3,2.0963972E-2,5.1166313E-3,1.1891675E-2,4.5685917E-3,-4.881274E-3,-2.1516785E-2,-1.0865265E-2],"categories":[],"categories_nodes":[],"categories_segments":[],"categories_sizes":[],"default_left":[0,0,0,0,0,0,0,0,0,0,0,0,0,0,0],"id":62,"left_children":[1,3,5,7,9,11,13,-1,-1,-1,-1,-1,-1,-1,-1],"loss_changes":[9.628524E3,1.0923945E3,2.9260596E3,1.3820068E2,3.310205E2,6.817193E2,7.5358545E2,0E0,0E0,0E0,0E0,0E0,0E0,0E0,0E0],"parents":[2147483647,0,0,1,1,2,2,3,3,4,4,5,5,6,6],"right_children":[2,4,6,8,10,12,14,-1,-1,-1,-1,-1,-1,-1,-1],"split_conditions":[-1.8333334E1,-3.6833332E1,-6.8333335E0,-5.983763E-1,3.9090623E-6,1.667E0,1E0,5.977272E-3,2.0963972E-2,5.1166313E-3,1.1891675E-2,4.5685917E-3,-4.881274E-3,-2.1516785E-2,-1.0865265E-2],"split_indices":[5,5,5,27,10,13,3,0,0,0,0,0,0,0,0],"split_type":[0,0,0,0,0,0,0,0,0,0,0,0,0,0,0],"sum_hessian":[4.131585E4,1.6419979E4,2.4895873E4,4.7235967E3,1.1696383E4,1.4047647E4,1.0848225E4,2.6632703E2,4.4572695E3,5.5712515E3,6.125131E3,4.570328E3,9.477319E3,4.9239497E3,5.9242754E3],"tree_param":{"num_deleted":"0","num_feature":"50","num_nodes":"15","size_leaf_vector":"1"}},{"base_weights":[-1.8684544E-3,6.025108E-1,-3.8041285E-1,9.936272E-1,4.367189E-1,-1.7502214E-1,-9.4561076E-1,1.02629E-2,2.119712E-2,-1.1118575E-4,1.0206371E-2,-9.662657E-3,-1.1674216E-3,-2.0243743E-2,4.858192E-3],"categories":[],"categories_nodes":[],"categories_segments":[],"categories_sizes":[],"default_left":[0,0,0,0,0,0,0,0,0,0,0,0,0,0,0],"id":63,"left_children":[1,3,5,7,9,11,13,-1,-1,-1,-1,-1,-1,-1,-1],"loss_changes":[9.413719E3,1.0262754E3,2.9365286E3,1.37E2,3.4963208E2,6.6336646E2,4.9246338E2,0E0,0E0,0E0,0E0,0E0,0E0,0E0,0E0],"parents":[2147483647,0,0,1,1,2,2,3,3,4,4,5,5,6,6],"right_children":[2,4,6,8,10,12,14,-1,-1,-1,-1,-1,-1,-1,-1],"split_conditions":[-1.8833334E1,-3.6833332E1,-3.3333333E0,-3.427058E-1,-4.026154E-1,-7.70623E-1,5.3185815E-1,1.02629E-2,2.119712E-2,-1.1118575E-4,1.0206371E-2,-9.662657E-3,-1.1674216E-3,-2.0243743E-2,4.858192E-3],"split_indices":[5,5,5,27,27,47,42,0,0,0,0,0,0,0,0],"split_type":[0,0,0,0,0,0,0,0,0,0,0,0,0,0,0],"sum_hessian":[4.114082E4,1.5843521E4,2.52973E4,4.712274E3,1.1131248E4,1.8557434E4,6.7398657E3,5.301181E2,4.182156E3,1.5402572E3,9.59099E3,5.1329624E3,1.3424472E4,6.408745E3,3.31121E2],"tree_param":{"num_deleted":"0","num_feature":"50","num_nodes":"15","size_leaf_vector":"1"}},{"base_weights":[-2.4126226E-3,5.455275E-1,-4.1233245E-1,9.8110443E-1,3.894666E-1,-2.0307839E-1,-9.4003963E-1,5.0635925E-3,2.0603118E-2,6.257929E-3,1.5613116E-2,-1.03721665E-2,-1.6573964E-3,-2.0323543E-2,1.7763053E-3],"categories":[],"categories_nodes":[],"categories_segments":[],"categories_sizes":[],"default_left":[0,0,0,0,0,0,0,0,0,0,0,0,0,0,0],"id":64,"left_children":[1,3,5,7,9,11,13,-1,-1,-1,-1,-1,-1,-1,-1],"loss_changes":[9.202728E3,1.1907832E3,2.5875486E3,1.4693799E2,3.9013806E2,6.334675E2,4.8589648E2,0E0,0E0,0E0,0E0,0E0,0E0,0E0,0E0],"parents":[2147483647,0,0,1,1,2,2,3,3,4,4,5,5,6,6],"right_children":[2,4,6,8,10,12,14,-1,-1,-1,-1,-1,-1,-1,-1],"split_conditions":[-1.7166666E1,-3.6833332E1,-3.3333333E0,-5.983763E-1,1.2582684E0,-3.0976734E-1,4.8971045E-1,5.0635925E-3,2.0603118E-2,6.257929E-3,1.5613116E-2,-1.03721665E-2,-1.6573964E-3,-2.0323543E-2,1.7763053E-3],"split_indices":[5,5,5,27,18,10,42,0,0,0,0,0,0,0,0],"split_type":[0,0,0,0,0,0,0,0,0,0,0,0,0,0,0],"sum_hessian":[4.0965895E4,1.7531096E4,2.3434799E4,4.620232E3,1.2910863E4,1.6783584E4,6.6512144E3,2.6296225E2,4.3572695E3,1.0746824E4,2.1640393E3,4.6674775E3,1.2116106E4,6.2219106E3,4.293036E2],"tree_param":{"num_deleted":"0","num_feature":"50","num_nodes":"15","size_leaf_vector":"1"}},{"base_weights":[-1.6303435E-3,3.066038E-1,-6.9648737E-1,6.9785446E-1,4.3695275E-2,-4.5535263E-1,-9.8179823E-1,1.9886082E-2,1.0387171E-2,9.721876E-3,-1.0693544E-3,-9.631886E-3,3.383953E-2,-2.1337042E-2,1.6117424E-3],"categories":[],"categories_nodes":[],"categories_segments":[],"categories_sizes":[],"default_left":[0,0,0,0,0,0,0,0,0,0,0,0,0,0,0],"id":65,"left_children":[1,3,5,7,9,11,13,-1,-1,-1,-1,-1,-1,-1,-1],"loss_changes":[8.734518E3,2.9057908E3,8.608374E2,5.977661E2,7.2040546E2,3.4820752E2,4.8540576E2,0E0,0E0,0E0,0E0,0E0,0E0,0E0,0E0],"parents":[2147483647,0,0,1,1,2,2,3,3,4,4,5,5,6,6],"right_children":[2,4,6,8,10,12,14,-1,-1,-1,-1,-1,-1,-1,-1],"split_conditions":[-8.333333E0,-2.3666666E1,-2.3333333E0,-3.7666668E1,1.333E0,2.2677028E0,4.333E0,1.9886082E-2,1.0387171E-2,9.721876E-3,-1.0693544E-3,-9.631886E-3,3.383953E-2,-2.1337042E-2,1.6117424E-3],"split_indices":[5,5,5,5,13,21,13,0,0,0,0,0,0,0,0],"split_type":[0,0,0,0,0,0,0,0,0,0,0,0,0,0,0],"sum_hessian":[4.0775605E4,2.8247037E4,1.2528569E4,1.1350621E4,1.6896414E4,6.7940635E3,5.734506E3,4.3461294E3,7.004492E3,3.0475571E3,1.3848857E4,6.721565E3,7.249887E1,5.334533E3,3.999724E2],"tree_param":{"num_deleted":"0","num_feature":"50","num_nodes":"15","size_leaf_vector":"1"}},{"base_weights":[-3.0116485E-3,3.6059836E-1,-5.82703E-1,8.104012E-1,1.5712132E-1,-3.6101046E-1,-9.729163E-1,2.1165779E-2,1.317388E-2,1.9041126E-3,1.44551955E-2,-5.8074836E-3,-1.8081516E-2,-2.119423E-2,2.0835414E-3],"categories":[],"categories_nodes":[],"categories_segments":[],"categories_sizes":[],"default_left":[0,0,0,0,0,0,0,0,0,0,0,0,0,0,0],"id":66,"left_children":[1,3,5,7,9,11,13,-1,-1,-1,-1,-1,-1,-1,-1],"loss_changes":[8.574082E3,2.2875388E3,1.3553892E3,2.9072656E2,6.034818E2,3.8768994E2,4.980044E2,0E0,0E0,0E0,0E0,0E0,0E0,0E0,0E0],"parents":[2147483647,0,0,1,1,2,2,3,3,4,4,5,5,6,6],"right_children":[2,4,6,8,10,12,14,-1,-1,-1,-1,-1,-1,-1,-1],"split_conditions":[-1.0833333E1,-2.8833334E1,-2.3333333E0,-4.3666668E1,1.570016E0,1.2743762E0,4.333E0,2.1165779E-2,1.317388E-2,1.9041126E-3,1.44551955E-2,-5.8074836E-3,-1.8081516E-2,-2.119423E-2,2.0835414E-3],"split_indices":[5,5,5,5,18,26,13,0,0,0,0,0,0,0,0],"split_type":[0,0,0,0,0,0,0,0,0,0,0,0,0,0,0],"sum_hessian":[4.0671723E4,2.4994863E4,1.5676861E4,7.782428E3,1.7212436E4,1.0000752E4,5.676109E3,3.0287317E3,4.753697E3,1.5495262E4,1.717174E3,8.823556E3,1.1771963E3,5.277145E3,3.9896378E2],"tree_param":{"num_deleted":"0","num_feature":"50","num_nodes":"15","size_leaf_vector":"1"}},{"base_weights":[-1.4621015E-3,5.713629E-1,-3.5692766E-1,9.6618557E-1,4.1164786E-1,-1.812107E-1,-9.6701175E-1,-1.6617158E-2,1.9592864E-2,6.6926316E-3,1.5912035E-2,-9.899096E-3,-1.2235601E-3,-2.116805E-2,2.6877148E-3],"categories":[],"categories_nodes":[],"categories_segments":[],"categories_sizes":[],"default_left":[0,0,0,0,0,0,0,0,0,0,0,0,0,0,0],"id":67,"left_children":[1,3,5,7,9,11,13,-1,-1,-1,-1,-1,-1,-1,-1],"loss_changes":[8.231274E3,9.7496875E2,2.6736555E3,7.004736E1,3.2898132E2,7.254212E2,5.284087E2,0E0,0E0,0E0,0E0,0E0,0E0,0E0,0E0],"parents":[2147483647,0,0,1,1,2,2,3,3,4,4,5,5,6,6],"right_children":[2,4,6,8,10,12,14,-1,-1,-1,-1,-1,-1,-1,-1],"split_conditions":[-1.8833334E1,-3.6833332E1,-2.3333333E0,8.333333E-1,1.2582684E0,-7.70623E-1,4.333E0,-1.6617158E-2,1.9592864E-2,6.6926316E-3,1.5912035E-2,-9.899096E-3,-1.2235601E-3,-2.116805E-2,2.6877148E-3],"split_indices":[5,5,5,7,18,47,13,0,0,0,0,0,0,0,0],"split_type":[0,0,0,0,0,0,0,0,0,0,0,0,0,0,0],"sum_hessian":[4.041891E4,1.5476725E4,2.4942184E4,4.453268E3,1.1023457E4,1.9367684E4,5.5745005E3,1.9616964E1,4.433651E3,9.135922E3,1.8875348E3,5.398194E3,1.3969489E4,5.170618E3,4.0388245E2],"tree_param":{"num_deleted":"0","num_feature":"50","num_nodes":"15","size_leaf_vector":"1"}},{"base_weights":[1.2847662E-3,5.666767E-1,-3.485523E-1,9.533597E-1,4.1008466E-1,-1.6892041E-1,-9.419746E-1,9.042488E-3,2.0450452E-2,4.5929397E-3,1.1562885E-2,-9.680847E-3,-9.7221264E-4,-2.104381E-2,-2.4342195E-3],"categories":[],"categories_nodes":[],"categories_segments":[],"categories_sizes":[],"default_left":[0,0,0,0,0,0,0,0,0,0,0,0,0,0,0],"id":68,"left_children":[1,3,5,7,9,11,13,-1,-1,-1,-1,-1,-1,-1,-1],"loss_changes":[7.9694604E3,9.3141016E2,2.6528E3,1.4155591E2,3.2847644E2,7.202628E2,4.9743164E2,0E0,0E0,0E0,0E0,0E0,0E0,0E0,0E0],"parents":[2147483647,0,0,1,1,2,2,3,3,4,4,5,5,6,6],"right_children":[2,4,6,8,10,12,14,-1,-1,-1,-1,-1,-1,-1,-1],"split_conditions":[-1.8833334E1,-3.6833332E1,-2.6666667E0,-3.427058E-1,3.9090623E-6,-7.70623E-1,4.0276483E-1,9.042488E-3,2.0450452E-2,4.5929397E-3,1.1562885E-2,-9.680847E-3,-9.7221264E-4,-2.104381E-2,-2.4342195E-3],"split_indices":[5,5,5,27,10,47,42,0,0,0,0,0,0,0,0],"split_type":[0,0,0,0,0,0,0,0,0,0,0,0,0,0,0],"sum_hessian":[4.0285656E4,1.5398093E4,2.4887564E4,4.434008E3,1.0964085E4,1.9107416E4,5.7801484E3,5.0238596E2,3.931622E3,5.2246646E3,5.7394204E3,5.314851E3,1.3792564E4,5.1247E3,6.554483E2],"tree_param":{"num_deleted":"0","num_feature":"50","num_nodes":"15","size_leaf_vector":"1"}},{"base_weights":[1.994251E-4,-8.84441E-1,1.5880446E-1,4.7016406E-1,-1.0146523E0,9.357889E-2,9.861729E-1,1.0323472E-3,2.258898E-2,-2.20842E-2,-9.737927E-3,-5.9803203E-3,4.1040294E-3,1.0278816E-3,2.0177636E-2],"categories":[],"categories_nodes":[],"categories_segments":[],"categories_sizes":[],"default_left":[0,0,0,0,0,0,0,0,0,0,0,0,0,0,0],"id":69,"left_children":[1,3,5,7,9,11,13,-1,-1,-1,-1,-1,-1,-1,-1],"loss_changes":[5.628141E3,1.0770508E3,1.8353313E3,1.467559E2,2.4610107E2,1.3637543E3,4.0690918E1,0E0,0E0,0E0,0E0,0E0,0E0,0E0,0E0],"parents":[2147483647,0,0,1,1,2,2,3,3,4,4,5,5,6,6],"right_children":[2,4,6,8,10,12,14,-1,-1,-1,-1,-1,-1,-1,-1],"split_conditions":[8.333333E-1,-1.7967206E0,1.6666667E-1,6.3798475E-1,1.051668E0,-7.864087E-1,-1.0082548E0,1.0323472E-3,2.258898E-2,-2.20842E-2,-9.737927E-3,-5.9803203E-3,4.1040294E-3,1.0278816E-3,2.0177636E-2],"split_indices":[7,41,14,42,34,47,47,0,0,0,0,0,0,0,0],"split_type":[0,0,0,0,0,0,0,0,0,0,0,0,0,0,0],"sum_hessian":[4.010678E4,6.0954136E3,3.4011367E4,5.3386786E2,5.5615454E3,3.1529035E4,2.4823323E3,3.2728796E2,2.0657993E2,4.7987397E3,7.628057E2,6.9488105E3,2.4580225E4,4.600863E1,2.4363237E3],"tree_param":{"num_deleted":"0","num_feature":"50","num_nodes":"15","size_leaf_vector":"1"}},{"base_weights":[-4.0937834E-3,3.0233106E-1,-6.280034E-1,6.9708514E-1,7.191455E-2,-4.1900194E-1,-9.639419E-1,1.9518016E-2,1.0398269E-2,7.252055E-3,-1.458619E-3,3.6187958E-2,-8.840656E-3,-2.1751335E-2,-2.6083065E-3],"categories":[],"categories_nodes":[],"categories_segments":[],"categories_sizes":[],"default_left":[0,0,0,0,0,0,0,0,0,0,0,0,0,0,0],"id":70,"left_children":[1,3,5,7,9,11,13,-1,-1,-1,-1,-1,-1,-1,-1],"loss_changes":[7.631501E3,2.434789E3,9.21937E2,4.843672E2,7.0560095E2,3.7635083E2,4.961084E2,0E0,0E0,0E0,0E0,0E0,0E0,0E0,0E0],"parents":[2147483647,0,0,1,1,2,2,3,3,4,4,5,5,6,6],"right_children":[2,4,6,8,10,12,14,-1,-1,-1,-1,-1,-1,-1,-1],"split_conditions":[-9.166667E0,-2.5166666E1,-1.8333334E0,-3.85E1,2E0,-2.2005663E0,3.667E0,1.9518016E-2,1.0398269E-2,7.252055E-3,-1.458619E-3,3.6187958E-2,-8.840656E-3,-2.1751335E-2,-2.6083065E-3],"split_indices":[5,5,5,5,13,20,13,0,0,0,0,0,0,0,0],"split_type":[0,0,0,0,0,0,0,0,0,0,0,0,0,0,0],"sum_hessian":[3.9911754E4,2.6767004E4,1.3144747E4,9.863219E3,1.6903787E4,8.107382E3,5.0373657E3,3.9043213E3,5.9588975E3,5.6345093E3,1.1269277E4,7.2891525E1,8.03449E3,4.4119287E3,6.254371E2],"tree_param":{"num_deleted":"0","num_feature":"50","num_nodes":"15","size_leaf_vector":"1"}},{"base_weights":[2.4501274E-3,4.626846E-1,-4.1103238E-1,8.5934776E-1,2.9335743E-1,-2.2994408E-1,-9.460922E-1,7.4758837E-3,1.8916128E-2,4.3852245E-3,1.4004625E-2,-5.320067E-3,1.6739206E-2,-2.1165103E-2,-2.4972057E-3],"categories":[],"categories_nodes":[],"categories_segments":[],"categories_sizes":[],"default_left":[0,0,0,0,0,0,0,0,0,0,0,0,0,0,0],"id":71,"left_children":[1,3,5,7,9,11,13,-1,-1,-1,-1,-1,-1,-1,-1],"loss_changes":[7.58788E3,1.2666775E3,2.0344607E3,2.235918E2,4.0084253E2,5.795249E2,4.6561816E2,0E0,0E0,0E0,0E0,0E0,0E0,0E0,0E0],"parents":[2147483647,0,0,1,1,2,2,3,3,4,4,5,5,6,6],"right_children":[2,4,6,8,10,12,14,-1,-1,-1,-1,-1,-1,-1,-1],"split_conditions":[-1.55E1,-3.2833332E1,-2.3333333E0,-2.6715186E-1,1.2582684E0,2.1925704E0,4.066333E-1,7.4758837E-3,1.8916128E-2,4.3852245E-3,1.4004625E-2,-5.320067E-3,1.6739206E-2,-2.1165103E-2,-2.4972057E-3],"split_indices":[5,5,5,27,18,21,42,0,0,0,0,0,0,0,0],"split_type":[0,0,0,0,0,0,0,0,0,0,0,0,0,0,0],"sum_hessian":[3.9867625E4,1.8867004E4,2.1000623E4,5.640868E3,1.3226137E4,1.5693441E4,5.3071807E3,8.1159644E2,4.8292715E3,1.1151116E4,2.07502E3,1.5199237E4,4.9420456E2,4.696219E3,6.109616E2],"tree_param":{"num_deleted":"0","num_feature":"50","num_nodes":"15","size_leaf_vector":"1"}},{"base_weights":[-4.1123113E-4,3.205028E-1,-5.656475E-1,7.596743E-1,1.2844087E-1,-9.844748E-1,-3.706228E-1,4.399775E-3,1.6925577E-2,8.330973E-3,1.2323778E-4,2.9330305E-3,-2.0530783E-2,-8.1393905E-3,1.6914558E-2],"categories":[],"categories_nodes":[],"categories_segments":[],"categories_sizes":[],"default_left":[0,0,0,0,0,0,0,0,0,0,0,0,0,0,0],"id":72,"left_children":[1,3,5,7,9,11,13,-1,-1,-1,-1,-1,-1,-1,-1],"loss_changes":[7.1942373E3,2.1335654E3,1.1721313E3,3.4202148E2,6.157803E2,1.9039453E2,4.0831543E2,0E0,0E0,0E0,0E0,0E0,0E0,0E0,0E0],"parents":[2147483647,0,0,1,1,2,2,3,3,4,4,5,5,6,6],"right_children":[2,4,6,8,10,12,14,-1,-1,-1,-1,-1,-1,-1,-1],"split_conditions":[-1.0166667E1,-2.8333334E1,1E0,-3.272992E-1,2E0,-2.1515176E0,2.1925704E0,4.399775E-3,1.6925577E-2,8.330973E-3,1.2323778E-4,2.9330305E-3,-2.0530783E-2,-8.1393905E-3,1.6914558E-2],"split_indices":[5,5,3,27,13,41,21,0,0,0,0,0,0,0,0],"split_type":[0,0,0,0,0,0,0,0,0,0,0,0,0,0,0],"sum_hessian":[3.9655363E4,2.529522E4,1.4360145E4,7.6938047E3,1.7601416E4,4.558545E3,9.8016E3,1.01759705E3,6.6762075E3,5.2706045E3,1.2330811E4,1.436066E2,4.414938E3,9.533937E3,2.6766318E2],"tree_param":{"num_deleted":"0","num_feature":"50","num_nodes":"15","size_leaf_vector":"1"}},{"base_weights":[-6.1549176E-4,-8.51345E-1,1.4719528E-1,-9.495121E-1,7.8801024E-1,8.506891E-2,7.9069877E-1,-2.101154E-2,-5.088513E-3,1.4663152E-3,2.3472784E-2,8.220587E-4,1.8907271E-2,1.0482834E-2,1.8849272E-2],"categories":[],"categories_nodes":[],"categories_segments":[],"categories_sizes":[],"default_left":[0,0,0,0,0,0,0,0,0,0,0,0,0,0,0],"id":73,"left_children":[1,3,5,7,9,11,13,-1,-1,-1,-1,-1,-1,-1,-1],"loss_changes":[4.9573184E3,9.4132715E2,1.3425745E3,3.6632324E2,8.969316E1,1.1575593E3,1.1556213E2,0E0,0E0,0E0,0E0,0E0,0E0,0E0,0E0],"parents":[2147483647,0,0,1,1,2,2,3,3,4,4,5,5,6,6],"right_children":[2,4,6,8,10,12,14,-1,-1,-1,-1,-1,-1,-1,-1],"split_conditions":[8.333333E-1,1E0,1E0,1.3470377E0,1E0,2.1925704E0,-7.181391E-2,-2.101154E-2,-5.088513E-3,1.4663152E-3,2.3472784E-2,8.220587E-4,1.8907271E-2,1.0482834E-2,1.8849272E-2],"split_indices":[7,11,4,34,3,21,2,0,0,0,0,0,0,0,0],"split_type":[0,0,0,0,0,0,0,0,0,0,0,0,0,0,0],"sum_hessian":[3.9417113E4,5.832729E3,3.3584387E4,5.5043516E3,3.2837723E2,3.063051E4,2.9538762E3,4.837906E3,6.66446E2,1.1509345E2,2.1328377E2,2.9129404E4,1.5011049E3,1.0477952E3,1.9060809E3],"tree_param":{"num_deleted":"0","num_feature":"50","num_nodes":"15","size_leaf_vector":"1"}},{"base_weights":[9.271145E-4,5.314641E-1,-3.256896E-1,9.235495E-1,3.7887254E-1,-1.5236029E-1,-8.845916E-1,4.2482363E-3,1.947697E-2,3.9725667E-3,1.1395717E-2,-4.126576E-3,1.0397816E-2,-1.9832902E-2,-3.0840735E-3],"categories":[],"categories_nodes":[],"categories_segments":[],"categories_sizes":[],"default_left":[0,0,0,0,0,0,0,0,0,0,0,0,0,0,0],"id":74,"left_children":[1,3,5,7,9,11,13,-1,-1,-1,-1,-1,-1,-1,-1],"loss_changes":[6.8248257E3,8.96876E2,2.3611826E3,1.3511523E2,3.680028E2,6.597755E2,4.2990918E2,0E0,0E0,0E0,0E0,0E0,0E0,0E0,0E0],"parents":[2147483647,0,0,1,1,2,2,3,3,4,4,5,5,6,6],"right_children":[2,4,6,8,10,12,14,-1,-1,-1,-1,-1,-1,-1,-1],"split_conditions":[-1.8833334E1,-3.6833332E1,-3.1666667E0,-5.983763E-1,4.6526216E-2,1.570016E0,3.9098144E-1,4.2482363E-3,1.947697E-2,3.9725667E-3,1.1395717E-2,-4.126576E-3,1.0397816E-2,-1.9832902E-2,-3.0840735E-3],"split_indices":[5,5,5,27,41,18,42,0,0,0,0,0,0,0,0],"split_type":[0,0,0,0,0,0,0,0,0,0,0,0,0,0,0],"sum_hessian":[3.9379746E4,1.5004875E4,2.4374873E4,4.199481E3,1.0805395E4,1.8607846E4,5.7670273E3,2.5235011E2,3.9471306E3,5.5046426E3,5.300752E3,1.7246865E4,1.3609803E3,5.0600645E3,7.069628E2],"tree_param":{"num_deleted":"0","num_feature":"50","num_nodes":"15","size_leaf_vector":"1"}},{"base_weights":[-1.1268643E-3,2.7540404E-1,-6.189335E-1,7.4069506E-1,9.6393146E-2,-4.0394804E-1,-9.2057335E-1,3.5939494E-3,1.6635058E-2,1.0635761E-3,1.769072E-2,3.4583315E-2,-8.555187E-3,-2.0445641E-2,-2.1006677E-3],"categories":[],"categories_nodes":[],"categories_segments":[],"categories_sizes":[],"default_left":[0,0,0,0,0,0,0,0,0,0,0,0,0,0,0],"id":75,"left_children":[1,3,5,7,9,11,13,-1,-1,-1,-1,-1,-1,-1,-1],"loss_changes":[6.7094736E3,2.2594749E3,7.863784E2,3.6729248E2,6.6760754E2,3.2823096E2,3.974829E2,0E0,0E0,0E0,0E0,0E0,0E0,0E0,0E0],"parents":[2147483647,0,0,1,1,2,2,3,3,4,4,5,5,6,6],"right_children":[2,4,6,8,10,12,14,-1,-1,-1,-1,-1,-1,-1,-1],"split_conditions":[-8.666667E0,-2.8333334E1,-2.3333333E0,-3.272992E-1,2.1925704E0,-2.2005663E0,1.6098385E0,3.5939494E-3,1.6635058E-2,1.0635761E-3,1.769072E-2,3.4583315E-2,-8.555187E-3,-2.0445641E-2,-2.1006677E-3],"split_indices":[5,5,5,27,21,20,34,0,0,0,0,0,0,0,0],"split_type":[0,0,0,0,0,0,0,0,0,0,0,0,0,0,0],"sum_hessian":[3.9266984E4,2.7126678E4,1.2140308E4,7.534242E3,1.9592436E4,7.0923096E3,5.0479985E3,1.00956256E3,6.524679E3,1.8565354E4,1.0270823E3,6.9184586E1,7.023125E3,4.513521E3,5.344776E2],"tree_param":{"num_deleted":"0","num_feature":"50","num_nodes":"15","size_leaf_vector":"1"}},{"base_weights":[-1.3719645E-3,2.631094E-1,-6.252007E-1,5.735438E-1,2.2880414E-3,-9.914581E-1,-4.1506672E-1,1.879893E-2,8.526456E-3,9.005119E-3,-2.1055508E-3,-2.038475E-2,1.0449887E-2,-9.577766E-3,8.372922E-3],"categories":[],"categories_nodes":[],"categories_segments":[],"categories_sizes":[],"default_left":[0,0,0,0,0,0,0,0,0,0,0,0,0,0,0],"id":76,"left_children":[1,3,5,7,9,11,13,-1,-1,-1,-1,-1,-1,-1,-1],"loss_changes":[6.435766E3,2.2179565E3,8.926211E2,6.7449805E2,7.103539E2,1.4603809E2,3.775459E2,0E0,0E0,0E0,0E0,0E0,0E0,0E0,0E0],"parents":[2147483647,0,0,1,1,2,2,3,3,4,4,5,5,6,6],"right_children":[2,4,6,8,10,12,14,-1,-1,-1,-1,-1,-1,-1,-1],"split_conditions":[-8.333333E0,-2.1333334E1,1E0,-3.85E1,1.333E0,1.6303934E0,1.3470377E0,1.879893E-2,8.526456E-3,9.005119E-3,-2.1055508E-3,-2.038475E-2,1.0449887E-2,-9.577766E-3,8.372922E-3],"split_indices":[5,5,3,5,13,43,34,0,0,0,0,0,0,0,0],"split_type":[0,0,0,0,0,0,0,0,0,0,0,0,0,0,0],"sum_hessian":[3.900091E4,2.7390146E4,1.1610764E4,1.2504065E4,1.4886081E4,4.228947E3,7.381817E3,3.650979E3,8.853087E3,2.8808364E3,1.2005244E4,4.1676064E3,6.1339897E1,6.875537E3,5.062797E2],"tree_param":{"num_deleted":"0","num_feature":"50","num_nodes":"15","size_leaf_vector":"1"}},{"base_weights":[1.6135541E-3,2.601101E-1,-6.135774E-1,7.1306753E-1,8.6248845E-2,-9.755046E-1,-4.066197E-1,2.031057E-2,1.1358509E-2,8.7333977E-4,1.7446205E-2,-2.013775E-2,1.0285003E-2,1.5047772E-2,-9.019251E-3],"categories":[],"categories_nodes":[],"categories_segments":[],"categories_sizes":[],"default_left":[0,0,0,0,0,0,0,0,0,0,0,0,0,0,0],"id":77,"left_children":[1,3,5,7,9,11,13,-1,-1,-1,-1,-1,-1,-1,-1],"loss_changes":[6.187569E3,2.1574111E3,8.6113525E2,3.3274536E2,6.6237976E2,1.6496533E2,3.569784E2,0E0,0E0,0E0,0E0,0E0,0E0,0E0,0E0],"parents":[2147483647,0,0,1,1,2,2,3,3,4,4,5,5,6,6],"right_children":[2,4,6,8,10,12,14,-1,-1,-1,-1,-1,-1,-1,-1],"split_conditions":[-8.333333E0,-2.8E1,1E0,-4.5E1,2.1925704E0,1.5394068E0,-1.893397E0,2.031057E-2,1.1358509E-2,8.7333977E-4,1.7446205E-2,-2.013775E-2,1.0285003E-2,1.5047772E-2,-9.019251E-3],"split_indices":[5,5,3,5,21,43,41,0,0,0,0,0,0,0,0],"split_type":[0,0,0,0,0,0,0,0,0,0,0,0,0,0,0],"sum_hessian":[3.8903605E4,2.7394445E4,1.1509159E4,7.5959043E3,1.9798541E4,4.1830244E3,7.3261343E3,2.5193103E3,5.076594E3,1.8773535E4,1.0250065E3,4.111383E3,7.164139E1,2.5557513E2,7.070559E3],"tree_param":{"num_deleted":"0","num_feature":"50","num_nodes":"15","size_leaf_vector":"1"}},{"base_weights":[-1.5053432E-3,2.6419964E-1,-5.873653E-1,7.1543026E-1,9.2936546E-2,-9.6445554E-1,-3.8944393E-1,2.8863312E-3,1.616888E-2,7.3188115E-3,-6.3028093E-4,-1.9897364E-2,9.521568E-3,-8.978688E-3,8.082382E-3],"categories":[],"categories_nodes":[],"categories_segments":[],"categories_sizes":[],"default_left":[0,0,0,0,0,0,0,0,0,0,0,0,0,0,0],"id":78,"left_children":[1,3,5,7,9,11,13,-1,-1,-1,-1,-1,-1,-1,-1],"loss_changes":[6.0427754E3,2.0636714E3,9.0288916E2,3.731726E2,6.525505E2,1.5329004E2,3.60406E2,0E0,0E0,0E0,0E0,0E0,0E0,0E0,0E0],"parents":[2147483647,0,0,1,1,2,2,3,3,4,4,5,5,6,6],"right_children":[2,4,6,8,10,12,14,-1,-1,-1,-1,-1,-1,-1,-1],